{"layers":[{"weights":[[-0.9833168949882654,-0.5902415487592504,0.7658762015317242,0.9639178921733552,0.5858300715295609,0.6478699787697042,0.6906533433769093,-0.7992422916156227,0.8545997385377485,0.6902341717257784,-0.8015134759612985,-0.8607785605528604,-0.45911591588416506,-0.4633064597307051,-0.9601903968755855,-0.8761849798729382,0.953053223749867,-0.5417675458398096,0.9955219315335156,0.12052524649942979,-0.31125442920612323,0.7045985064066381,0.034611391706557186,0.8928782356077483,0.08626361315017608,-0.3150954341342242,-0.15495848898214348,0.24694425473223555,0.23333626153777373,0.1784851146500803,0.5531623261874121,0.3279074863561483,-0.7514776093088982,-0.5032575521461257,0.38574256676965746,-0.40837362901866847,-0.979951022129972,-0.06038806333198882,-0.46860336896669064,0.7805900236361342,0.6205070019455506,-0.6232335713981162,-0.4779223702656549,0.0011464414099080578,-0.7884628140384735,-0.6672944455370255,0.08245386997334851,-0.1716982056533919,-0.5897743185414306,0.565545496185559,-0.41537901235120783,0.25854389314554127,-0.18882600610106792,0.8044445321317311,0.9970405684716961,0.28363452742517953,0.6391360611215866,-0.9547672071938563,0.5317773017452553,-0.12106379187583513,0.3550069512465558,-0.395817296330025,-0.929678704242629,-0.7225315232251551,-0.5552515565840611,0.9901564120346847,0.8882370017852094,-0.4553956007171213,0.592045766490114,-0.4203259032577065,0.20066565725004964,-0.32654417490911747,-0.03107328618882893,0.0658332356596247,-0.38495537172797273,0.6878002278137635,0.4732674540219791,-0.29980457266262095,-0.29519767849028455,0.5708713990834801,0.4023024989204707,-0.5406550983024495,-0.3935488891108408,-0.7712275737425627,0.2692354021679609,0.43998791643089336,0.7953916570044771,0.15485567663580185,0.25579516903791616,0.024357062157167254,0.009421605252610769,0.9770544016187341,-0.8622626416849085,-0.34454037135579924,0.6662978224378302,0.6509215509186268,0.4289263578203117,0.42341417050974406,-0.9389256438869971,0.704114035244107,0.960744644619244,0.08827756114150447,0.13072465917671405,-0.35787715372898826,-0.854386441046795,-0.3499409749350944,-0.3613849836042824,-0.605806305495975,0.7711372390223139,-0.8728715063434846,-0.7428511784007903,0.5062037253035686,-0.6729436703090635,0.8135528460118678,0.21787293831768845,0.6823784629783715,-0.4099797182028909,-0.0385421785611459,-0.05098587887583735,-0.7690817958555818,-0.5266702586108243,-0.4302328991671522,0.43550547656809624,-0.013223520424440279,-0.0054565949144380925,-0.24016295021968664,0.9134591157939567,-0.634509952340481,0.6227687175283293,-0.9197805109769391,0.950208493711555,0.34321086503111403,-0.7633195226321994,-0.9945139650445645,0.9636376227699486,-0.6348294238109371,0.4598442920259575,-0.11779220695706207,-0.20211642836126884,-0.5502893975202817,-0.7671637998089929,0.6218052198830435,-0.8992473243541642,-0.9121457540164011,0.142172024034497,-0.44674410845999896,-0.06341442659011694,0.9290831484690938,-0.7544014774195642,0.02130470293200622,0.320776900633882,0.6995816959867351,-0.0834539399400711,-0.4475796367964417,-0.8234456868078879,-0.6826592657606161,-0.42303832347063386,-0.289899707259576,0.5913463545068967,-0.2525243405158547,0.09461672707057255,-0.8787623562532515,0.19006492430659225,0.7852399545248232,-0.906347230008293,0.5808822007584363,0.9436914348209806,0.6573191181092586,0.4580224678534943,0.6269991463966245,0.7969971646344527,0.10156150883033208,-0.09487025581914849,0.5274548179174281,-0.8745376367884294,-0.5859622105135879,-0.33586255030170276,-0.7683219113243153,-0.7788105276430463,0.8452403338895793,-0.9857628715304008,-0.48646079271249293,-0.24037341279218713,0.6828197553763603,0.7219492366765138,0.2688387151867419,-0.48691979115415196,0.3747150867417604,-0.7389483602339914,0.7284965264135087,0.45444511394369325,-0.8716839093186803,-0.891325636977139,0.2113772480297374,0.8334515099297425,-0.4382680994081226,0.3798518896281416,-0.03713171276747106,-0.18991375444190994,-0.8096790208591655,0.5975566909038785,-0.3868791457918123,0.7942253776202388,-0.2019914130225872,-0.5097706185752621,-0.1632982131717765,-0.23273728674371935,0.07319866901190095,0.3669851625856442,0.9070648139820017,-0.4486712612746428,0.28223934775806464,0.8419420270003167,0.013377932413934581,-0.7568246166406821,-0.7926478452201632,-0.5386664872219352,0.4428650604606239,-0.15515866179615,-0.9048486211897999,-0.8658758495681231,-0.9684693654321473,0.49965510855920103,-0.05999691516608996,-0.8263878326207165,0.6465391033076111,0.6817651280822041,0.07078619138619885,-0.770748110587418,-0.11180456908833777,0.18950206871139383,-0.2863120091948183,0.4207492848515421,0.6852101089089673,0.8570039725695596,-0.028559232409313857,-0.4179886244933758,0.005913563267166063,-0.47410725622332994,-0.5101215467253212,-0.31874154490148376,0.5197448376464485,-0.9923186382571035,0.9744322104605903,-0.7965062691762389,0.7164710616598338,0.5202735530293537,-0.32443278707528567,-0.4341481306310202,-0.2721674269580887,-0.6042335440223865,-0.021906631205690755,0.4808194718948757,-0.10585155622379525,-0.2661206129819069,0.31089490504578604,0.5914301013707884,0.9806309273617819,-0.8849780266567052,0.7352495623370682,0.6729417415996667,-0.12859760497254916,-0.5113846023222021,-0.22472620696592588,-0.771483090065875,0.5557110151868204,0.9170563247376299,-0.6782801258827499,-0.5975238032549255,-0.7302159719704536,0.9823507944474641,0.770176249105221,-0.2073717694949777,0.7689515239881414,0.35207212623021017,-0.05237183185260431,-0.035970539595583946,-0.12144764036634914,0.25360684828522334,0.8360508918564505,0.24973117333715503,-0.2916416015920002,0.4190940693584724,0.6195142303755402,0.7695018781524009,0.21432383985639306,0.44164380323238184,-0.8385523107493912,0.5063417601802956,0.15256538055163357,-0.5780511745022496,0.6609029863992842,-0.24954405868588705,-0.10571676515276007,0.2867969096122812,-0.05787494561691831,0.2543556563611223,0.056967398442591334,0.22550741613278705,0.5992687917504251,-0.9620185178497794,-0.5442930381114635,-0.6834397513099981,-0.9522259828618048,-0.05903229502187197,-0.5100564699278235,-0.3923619845013357,-0.5728481069096871,-0.259683798770142,0.7547961788652038,0.6622699839979532,-0.7456287872659974,0.9340997584171346,-0.5976187122380713,0.9024621512812524,0.7451125797796766,-0.8613883231705937,-0.4225031453824743,0.9526391700838277,-0.20014198966707294,-0.5464889839850906,0.11310711555362161,-0.36999766829066166,-0.20540603316938283,-0.8789791112331949,0.5952372137209213,-0.7714359280953423,0.5210092074222648,-0.6619863456339095,-0.10700455281467061,0.30772513187301437,-0.11169478176019858,-0.824450330487629,-0.7017834824852403,-0.6751363499907771,-0.6706461011497812,-0.7809803690063374,0.530779831892611,-0.8612559789426332,-0.7539983813682803,-0.23804403714882116,0.03926233002151252,0.664323145798425,0.28375606517613083,0.17084394526924457,-0.7369033137134394,-0.2270439825268569,-0.2565250725367254,0.3829467175205421,-0.1790392980420492,0.9092598634731969,0.017745994834048557,0.4079365377594268,0.9518860059129125,-0.16439294962777867,-0.4174190950616453,-0.824986307553011,-0.041148246757857186,0.4161221907753726,0.7792534997736612,0.09940215407017515,0.8915983502095721,0.4187296624046107,0.3900955399662847,-0.6606514955790412,0.25351599251486684,0.9376727476848284,0.8404535317905888,-0.1287516496042041,-0.870602319264516,-0.7687961173822427,-0.2468321111038324,0.23287519704228057,0.8044320286560788,-0.480578381004039,-0.4641738023623281,-0.9335459023909386,-0.3191056696319007,0.602212307127011,0.6993102136165696,-0.5599943720489204,-0.9015606759828542,-0.9655716207772306,0.6860378530690172,0.33332599679206976,0.5243943671396917,0.033961034860164545,0.1286334879623939,0.6451906820073487,0.5053288803347559,-0.6978346308234766,0.6654502109500675,-0.38748178708320646,0.7562686302051841,-0.5019176494039554,0.7061033536242168,0.6268323155310946,0.8138544658795586,-0.7629929958168683,-0.12887127211216565,-0.9072846310683581,-0.20946649291443503,0.17228500435459432,-0.7782384395230315,-0.8074638336781387,-0.05947531633542474,0.9712830430111336,0.8512127998159907,-0.7942904376608929,-0.014672702580811358,-0.18846702953000238,0.926652537803753,0.3763362694720012,0.4443313267380284,-0.6013549983817493,0.8503479009228,0.23076321975346178,0.5788416870200089,0.44937712929984064,-0.14773264206557582,-0.28190365979868265,0.9798711436292216,-0.9177758321692626,-0.9699680560101562,0.579049004531177,-0.6819212765136258,0.6249760262741956,-0.3787848663776096,0.9452148334602144,-0.6779247547594177,0.9741231158091244,-0.8783052259667271,-0.6720971795813248,0.6626687044498901,0.8308226817433951,-0.24275416273261227,-0.12267256813942107,0.09516581732703583,-0.10946321195050565,0.7704389024339318,-0.9242347467558674,-0.05297856145587553,-0.6232119388456504,-0.9979497083777927,-0.1261319580979835,0.8384536051237649,0.18818186012478938,-0.6729510806393154,-0.31221419112499876,-0.6167921101725884,0.3652471820026479,-0.35307585204883846,-0.35472139804303116,0.5421779944540467,-0.412641940553414,0.34611274900627237,0.0024026348235339436,0.28775153265428044,-0.02662263708547306,-0.613050481428411,0.7477068270123609,-0.7140838650959188,-0.41303195665517,-0.45168207456273274,-0.9305588232755027,0.41499356222482203,-0.26269090619696506,-0.2943686908940459,0.5818529217896012,0.11251012686067506,-0.5831820368951768,-0.49563756973994955,0.9897281877987127,-0.22027932159748798,0.033726379891058755,0.2977766684561589,-0.7838026740308834,0.7702048720571825,0.9722179558292356,0.7986296104333938,-0.07307223442963125,0.8520783389700424,-0.545906731172027,-0.4617817681448255,0.8547428582537128,-0.5440497843300803,0.6767314561793417,-0.06986580789139944,0.3614375611640925,-0.4925312559763588,0.26699803896829183,-0.49539275411155326,-0.7301371621870715,-0.807341910885782,0.7179698598187799,0.7088687033818241,0.15706458142489566,-0.3857347178160795,0.6638275919321784,0.5616543401175934,-0.9796956937763897,-0.026937233382806097,0.6018537679628577,0.4051493098425282,0.5106512605505458,0.6421296115308284,0.9829007707207158,-0.9850050503139922,0.7749282700883221,0.30319606638604735,0.47063151225996536,0.4096729606035538,-0.6452092707220795,0.17375559721417821,-0.39227219382267436,-0.15788993434762455,-0.43780785995425303,0.27821046415231565,0.13012420670301433,-0.33745717012853377,-0.7157030394866158,-0.2969842480160196,0.7345639705906424,-0.9914421655824753,-0.7340684249436223,0.8233411752749095,0.23133846037270098,-0.39148055737176934,-0.4235860553874623,0.6019915577633738,0.7043961061920228,0.3770771042022932,-0.8122311178655127,0.23286027629204747,0.5517245120399364,-0.06325626513120625,0.3752496575022766,-0.36005567460938503,0.09481521750865561,0.7170595218827414,0.9960649800498391,-0.36029463720970084,0.8215323019627994,0.8624152310932061,-0.3892724182857844,-0.06296325066312503,-0.7327403136066035,0.8231075080937872,0.8823978225694168,-0.45103815506582134,0.04064686006505017,0.2085524052738379,-0.277721976536721,-0.26450376714328505,-0.43535472689954463,-0.7505612361855845,0.2452415610633613,0.0675293895292928,0.7309426458568425,0.04551683973946567,-0.24220145945794344,-0.12889392076579212,0.8547680119320806,-0.3313057241484875,0.7215067583605238,-0.03695116430743302,-0.9304253669754803,0.14576262597621095,0.9178329217327135,-0.6721889961861222,0.6149753407706028,-0.6373840379716491,-0.11377314186675314,0.18497057509086215,0.3487808019791411,0.01245338413812012,0.11571361929282276,0.7583390158718775,0.25321405554268844,0.8524603457451737,0.4404859758324487,-0.019648931320930048,-0.29288768561047834,-0.2611821358219006,0.6236240564730325,0.35351711217693577,0.8609140625270728,-0.8227728599848534,0.20834466238052393,0.23739087634247832,0.577583870006357,0.45674213889290016,-0.6249492577736667,0.9430986418136741,-0.9072967605801516,-0.17322435001082917,0.7623844928790052,-0.810654580883135,-0.20184779979165132,-0.3679251303765705,0.9940338825643489,-0.28882814746982743,0.3689520704488265,0.8388458846449356,0.999061156367366,0.11187833667968988,0.8296610413555416,0.9644923329203997,-0.8788164344004189,0.4084648705251729,-0.9044046364248252,-0.9335374331763905,0.48337415340597023,-0.8535308906454824,-0.9731752731669345,-0.8498771487577003,0.10735460756502684,0.44495125890349596,0.09713285620665738,-0.8754376926690703,-0.1164754867141825,-0.11753193055168266,-0.5931449868578507,0.26366395698016715,0.6444408363575592,-0.25500592373676734,-0.041991668125030426,0.023116729364876878,0.31611405672425846,-0.16861217500208814,-0.1376227643939219,-0.9804430055365425,-0.5952833755831508,0.7484072886708697,-0.532454863644719,0.9946841071087207,-0.07840017612008152,0.42523191969939933,-0.7375479849662593,0.6681459895547097,-0.7420752925897969,-0.5601987805836642,0.8639729138544479,0.5244771756862304,0.49091811419054027,0.6724586070789095,0.3879740343950499,-0.213951130157702,-0.8629202526510145,-0.21098672234676255,0.07230707470409169,-0.9100077035230786,-0.5369246990006286,-0.8960012000331364,0.14654675470343628,0.71779734098506,-0.8766444622729007,0.48609351068139417,0.6324847974820833,0.6192545242775401,-0.8854034849434461,-0.8576844576078344,0.011937065356420579,0.9267222449889108,0.8197538590894654,-0.6474080724925715,0.5117481423524242,0.17404887206678574,-0.7395331457106595,-0.4737457861398161,0.13383311310105628,-0.9866856271105594,-0.4153231265503886,-0.6870448008836388,-0.5025079420396624,-0.13277684409385807,0.28736543521374397,-0.07579771177950789,-0.937645373286811,-0.34218474426302564,-0.30510163592264056,0.30820595380829696,-0.6342776686463266,-0.47896785737691594,-0.16042163736017995,0.36929736520671663,-0.4657883706293998,0.2465070458771377,0.009194942846232552,0.03514602149694923,-0.4797937977127866,-0.9253290269236486,0.9772988194172717,-0.351831110590403,-0.7360641371532994,0.4376552175626419,0.20190943585929547,0.8935671594718345,-0.7021537251147096,0.24890295784519023,0.1282767546741828,0.27705172509712916,0.18667998970562585,0.4262171867566764,0.13722388080513795,-0.9760005787502463,0.6350848315501832,-0.5249030434703127,-0.34726428245533086,0.19777448301939762,0.09795958134801235,0.16488776311532935,-0.5448070423597153,-0.1797838378398141,-0.7080182303099554,0.5974980774222051,0.3423034749408154,-0.17358404900439076,-0.865009407815383,0.29883368944389727,0.9384039934886468,0.7973797542425177,-0.6724344409206315,0.35518525822575897,-0.3274383738426988,-0.4127116559480004,0.045249285010735545,0.07233490859382152,-0.26944962185737087,-0.8001687378766167,0.022554285538051083,0.15260865353306952,0.12998081762703081,-0.4349205348438294,-0.3124716533668972,-0.0350368751298609,0.9770655559663802,0.2312351749405219,0.9454309614766802,0.12613977949586913,0.4339489325017434,-0.5913366718861958,-0.2887164957816404,-0.684441695183361,0.958316626374743,0.28983417179355336,-0.643788754183945,0.014605735072195451,0.9735169377880359,-0.8815856626825895,0.8588058103645221,-0.3090810626763492,-0.715186569299443,0.09096691752062651,0.6430450184836979,-0.1592398277972379,-0.721171263251949,-0.15017910345183685,-0.16466109988812871,-0.7423485289470673,0.22561224502060226,-0.9394501074741486,0.9880591676612295,-0.08691081441245087,-0.15082081066572825,0.3675930883708118,0.19423996065527577,-0.08468888379079186,-0.2596118494018308,0.8823390775068569,-0.04283352558380791,0.15455792393694137,-0.8435122112590706,-0.718369242537496,-0.8195243147771955,-0.5519718113958586,-0.7152065259231896,0.581167577873468,-0.7909945208727892,-0.7337083149913912,-0.8552744185550842,-0.3022004638004265,0.9781833895814953,-0.5480723639448275],[0.024536468463682008,0.017729458216676656,0.7340695461534402,-0.9538797419967168,-0.5828397072300794,-0.6913310075135483,0.2978856458690244,-0.9287813875074443,-0.772728992931708,0.8068684778319226,-0.8142474444674179,-0.16579937245732448,0.3158482694543853,0.823271165414484,0.8861337312251873,-0.3133851262784933,-0.659002751653065,0.3887183616955112,-0.8915885170221238,0.13517194908312077,-0.9603915438638418,-0.7628974296027541,-0.5494526676207859,0.22857513312433597,-0.29091275348447354,-0.8985557817105303,0.42824746609375913,0.9130901779394104,-0.35889604955151766,0.6458072828162906,0.16967649802306067,-0.2934665632224977,-0.1261805886394208,0.5450971888129721,-0.03152638766949524,0.7572653101845621,-0.6985500121475188,0.9775570101816671,0.8459157576816844,0.640198366608101,-0.08310039253795813,-0.8918351563276092,0.28811917462833647,0.0858281926921045,0.7609120020915695,-0.9815831625477579,-0.5940695839506425,0.2478459065660433,-0.98551980751847,0.9789043566606072,-0.09127825252871587,-0.9136840399876353,-0.4062215292969384,0.9595047580081864,-0.5173125224765451,0.9714444080022488,0.591707097362191,0.8404183229182648,-0.5587095322977669,0.7177544290545501,0.9632737867585229,0.9120439142211381,-0.16368820819313382,-0.09237861171497186,0.9587442433758276,0.9413438652614622,0.616577860453368,0.5894692623704078,0.9851608010135791,0.33448252224342023,0.8731971589450493,-0.7832277427837705,0.8117791856947926,-0.2598003154556557,-0.2700796760087258,0.040438417253275245,0.3351039271249204,-0.18398310511557547,0.017120375021232294,0.0767008031276308,-0.5204651053639441,-0.18392524584879566,-0.49362764237986484,-0.7619726514098258,0.2324157526872248,-0.8351564797876898,0.19561639296332373,-0.7435553252336711,0.3020173597868436,-0.7565171925007393,-0.10555980903684012,-0.38383097629420637,-0.5678250347308392,0.24269085241274713,0.1942639716254275,-0.12474023792518069,0.020416913737522264,-0.8747433498775636,0.7979621103419618,-0.5247996404519399,-0.6399767070379928,-0.5056126343501778,0.1405211755285042,0.4208881567679855,-0.4369306421857091,0.47812819352511265,0.24991345038910243,-0.9398717418904485,-0.9801658712831964,-0.3849672212478314,-0.12713689279632034,0.5959171692755585,0.11036122942707058,0.16912736307249668,0.041461171912340285,-0.057615484536464645,-0.18921342736338426,0.30196148801112227,0.45302874790629966,-0.9380247340733683,0.8200595050552977,0.09420191646873269,-0.6915865796798027,0.0205001668101695,0.8830788658692422,0.536332557567683,-0.4184570055981834,0.6542053039409321,-0.9022670363811433,0.2980444921947991,-0.9127191282171728,-0.03644062219904315,0.16692230632906985,-0.6619198444909673,0.16979237359196267,-0.8671350749019286,0.7926786452311553,-0.7722369480145902,-0.6533903342786881,-0.5835458243242198,0.7080056684370162,0.44322670174557355,-0.1675073819049672,0.04701510649469429,0.2051212266818191,0.8171625590451368,0.5010139126162371,-0.21351640536864988,0.4405495011142465,0.8440287838766953,-0.4480117095227493,0.7755242060244995,0.28472567181482084,0.5969012204181481,-0.08166639100255339,0.9336961618881898,0.03278323963796141,-0.3583067604945355,0.2773150361615207,-0.680361600800927,-0.09532995290189361,-0.4758219224555777,0.4235846749127669,-0.41758282867953594,-0.06445640921374568,0.15415182780782707,0.7132795327284984,-0.08407827144198358,-0.40548307467775174,0.7307026784415593,0.3124952770273174,-0.22224244648725122,0.26911543375827635,0.7251757993072624,0.05716170149156142,0.03913633552949419,-0.386990064535006,0.8797278962898809,0.8773500993345424,0.20368553119818844,-0.32100610326297574,0.18078426776195408,-0.05686261878500943,-0.1327076150341844,0.745518014812281,0.3316157143463053,-0.04298447092996489,-0.3141267044470142,-0.20554974416695937,0.37606991442992377,0.3486981722643522,-0.2232307368626124,0.7073188113730007,0.8107583531114722,0.5170205667285631,0.6986398487464945,0.42325560370815424,0.7816344436296073,0.7251787516812763,-0.05931150315543976,-0.46309566982528966,-0.2303311135190075,-0.23293134463607565,-0.8045754155787614,-0.8863011306095374,0.5498641809700554,0.10562312789032222,0.597749675011174,-0.13888003591586665,-0.8533242729254807,0.8260195328622384,-0.41506840354927493,-0.7814986625777453,0.011072851070924648,0.4516494625196395,0.0642246188735621,0.41500101964588604,0.7100546508517593,-0.5609950020150849,0.17117585794694481,-0.9079465909130879,0.04204020882086702,-0.004917537885760201,0.05872056686686544,-0.2994949687385348,0.6878292222284544,0.7579767691818464,0.8799981997870966,-0.44504109584391216,0.25280498401463636,-0.16781512007636135,0.4090814515958177,-0.8355077213585974,0.8735676831233494,-0.30998099909871907,-0.40996831801146333,-0.7423235422182609,-0.561954659843405,-0.4702843014480671,-0.2865234823592796,-0.21878151137415522,-0.09190726846004019,0.8240813675626687,-0.10986866959227194,0.07629020377829066,0.23626581336097624,-0.0015556903521429298,-0.9759194000803882,0.4203931677521745,0.929619294248678,0.4425249719438357,-0.4166501821586655,-0.8254370113331339,0.44535743927305904,0.3945864198699197,0.1257707717589095,0.8849412378253043,0.28852067821178234,-0.3749476587224722,-0.24348745635339297,0.862452880690067,-0.06434031263579795,0.3041361366493541,0.4779161101755609,-0.9998740623145298,0.5223215315805694,-0.04578325648038429,0.7376010716325347,-0.11344961598594687,0.6097198710341454,0.9701144342133537,-0.6090621139517153,-0.36284624072383403,-0.7148166720723809,-0.17122303530535515,-0.24030670574174792,0.28362615004404307,-0.6482661780040511,-0.1800136301083958,0.5087289858345743,0.05558538394307279,0.42902007465535913,-0.10651380328842776,-0.3475504032769211,0.43057304429361415,0.4126150508500316,-0.9503233488706128,0.1642977153524326,0.44423251673777114,-0.07083043138909757,0.5933658142879489,0.3816760624658809,-0.5761124001096871,0.17639033169525672,-0.4754892136511238,-0.3174070641083821,-0.9534002427180313,-0.1478268870063233,-0.6405276250769295,-0.24354610097929164,0.4207202669793277,-0.247497162897965,-0.24742941128822768,0.1979354524890643,-0.24847300724862528,0.05948514377656688,-0.5649432405713334,0.1255020139112816,-0.9246399733469043,-0.6599265306904111,0.18959419798283428,-0.9416834866919933,0.5331055753098398,-0.1566925149431489,0.8484915915825111,0.38120850764495307,-0.2972139242786487,0.8087651960747224,-0.3671381724304713,-0.6146030272829436,-0.3783795798986394,0.18909581270375675,0.5422891790062906,-0.9064355904148622,0.30306541818968846,-0.5578871634761198,0.9616231404513959,0.8614387546017243,0.7891678039907504,-0.13930966749585227,-0.8350049245019938,-0.9072080791858376,0.078840238765802,0.28817811260313014,-0.017270985766686776,0.3136480472736019,-0.3674075652170128,-0.9967502063628677,0.534124038453648,0.3223776886574559,-0.420739149776493,-0.9365095715211855,-0.3620516555698341,-0.8349498394351643,-0.7638645272784603,0.4589209995919843,0.2780718585446582,0.2812092723935194,0.1022463571666178,0.05450868886982615,0.33203102326278694,-0.6763209819112518,0.097127600138626,-0.5089082607744301,0.6644686602054363,-0.12343153143093107,-0.5108840242403314,-0.036784571681143276,-0.36124705656670203,-0.42091512408429693,-0.3030151169203202,-0.8880540113521137,-0.8767763006467982,-0.9924010776414192,-0.056943464000934356,-0.8591254380330023,-0.8575275215957896,-0.9220995411157357,-0.39869991394790977,0.709601434362739,0.4716396374246978,0.6995252827295879,0.0056964382686831025,0.15650685645766485,0.6739088783789832,0.94701076897877,0.47034830501641584,0.168690074034865,-0.6502931094346284,-0.8906374037552417,-0.6767106135631301,0.14442198066297227,0.6970391655968464,-0.36365115087808475,-0.13559286887143698,0.18108602844909172,-0.12679722744644292,-0.7774215856877412,-0.6640538578722172,-0.12358944904772373,0.10535765268702081,0.05049068230717606,0.22530749600615407,-0.05858906617753769,0.012719967081191937,0.562703338205817,-0.4769180998663202,-0.9955180515856153,-0.8146177122789717,-0.960125939878346,0.9182756288338029,-0.07748597101245686,0.7058428853214616,-0.26833226063937243,-0.6632487163655892,-0.5817473587913788,0.004975918812709324,0.32197512517220017,0.7160826618891737,-0.07292949978166118,0.21133542360251623,-0.8960882537127132,0.4571531171706077,-0.8364424024938965,0.9842127616920514,0.4018312136516689,-0.39220696347382505,-0.8913185773880644,0.7112072535267183,-0.507849941675688,0.5015061681498159,-0.13326427911495667,0.9073843203267763,-0.43537823743189774,-0.6827280550433622,-0.8388772077288237,0.6714124828079167,-0.892800116531655,-0.17915952679444105,-0.889707869364158,0.13257717072671343,0.5070083442427232,0.4108101933436103,0.36709753633969505,0.9660273734551209,-0.36923711062584713,-0.48368450045617695,-0.294401009299646,-0.7416759984560776,-0.3189649055802568,0.3797675582651068,0.7049023158983817,-0.7257601753940883,0.7213757979748682,-0.692581384695163,0.3062323792969857,0.0031616065505865464,0.9187050083779569,-0.42080811154932535,0.706824881770966,-0.24145031876850276,0.7759585220199124,0.3873344417356435,0.3104736138921127,-0.44183538916377557,-0.591558546427138,0.40600509825932013,-0.7352072982516156,-0.47010044185381544,0.2637785365035249,0.894852878130149,0.4945802953457197,0.1683250672483913,0.5936828314011902,-0.40033267893146257,0.07928443422425335,-0.08997754106117578,0.4564359652755946,0.1384102089336713,-0.6751791422976509,0.20115391197180824,-0.9370436542142223,0.0466860875302644,0.9450758112727494,0.9965653994923285,0.872266598403767,0.20369515794555604,-0.6074179879220873,-0.5382812452339591,-0.9956679762969378,0.9749352854734058,0.5720268841242894,0.540864079017956,-0.7438689441100544,0.07804932082266028,0.9176710953934983,0.009186360295675901,0.29073178031968483,-0.08336227846268598,0.13292794680992912,0.6446000843455587,0.415008184771343,-0.07535721685456577,-0.23395749236906663,0.2355134517521359,0.7699258229205691,0.32591443159472294,-0.7639651868281181,0.2832596024388253,0.7285325788955939,-0.362011073458125,-0.07468605440872252,0.46178368627656613,-0.1724761176541278,-0.7677768951051186,0.5169334133737196,0.1662060137204771,-0.34234539119534424,0.31645483232808197,0.8867000577683912,0.8120039085053113,0.7939367679357991,-0.18708184123988786,-0.4554542175489958,0.937798330434979,0.06764308711711765,-0.2191337493107212,0.8747958097912385,0.6206634584456462,0.2658091751523916,0.26802222879116194,-0.7622327735790595,0.23070408660017547,-0.31054914876728174,-0.2249833486163855,-0.6266996272344093,-0.8681524691837766,0.9108385266726299,0.8785246467719867,0.48594011107074253,0.5766093937182132,0.5375900260665745,0.9794086020408632,0.8912146603718557,-0.2500400417900607,0.829454681076092,-0.3658425266264049,-0.8282040785100783,0.6842227523226729,-0.39441886658290165,0.4713701097721097,0.41407145206392215,0.596199462844236,-0.9605870503488232,-0.6904392660129721,0.28843430602961345,-0.9090622854292154,0.659515248494629,0.764878424603796,-0.5129369590819546,0.6320543962194567,-0.8427962225142472,-0.6253817646792242,0.3482507807578799,-0.30411347898289637,-0.5513227538980205,0.061211029032832626,0.37314900626665626,-0.8946762019032156,-0.155198056497274,0.6205345411052269,-0.22152398492929135,-0.815620315221305,-0.8436875918810607,-0.1537303469281703,0.23446014498330703,0.5778026645736434,-0.9075936317927445,0.8845110816828098,-0.5021225870576443,0.848074956788408,-0.5927002716190917,0.4638716700411076,-0.2208286111582894,0.29191272551216413,-0.0920877525129226,0.7564969425031186,0.3713713093318645,-0.18814510424252637,0.6559359354989395,-0.1996444002976917,-0.6789396566404622,-0.866720597486074,-0.5179182448592161,0.6490642364707695,0.7356911560935907,-0.8268487730347946,0.27280185181523864,0.7124409949288216,-0.3028415213764186,-0.05031076363302322,0.40244813239884475,-0.8835839501068656,-0.305418824956203,-0.9372130295681003,-0.8488793156619351,-0.6692059781675213,-0.012722645941946484,-0.5194420493037628,0.9826871540619999,0.8016524476641362,0.3754928062363743,-0.86536360042028,0.15358323620239173,0.8733930909989869,0.4828876515014913,0.6579626279085405,0.280696770683471,0.8975928778184555,-0.15510033928615985,-0.5090531348828727,0.2183103630479963,0.09892122801675464,-0.15214246966930198,0.535045851983058,-0.12553676180240536,-0.4965925667137799,0.8781131858903659,-0.4459524280131088,0.4472097303848025,0.036914784845341234,-0.08008331859513684,-0.3995181173591056,0.9657242864863768,-0.24097327596921553,-0.723261781005383,0.8882519548042986,0.993380997400154,-0.876519073848879,0.0948572669144982,0.7370872499831383,-0.11692009289368442,0.14200122836221138,0.9318451808238393,0.48335079960555943,0.07091299692939837,-0.622113768978071,-0.2597422082551543,0.5805803558132432,-0.44743722274271586,-0.19353420684512646,-0.6750711612129465,-0.49487733019781455,0.9058543798450156,0.752157482951681,-0.4152268634665299,0.5395344189112895,-0.9907726988616926,0.3513641475058238,0.6657160907805926,-0.9780610779624129,0.9488429050238998,-0.7138456286622883,-0.4735529414582027,-0.7692961985736263,-0.4835008188673408,-0.10347682374446017,0.3589049113539803,0.7152171479609155,0.1705823745040519,-0.7978987150528615,0.8075079964216547,0.5905143749658327,0.36647080926937065,-0.1480404310170392,0.9963203867200501,-0.9201024507980057,-0.24169732042234782,-0.4314045439157813,0.9981868209294145,0.41841185231886546,-0.07020378505992143,-0.7374752893173433,0.5709789650582664,0.1260103871239481,-0.9628523706635295,0.6714602909837261,0.7384317729119478,0.6112010455747148,0.026011207408741206,0.11030540381892176,0.10596513575058929,0.08531482895308172,0.9325503843915333,-0.2804895125243288,-0.32023923314926367,0.8462533108734811,0.18542822450438046,-0.5408858912826793,0.3963815780469668,0.1344855232846779,0.7976483857972752,0.021377425388200984,-0.42628870046084355,-0.03055488223246717,0.870311570314029,0.8204267114718369,0.055771350549770296,-0.36110219273520533,-0.0769248404536503,0.264028858358884,0.9526543533688683,-0.15140117797788671,-0.7704777554342009,-0.37144389513024484,-0.4331076443491707,0.9283586459187454,-0.44840141663187183,-0.97243875215021,0.3474326382036964,0.9477530549759847,-0.546749851178308,0.20339060895997182,0.5287708519266587,-0.8890206774236334,-0.28252449369833205,0.16856352584967524,-0.5115926702019485,-0.618048679977794,0.30079517681622014,0.08629810414298819,-0.20347733097549145,0.932003985487607,-0.27105481768211553,-0.797041746456942,0.43275024006189683,-0.29188024180163236,0.8697323644886146,0.13001564937229476,0.7090994170217279,-0.8127260904761011,-0.3825858738632396,-0.6753186654715222,-0.9334472744518788,0.21237444286198287,0.17836241588495028,-0.7726085337908921,0.10059547845602887,-0.3018465144254216,0.37060177308720144,0.18971138655764763,-0.07558171259875651,-0.049909435702939486,0.631267587909819,-0.9391851497011691,0.2908699157062301,0.3567309002589863,-0.7272004401450236,-0.8988193015685774,-0.22609153468534451,-0.7030074323422063,-0.06258341566134756,0.7536943779477165,-0.2518438889251997,0.24600020820351823,-0.8315489175712591,0.7238641580407028,-0.09331363072687522,0.26724348325502617,0.5516786182496619,-0.19060264469074584,0.6227022542183142,-0.6524926212445118,0.9747093234494505,-0.032569954407224266,-0.4128021429920107,-0.6390710109034863,0.21152321483077735,0.21926309458969867,-0.15534070946841358,-0.15889476238719938,-0.7406842942325678,-0.8342029750302047,-0.40038216933913134,0.19427449013653272,-0.3627099435833049,-0.8772277712564707,0.982088860349911,0.505569107904622,-0.7947461014603951,-0.8131239385835046,-0.661166790039621,-0.32916030792395473,-0.034644109541741436],[0.5520195511784085,0.22604790626495713,-0.21796951840211767,0.6067404077353944,-0.6064437409289515,-0.04511661426396493,0.9888114396231265,0.08526320039829458,0.9854922212096406,-0.8790753192138663,0.4460283252521549,-0.41972637186143213,0.06422358911292264,-0.998831193039807,-0.2285177344460693,0.9784501098598665,0.9358660430675158,0.29036700778078633,-0.8128520793565233,-0.4594708358919448,0.7619439140279702,0.9005119597452521,-0.2921336404482543,0.340359857514856,0.12915864250250778,-0.3022160275841917,0.24415121137849988,0.36037592930771917,-0.2662248587050704,-0.20123244347344887,0.5987976225810412,0.05391863554123318,0.4507491388040661,0.1909314932078409,0.30834834666478367,-0.891013982002493,0.05965165725621151,-0.35300914443163406,0.8131887454146001,-0.8658830328140492,-0.5361860085594126,0.17056329633107684,0.5359500467919425,-0.9640351253529235,0.3662125578742922,0.5406093846206791,-0.8938326912643443,0.969573953026722,-0.9451099697071706,-0.08546431914976717,0.18951109286574375,-0.08402986513513985,-0.7971436724118374,0.9053218860365334,0.16378533942701606,0.1783631139629338,0.4017331162497403,-0.934967538920579,0.22860999771880827,-0.6134231637465247,0.5253284996153266,-0.7122871152543535,0.4449003031939197,0.9611770923485851,0.9589761306669635,-0.7130977177717858,-0.32969558016593487,-0.5877184258636519,0.23217575687525502,0.008185546625019843,-0.6098136777172727,-0.6656313987846185,-0.34326121813954896,0.6047907018616472,0.039503875491042076,0.5074342344528606,0.19940592262425572,-0.565760058020875,-0.4310892593913689,0.12590001395443323,-0.9924220255817502,0.42687046111186916,-0.2704527471152645,0.8508133119356402,0.7585348822390865,0.13169766507656094,-0.16647554644576334,0.11685488966416534,-0.6829251375714244,0.7631377318268134,0.593517086147114,-0.07517336595244385,-0.9364706733348047,0.6518783001495855,0.05259657386281526,-0.7885685777526771,0.6933688812154125,-0.35414060435101674,-0.41368330774464745,0.8119980332755372,-0.7081921226982304,-0.7875707274203334,0.49229232893693453,0.01821238546441864,-0.9490138323319144,-0.7397952222361045,0.77806742194299,-0.21833616064846717,-0.8753577738415578,0.029564980778696206,-0.5833793595607921,0.7254252678028269,0.8041721453173863,-0.20731755219344208,-0.4410558638912745,0.2995896265290574,-0.5476550754146774,-0.4402211928955709,0.9770471739585954,0.6531587044294707,-0.554818738040823,0.5053598393586766,-0.6440736610338943,-0.9065872432899397,0.7494396050873332,0.40847754960598626,-0.03856726758077842,0.36523718585110565,-0.29723576512621247,0.043597712981262624,-0.318300544326486,0.40669573294047007,0.0652522989213835,-0.8363059875199225,0.4728873798070533,0.7235935291940767,-0.5239225938361919,0.48500639235946263,0.8359200741781075,-0.9256679285430133,-0.9249005593296646,0.9124259397132266,0.1086919319898342,-0.23200235213085313,0.23957262096194645,0.13775008374270242,-0.9205767120625038,-0.44777136243965754,0.13750982661280545,-0.3023947730752024,-0.29032012087754605,0.8038437797660012,-0.8861386294572313,0.5956046258341412,0.6013757740746678,0.534004922579347,-0.1972505124014264,0.673427172358663,-0.7496121012676288,-0.4190220180202572,0.29815654605244785,0.05792734905171488,-0.9000865665904635,-0.712455934409517,-0.28212150738126407,0.2167623626531529,0.9401822784941989,0.946180847521749,0.05939043133988298,-0.5778829604224273,0.29645886587455644,0.3442106912187539,-0.6261606173039184,0.7527129735781608,-0.8941243424938755,-0.14770993073310318,-0.026545273741181943,0.15653460712836337,-0.7959198927180438,-0.3264925605063198,-0.3603411140051222,-0.44817401756245207,0.925926806804218,0.10666697429021571,-0.3861620466826901,-0.538370210300179,0.4702218854949892,-0.02390989320568451,0.5292913369655936,-0.7429895474744544,0.5866837604810291,0.7418558017909719,0.38289312917796736,0.7269928163639032,0.6139960282767035,-0.7722078309126076,-0.8537553999323317,0.39783599991480184,-0.06905170167139817,0.39129581161502247,0.6812285743482273,-0.20759704649764102,-0.5214374257133128,-0.8923659323475185,0.2514199251705747,0.6500853687615228,-0.8308902061066833,0.5527546476513933,-0.8896936823584954,0.02036984381834753,0.7186926859775326,0.4425223446716626,0.39944438653331465,0.09839864193906145,-0.2767012489552321,-0.8775010388596485,0.9037690046506758,-0.3117910059166383,-0.356051879758569,-0.6985346302453617,-0.9112824472643901,0.25966943085383815,-0.22532823951794548,0.08282113188928897,-0.7173403372493113,-0.29261600114937303,-0.7621916575821612,-0.127784729531954,0.8706916432286158,-0.8747253374938875,-0.41561510217478503,-0.2741191302644838,-0.07006985893790575,0.17790323360863536,-0.3270668545815494,0.7529610851304422,0.8634377402213154,0.9796529335429799,0.15833969926992733,0.29658638220067207,-0.7204502859822405,0.7856642115205981,-0.8569571027018903,-0.20791084296390674,0.6150460429198652,0.2532622004702804,-0.673858813369675,0.43733610843039755,-0.1845833660194964,0.5504195926781069,0.33154121133639686,-0.8913322851098892,-0.2380025026675589,-0.8323721080052794,-0.19540210938181957,0.31752278369950454,0.07558859912471304,0.932366460485593,-0.6626052252642456,0.4265767546875953,-0.572057272327057,-0.5696793979492509,0.31595540272429073,-0.16955137053272576,-0.44308622220694155,0.8049982873366188,0.3784104162638684,-0.6449726413725021,-0.1918525991514797,0.7376918664333995,-0.6686745491658439,0.740630276180057,-0.7844447620133556,0.3020980604149884,0.0922660169932417,-0.2517356726816066,0.8848463726838433,-0.6568908211012903,-0.4905168368850196,0.16420872992622756,0.7586498283922516,-0.9532311882716648,-0.24423126813821258,-0.22257899646063103,-0.28097590951968077,0.4486222897795551,-0.598535960924076,-0.7347176649772388,0.42235822142274393,0.7701171476931032,0.24232235191815732,-0.1529274772410044,0.2636571913327468,0.6777635849805563,-0.5087996188069485,-0.448962957077118,-0.5682275410871981,0.8276241548292136,-0.961733365374848,0.9895597794616784,0.1439793674442817,-0.6126666680528138,0.14251469082195176,-0.3515927247883678,-0.16219316802915487,-0.3791344229146537,-0.8618144031806458,0.8697610169176555,-0.6500562239742552,0.07602779663154646,-0.4771660436980124,-0.054862089679562236,0.9265455843107449,-0.5675777617915954,0.13953460191805736,-0.9668875117099154,0.2862037148194573,-0.35236989024249304,0.073854096958666,0.9780202382035396,-0.10376241390252854,0.68185946973934,0.35697188338126,-0.4702207380193716,-0.8749922937077506,-0.2133344506806916,0.5995572784658807,-0.048850396897108905,0.9973456895969002,0.11048924258258888,-0.7233844165502055,-0.4522971008776269,0.9071930695316482,-0.7957047465992607,-0.45816280729517267,0.26700083763670207,-0.16909940078092775,-0.09718023588196835,0.17059869215058618,-0.8126112674111484,-0.6632660012665811,0.012221210632588521,-0.48596993577461955,-0.54688852812387,4.8307148752442096E-4,-0.747568014359215,-0.8077985934989188,0.011217901587929886,0.7140176685906469,-0.017487520937388375,-0.3372564627922379,-0.632771090005728,-0.18681930361849294,0.38013800313843454,-0.22809368968356103,0.5001190301198114,-0.04673179289592692,0.9510567337850355,0.92821470933148,-0.936270487838939,-0.7751899270138131,-0.48773548391950744,-0.3653341585019443,-0.9495942202309448,-0.8706024087507997,0.1225531286322553,-0.2264653415246384,-0.7959595419485356,-0.27533789957849025,-0.1732858583861848,0.25864803460843155,-0.3564531770177305,-0.5004826580510536,-0.4652651151375737,0.45306254582855626,-0.6059915510552167,0.3552000389064851,-0.12511841816406274,-0.9040876716745632,-0.17821701740315518,0.4445991710562471,-0.5602116005104356,0.3903633700164382,0.33092962395889614,-0.43808451818415467,-0.5130138573290604,-0.6248138190675214,-0.8976769006479735,-0.723589574634952,-0.13934245618370492,-0.2640700692402094,-0.8568964171888463,-0.9312555031647324,-0.33121323317397505,0.8070772503704662,0.46290338933951597,0.3551516157328039,-0.9199381093872798,0.6750079406572786,0.8046640415142928,0.4742271812370819,-0.5025883519139266,-0.9878650260753857,0.03163799599202921,0.46305934330472265,0.32011113887246334,0.5558851200828268,-0.9914334715685135,-0.2361372056377867,-0.475851723797354,-0.00806835876220507,0.6138473534748179,-0.12068010003849874,0.3702806167728758,-0.5910175644447926,0.3805971169978498,-0.5660085030596882,-0.3078827397872419,0.4636752008680154,-0.8111547427686022,-0.8983658279403522,0.42154113747180355,0.9268331885160012,0.4169202498438261,0.42220472181114316,0.2762603402105484,-0.621706963470187,-0.9908276333703193,-0.34046150793250796,-0.1355430135209105,0.47562243847063085,0.028435718368852572,0.5400905339922145,0.8540321758570084,0.4428202332645808,-0.5644621434625382,-0.034852902916034684,0.30914763084761804,0.2083006497060962,0.07437253673697042,0.6032172314473423,0.814099937740613,-0.03302352532053633,-0.8600573067068316,-0.3536105155599445,-0.4151355137851956,-0.15021944830562609,-0.23185240192474368,-0.04610979057960866,-0.5888465087842629,0.8543944434801091,0.8098536603141884,0.30798640927111515,-0.02312572421791226,0.22429501904817645,-0.6618679381756236,-0.42818044668609,-0.12552168597718188,0.058862314970688355,-0.013633603100602847,-0.8342613329907896,-0.5412554116189282,-0.9044551135617437,-0.17366095301695847,-0.5317802262093473,0.5782400104925077,-0.6741780747386537,-0.830924556512213,0.4992323326936775,-0.8224332728163948,-0.6102985584847642,-0.5922741008714152,-0.4414509907967334,0.781238603304408,-0.4604953977271908,0.8204760426180501,0.36836919728572026,0.9501178383203212,0.3716318044374729,0.11286160665514472,-0.2909231307259775,0.943814212214536,-0.5041537224918251,-0.5973309794894363,0.538926475235262,-0.9723862085449635,0.8447294954867176,-0.663085602105749,-0.847158429156637,0.12998702399517306,0.4217542374328137,-0.9207076304039611,0.06262653147993252,0.887024879659405,-0.055405497988684625,-0.9822898478429288,-0.029878754893677587,-0.49761261172283044,0.06086846409852463,0.21543511308424965,-0.5430612714999691,0.30671935697347286,-0.403035316809159,-0.13432896710194606,-0.1711505620433873,-0.5820332084528871,0.6460888158093131,0.3082444659116752,0.9298127688787341,0.4840729659584559,-0.7900266471479959,0.5283591698245474,-0.3198929742389685,0.13213864020585422,-0.4206685241931248,-0.5187894616042171,0.5948941121143752,-0.5468227311167988,-0.32858702461373335,0.07265275505805924,0.6042581956361514,0.6193326512020505,0.1387275460005081,-0.825150339676626,-0.8776638995224904,0.5601942982482682,0.22103661028205943,0.6671964764842374,0.5029108589598592,0.51773012199983,0.03366744501487617,-0.8333571963650391,-0.2293258919422381,-0.745704948852309,0.26825221293733054,-0.1520843052298591,-0.16813944124324395,0.7057678074583567,0.12773148780062515,0.5528669276727751,-0.7551691421270366,-0.048096089818971885,0.7256099089071998,0.2495395372971039,0.07066041577206335,0.5186432836318029,0.15028183485537358,0.8254675537251822,-0.6740924349716747,-0.7677950043320503,-0.07163498628272742,-0.81411381145011,-0.8761372176665867,0.11225963943396985,0.7166278859892332,-0.32350018428163857,-0.2821580536637913,0.12163007416829216,-0.2895739570617466,0.9616974583399206,0.34938336411530124,0.982626497337532,-0.5227871566295936,0.6630026317572616,-0.9438012773087673,0.725028007225723,-0.29314633768957665,-0.7012011761979179,0.4091765013484214,0.1484173949575948,-0.2838144000885107,0.3652279428167299,-0.4753674898092968,0.961609103892984,0.45354031178986093,-0.24045624332659654,-0.3623244690312882,0.004582281915808111,0.2196066738680567,-0.8290587667778769,-0.97586463634032,-0.33678191519789,0.35411397582643256,0.5502418284030486,-0.8766988937337582,0.354864659017236,-0.26630653329513426,0.31867249201858244,-0.6594895668560563,0.7928890057963695,0.0844186230898666,0.5873216905688267,-0.8018906743815054,-0.36924127173081184,-0.16686114353891054,0.33256899283229313,-0.744773601647023,0.04140283516697478,0.5050022008672155,0.2092299392364597,0.5312727747969714,0.8051566478836454,0.520274477728531,0.48194272479636924,0.04515275108092262,-0.44025740397760404,0.6518127906729061,0.41670838811011685,-0.47860316205042847,0.008134000984215373,-0.6249914277276006,-0.6018924071715929,-0.6835331039805949,-0.9146723931298377,0.8755487429003478,-0.9756007207028848,0.1831764517761467,0.3528496085538508,-0.42407736530741313,-0.5187273099080647,-0.3822778594665288,0.2194452399616263,0.6996369605489848,0.6063593576580864,-0.776481462230884,-0.020675246029168627,0.613028420286377,0.23058378813034985,0.7779541334794642,-0.8856722438586814,-0.5323034383573532,-0.38135198806470916,-0.4973529485189211,-0.17605279029182977,0.012271999201304885,0.12983442540509682,-0.5853631632009441,-0.6728570867841135,0.35034239995363503,0.5815189149907837,-0.42455295148750366,-0.8774354688744763,0.8922761810782689,-0.7781657723777228,-0.4429215020564587,-0.901061021371869,0.7817455500183151,-0.29595188370782743,-0.4918710582788604,-0.8452843406683617,0.6733996965312089,-0.9958860499035187,0.8304306764817743,-0.1836342021190124,0.8964670080211372,0.834214921516825,-0.3340592759765908,0.23722370027407655,0.7597328773316625,0.7789251026097699,-0.8543093733727574,0.9138890861358155,0.03657044989617946,-0.8830039890556027,-0.3331265179144661,-0.5253548094339225,-0.48584278687408805,0.09032071998559267,-0.6588676021168796,0.9745301041352726,-0.10031991840222428,0.2435271534405153,-0.8030974391544669,-0.7255310487842268,-0.6533355259524715,-0.6191184878306799,-0.27995672524222126,-0.7135263889184594,-0.6021838913808745,-0.32615696744740946,0.8819080877320411,-0.8650472801421881,-0.76340070775784,-0.4986357952350368,0.9307216150153652,0.614007682823478,0.7978727817596342,0.7163454833168255,-0.08827448305732807,-0.2866958097443154,0.5087535762861588,-0.7943858760623729,0.1334496865238258,0.44004854947201816,-0.7863200929066255,0.8466392145931855,-0.38835167891177963,0.6821773522603202,0.18397354060678772,0.26392084553674106,-0.09984065872453332,0.438322328463929,0.019932360743269314,0.14836223770334753,0.6563985159281396,0.38197409754746187,0.7242056446319716,0.32733798863872476,-0.20810269123570424,0.4330530974531117,-0.7412966426707047,0.25934618057028486,0.12244354935210587,-0.22274892808028546,-0.5072761568619095,0.17599975980610727,-0.9405710304709735,-0.39623618781594416,0.6083108250942373,0.7053030011652158,-0.9266584711430336,-0.27545344600076804,-0.2505031295561351,0.4841612177070658,-0.5875900718674814,0.19324370247272218,0.9852954081386774,0.004306411998728752,-0.12611057608479637,-0.9402167077893029,-0.4978298898907647,-0.2653066353099672,-0.697749107041908,-0.5237137694593823,-0.6504631031949686,-0.575350115611944,0.9281891390782203,-0.4870659974010942,-0.9669701347855632,-0.5839461260620996,-0.335807073722272,0.24720799824409206,-0.2169600035097358,-0.22099833998854576,-0.9630488421983819,-0.04227850852360201,0.42207357734650497,-0.8656954775365711,-0.4362937335694285,0.5837260596058695,0.4124330625104029,0.1375382685913654,0.06933721623537044,-0.9957960118668377,0.8866195239641227,0.7731135125521417,0.6926386967165843,0.14524536183851985,0.2458367984698328,-0.15688652103525685,-0.8551509309654943,-0.5577843725755509,0.25792032781427493,-0.6653047316331022,0.16053332051157934,0.7632503959401502,0.494106771468745,-0.2890328133435953,0.020219810396355595,0.5431257941698355,-0.5852973883868852,0.5941402641025497,-0.47387053633402726,-0.4184195629314059,-0.5530586798432504,0.7960392011494876,-0.12305222352077282,0.7280322410325768,0.9942588844891077,0.2001983334275069,0.5145284934319302,-0.4956398635722071,0.473977079873435,-0.38953502199973705],[-0.3898803558739391,0.20143091113195785,-0.644513174630165,0.3656463285176967,0.2098379975583246,-0.7781917828022131,-0.8253243078987227,0.975564901540103,0.9197273277661215,0.035971073095070354,0.7089877917731754,0.25875822772658025,-0.5126749441358964,0.5757282181570968,-0.21671282013425358,-0.19529223358431722,0.31485259647096236,-0.24416155995757358,0.5904327508167884,0.7569860222897676,-0.8465147657249918,0.45767410857945295,-0.12965941268873185,0.2932546607340867,0.5985709393216162,-0.09539344527094311,0.2298584840521948,0.7244095759813479,0.3143207817375391,0.03465714214159237,-0.1405830760237329,0.250212062820734,-0.6670761299640368,-0.28671891674992295,-0.9216202916436684,0.6470470626338998,-0.7862284977612594,0.39490333349447027,0.3702058556726639,0.9799494940718525,0.367554356897313,-0.7992943845623348,-0.12219401187902021,-0.18277552667439803,-0.5564894172577031,0.27993000759449066,0.6798974029101852,-0.6539992979367664,-0.7067573460322097,0.7978718985883788,-0.39547331691327064,-0.6809765343946358,0.7661388527179279,-0.07167132829516216,-0.1888991761615975,0.7918161130739078,-0.6776534944408449,-0.18920742175141686,0.9260791236806702,-0.7350619287603685,-0.693904479185208,0.6130265527567822,-0.8653169494422615,0.02393452457999652,0.6043550072582453,-0.4597737863723681,-0.7082711896117595,-0.7819121925323861,0.36548126090111116,-0.07304449580866759,-0.13615106113162914,0.5440596197680833,0.4861445780221177,-0.61357649273582,-0.6956351882993179,-0.7378118693782978,-0.367736009921201,-0.593334744276952,-0.6687238454203617,0.7343453528461334,0.7279751277640838,0.7516357509479513,0.4973965102657336,-0.35020379172876687,-0.9711362947712597,-0.44973803752162905,0.427353379524352,0.6872992148653597,0.17665687365625812,0.06853524390958272,-0.8471405894666172,-0.5156553404301083,-0.0381637129734749,-0.19731667936161856,-0.9221084992239869,0.46917350737174734,-0.09589443798739572,0.7616593588589305,-0.7111428300498316,-0.6290267813767962,-0.7698767751838813,-0.4169251728110587,-0.8466290210307558,-0.9740973836329027,0.3273390385526487,0.4796994299885108,0.45727852753501586,-0.5065841775090066,-0.6458298418081289,0.919566205711068,0.686053545344744,-0.5863942605415686,0.30880300236314273,0.40550666484358466,0.47940693365291337,-0.9452523862313785,-0.42251994820958116,-0.23202819416173254,-0.21859081367983518,0.5595127288417387,0.747967254323843,-0.032097032701488046,-0.2507793205507405,-0.4756269327954443,0.2979077396691287,-0.4276729336432463,-0.9000838893642061,0.23737936271800159,-0.3290278865945059,0.7782947812805776,0.24488583871757047,0.6475024701975619,0.19545137164424356,-0.8451578031361021,0.3027330460884668,0.4648885055205334,0.3318829488717541,0.1090673348133581,0.8757228222883633,0.6508996871016115,-0.1949032165683144,-0.5078161188651943,0.3365734428564769,-0.9887743693448121,0.3237236349860276,0.7380462461230091,-0.6993776867863539,0.5996073926714234,-0.20404028476660052,0.45207656095768434,-0.06040804263176619,-0.7924369107254873,0.21331392098312674,0.4708955599153091,0.8447829925755763,-0.6599834101129688,0.7130495063694506,-0.9367108143118134,-0.7431239541134911,0.7647601781902781,0.708171480732316,-0.8259417185803389,-0.34308660277116565,-0.014643890389720495,-0.5539752178104548,-0.6135185771036173,-0.05534326434141149,0.7849307650139061,-0.13913289463762624,-0.3712990303921633,-0.26691856523985047,-0.6175750362461391,0.17160699830166068,0.5584841510813572,-0.35289700377914635,0.6687842445827495,0.3186888055213969,-0.9710308801225962,-0.0600718885141469,0.5032953215867506,0.03571289590412275,0.07462425463248293,-0.7746586270867323,-0.8936522804275887,-0.8740002899639642,0.44608503020570694,-0.32688589241277727,0.21380581397637288,0.3318882017250511,-0.11071146908625021,-0.37196962464340194,-0.1441106688050433,-0.9068238290685984,0.0782093830778332,0.2835082863032944,-0.6414538358680556,0.432146845864037,-0.6040148200856114,-0.21880474407590053,-0.5002662787096797,-0.7708666901136961,0.6060448394371291,-0.09804799846299324,0.6111922742636681,0.2278684963953866,-0.1388853530495011,-0.6194762417767439,0.8721149469359226,0.2538612636113011,-0.5286776498341702,-0.20523718502061766,0.030981443665332148,-0.6614707020071722,-0.6188632008845538,0.9700475935321814,0.3591269110226381,-0.30362536331742973,-0.5939686887785669,0.8870800931059181,0.7768794474067923,-0.14842057640980935,-0.06498169220538019,0.19193424910582552,-0.2388716099194949,-0.41484424472872117,-0.9747548297515884,-0.416407637694906,-0.07917556474563302,-0.1591663560489997,0.6002618989683253,-0.413639167709019,-0.08263315215398197,0.23893623451498971,-0.19243679439849268,0.518647366872502,-0.19619760305460868,-0.5702462363131753,-0.4988578822866457,-0.17459880301878963,-0.21771040682909917,0.1646179611106286,0.2818733649161108,0.3702714367372558,-0.11526225596814688,-0.34502749930021054,-0.43442720546210667,0.7660305595758574,-0.8442573441356548,0.5765213409605777,0.7434920723563155,-0.6272710112899201,-0.47635572597823833,0.8871808967913353,-0.3452354888268556,-0.7959480724178098,-0.24145505389751726,-0.4664252354033492,0.3171027912609234,-0.34393674157257553,0.6473503038709424,0.06709789018652994,-0.8612684570163123,0.7085995654134651,-0.1534357241049349,-0.787767647180551,0.6862364128237682,0.04779979826468707,-0.26128616777243063,0.5136444863695222,0.48646425482753103,-0.5768481669497831,0.06340314522112693,0.31714280838892545,-0.6871890349941399,-0.5306882081478385,-0.9007836813244959,0.5667019205139748,0.9442039243528187,0.2179659262489518,0.7250066952534127,0.14257946117114076,-0.5326071801916423,-0.4359387006867866,-0.16826411024779742,-0.1823621291919176,0.8713811337758347,0.0729318192836835,-0.767838290488229,-0.7137155607813742,0.8837853399998952,-0.32069486341959574,-0.5220362547496645,0.1828949889266043,0.7968068601903842,0.0709600877469479,0.8007000003645791,0.5251334901528307,-0.6343456685907841,-0.15463093967514022,-0.23016872594734938,-0.41319001576028025,-0.22158738773950312,-0.10675983840819431,0.21449824163033454,-0.13280424787056172,0.16297659625239075,-0.11908565709753455,0.43081145651049135,0.5056586023899704,0.12833754664802738,-0.8054563205353472,0.7915507959070345,0.27859797099203365,0.4393407182136471,-0.7429528097440108,-0.5227387916467512,0.1313010815482389,0.07465263283956396,0.7375964335584907,-0.7466844430230581,-0.9031677353455643,0.6458137133016899,0.8509058714563926,0.9607668437649336,-0.5885625922803445,0.4309869197751742,0.6758044408261143,-0.2968955002955437,0.6402574091594956,-0.8709945229575677,0.226020480690202,-0.3992667280531424,0.7296820855437185,-0.1544275690081503,-0.13610519470271473,0.3999784853683497,0.019671997837062548,0.7894434105351515,0.5708775793497666,0.2532368698096051,0.4764988685868854,-0.3003071590872409,0.5811045396764491,-0.47047608949422964,0.6595565987656328,-0.8900527495705567,-0.07523262425587333,0.6545728621864103,-0.7287238073262122,0.22139681446820794,-0.4549630855416724,0.6615506615010269,0.5352540487254044,-0.6253060079480524,-0.17314226547010653,0.39184964979708437,-0.9062751278632445,-0.10896782182877603,0.6045569782175451,-0.9062771527217862,0.6407687276660876,-0.5958740307782029,-0.9747811608172532,-0.45377605843798546,-0.9138145181030952,0.7078343719356321,0.9951530555781755,0.7782498339650847,-0.3146764720085607,0.6186636000959648,0.3704502735135754,0.9478073097882584,0.2759880784216956,0.3826098228020308,-0.46924214523898583,0.018501521142451537,-0.4666910615620607,0.7543407769568645,-0.46996607838165594,0.4915752995686659,-0.018503280757739445,-0.9678849733064894,-0.3748681433277729,0.6410816900967566,0.39279139683261816,0.05390018549136442,0.6604176099713801,0.4609605870838304,-0.837932320164393,0.4450091616120342,0.5206609606782125,-0.16885725574733865,-0.7381062526299229,-0.7509345844594632,0.6638812635515622,-0.6970711947157763,0.4620374765957097,0.4874699907576076,0.6078594430145231,0.33232738360777214,-0.3603390340698117,0.1576719809796869,0.1659781855503783,-0.202547897745224,-0.7860091636547784,-0.2806784942812407,-0.7825745263989782,-0.8007409918362195,-0.9933287512755253,0.2109142826147623,-0.156530186190985,0.06985599451689366,0.15367927473517048,-0.20718429153450874,-0.2287394226407356,-0.19379373765553085,-0.9067054111954312,0.7420113836540365,-0.7563467035996875,0.3926303642458226,-0.890222598754261,-0.2974488306026263,-0.3289118211794196,0.30051713135822394,0.42624671494286787,-0.6601364310754297,-0.2862870837459991,-0.7841539811592602,-0.5804965051674321,0.4570435001746798,0.8095585089279187,0.19968544998109786,-0.820019424208459,-0.8952584837449181,-0.4121987222364689,0.378492148899067,-0.6656054477849712,-0.7572823974637949,-0.9135161244025893,-0.6735616242667948,0.8262481782353922,0.11511788297753035,0.25471048895666615,-0.05906698564569587,-0.8292886382275946,0.6512584185280279,-0.18633718584513784,-0.22324802964007695,-0.4010413496236592,0.93175412654805,0.24423032363006217,-0.4112728798790086,-0.5379768029253822,-0.9611068545230381,0.3885358414598241,0.11679760724709384,-0.724838703189865,0.4556238289503703,0.9607816066286979,0.04636032662501822,-0.12602113748556118,0.5895761534495888,0.12328647374328618,-0.49581647249976496,-0.7138860122896267,0.963095192848969,0.2012861196640629,0.45339707213440883,-0.8636705034923324,0.15117475386877344,-0.3914465505880778,-0.07288191434438125,0.6621760701501461,-0.36329299303434315,0.08760769728005133,0.1429240526235777,0.7533721126040169,0.4167807339034948,0.4981296821892355,-0.7390944644223134,0.8203167185418562,0.41290302389631345,0.5465093273599916,-0.2290792842858629,-0.2539529815042154,-0.4817923501636095,-0.9070607186273264,0.3306772329840246,0.7033256181316809,0.46598125611434893,-0.02892589700026267,-0.759688631444813,0.18851827816945327,-0.39439754896164264,-0.3882814483882757,-0.31777309955301913,0.27617472652552094,0.14955032081787717,-0.8048677103967792,0.3647183406078216,-0.2061320952168874,-0.5185947252103589,-0.4708576416315357,0.2521766412126232,0.8910714968103406,-0.28394039375058755,-0.5846571661464143,0.7200501604906492,0.3066837583655679,0.8592146546327795,-0.13731365121443426,0.6335755424788923,-0.4770374850774801,0.6325976082717302,-0.8098030392306133,-0.37621582522117647,0.9629000082856659,0.31834387562141103,-0.20549969218449948,0.13405969155829633,0.3908232589217761,-0.18365432225133813,0.15322193794026231,-0.30670245463557905,0.7708329609532751,-0.4763541367910432,-0.49266237665241214,-0.6820734558133402,-0.03384619945933429,-0.39271275978661996,-0.42959996358380165,-0.07523244828964878,-0.12331929041666921,0.7826465970082305,-0.3775810482420266,0.23447777036024053,-0.11957875661857396,0.800742858005515,0.3745110941301623,0.7384570324427124,0.7643905773361225,-0.4927608175886804,0.11422453527730536,-0.9823235729600267,0.7372299955666336,0.5576936771575332,-0.18919561578991556,-0.06252782954515294,0.5567523685637765,-0.3463849808372369,0.09363968278489006,0.06277555019100704,0.33732968865585233,-0.4848782328812592,0.3252860495005678,-0.9778027309397969,0.16823516475095807,0.7078420061651322,0.3364575684852485,-0.5317692710186743,0.32670745857067707,0.91660891625232,0.8309660262928946,-0.18881580293725927,0.5721115096217189,-0.7091630548186005,0.9423883025243548,-0.05823192322588467,-0.22975046029856078,-0.918623029076566,0.9793519428992395,-0.1949261279664621,0.9361085105894187,0.9480306144666848,-0.9936770722812499,-0.13592978367811848,0.6646611968034476,-0.965009707596896,-0.4225966849468649,-0.7514359458363362,-0.11281698835935115,0.19953130325311622,-0.31409132160137543,-0.2939823296272696,0.8949974539295802,-0.3803850332674859,0.7770022896149962,-0.6714972148730073,-0.33708927145797973,-0.5824847123328704,0.5481244220273475,-0.5031248126835043,0.6434674891210617,0.9067759738410148,0.17243008934238133,-0.5426767992009996,-0.5957999656200208,-0.3981471014792238,-0.42525381364619086,-0.4669437946064798,0.757754139092022,-0.7714325626080338,-0.5630420304649046,0.08487242606679077,0.3511846215258033,0.6250775221238539,-0.28530864550800156,-0.969903004118857,0.08836370720240402,-0.34641681349461756,0.6345755519664293,-0.013778732172116025,0.19896257265034134,-0.9837377478537626,-0.6389490744845021,-0.09330945772861723,-0.6990082827034774,0.2223704884262686,-0.16446507981200964,-0.5307851726989055,0.3689807166395705,-0.14443746304946212,0.6401355503757226,-0.5983348315288036,-0.8271143603246376,0.7664598535927654,0.17123135925639305,-0.5540191003465743,0.4556489043820497,-0.15410758396176583,-0.11031239326061164,-0.2865789175875386,-0.12122759011830485,-0.3717195364961683,0.9602938523152602,0.8172627776785257,0.6064576954229295,-0.8623471776285212,-0.7841403181381902,-0.6376131136792073,0.278899409696663,0.10529335355055709,0.0389937481554148,-0.8894310017361278,-0.9075536597172025,-0.027612965696892262,0.5067024575241758,-0.5299569123361618,0.7119945294154306,0.937730581708063,0.9295612558382877,-0.17785188675311575,0.8266148525125657,0.7173838865886465,-0.21387834318169457,0.6464862192779077,-0.6973085183430369,-0.34352397595462386,0.9756821435854145,0.40225073692863383,-0.9125095036813518,0.36086432694713466,0.2924135782416879,0.6881902809309899,0.2933428564859487,0.11923058846020287,-0.9153984105300752,-0.6640634709844612,-0.7897414440856152,-0.9602410080971882,-0.8370558699411831,-0.22535315480500434,-0.5954054781172723,0.047056362406685565,0.2014336881596728,-0.7413988167351656,-0.5047578972426212,0.6688438212910154,-0.890324938987081,0.3664680989569478,-0.2641688851482884,0.8874472989789409,0.15325070879031538,-0.4452481272903984,-0.9010981700476032,0.23969699889439286,0.9630820864081032,-0.5094012684577558,0.208055736053971,0.8200296351449349,0.9934834641598375,0.38495479121803455,-0.8384895893830856,0.8664251042462449,-0.523476423552352,-0.3806180785439067,-0.9337641114758577,0.22864224066706682,-0.5198901063788736,0.5844515533728929,-0.07078473387090198,0.13854275131759025,-0.7368745819602986,0.8288263107273576,-0.5617356940747462,-0.538910100746376,-0.17552205110743696,0.38467165344953763,-0.8680134832845093,-0.13763468523493663,0.2576399967575536,-0.5624585082361792,0.46582772971362446,-0.8122235107594318,0.3318609726875628,0.39178806171199365,-0.6325960799271712,-0.24941716481218262,0.5780314218155459,0.818482608590373,0.011683092074232751,0.19304162254429494,0.08115499048948048,0.7793087272315476,0.7579790404734523,0.1378391185249599,-0.8248450285442323,0.5801328869914765,-0.5473657753766898,-0.09129845201154707,0.26753271449603183,-0.8651995411508683,-0.366653707522984,-0.7067158211656999,-0.845643423377625,0.8146835667761025,-0.4340138024585061,-0.48306267044069046,-0.657315581330557,-0.09582577351550432,0.49564720969993303,-0.6099846474649678,-0.8575395243531202,0.6022092548516915,-0.9853591319185645,-0.06300521798749664,-0.41428456362989163,0.8819488739845963,-0.9728719209539767,-0.28555194440027254,0.5932316256325001,0.46988470294341944,-0.5598845253589667,-0.48105932901152315,-0.7636028274657835,0.6915268584521808,0.3998527446549462,0.1798274778031401,-0.5867350544890464,-0.9903975574794291,-0.3205126446059283,0.7726904755668875,0.8318525225884197,-0.2955037019133549,-0.3581972083596392,0.7140474829321956,0.7821600015287453,0.3302442308534462,0.09550106393461462,-0.06728379717297345,0.8624756987159621,-0.6637637226549135,-0.6817336914863507,0.59309775114122,0.5600635331270853,-0.4418822812534766,0.5439831028791132,-0.3035738427867414,0.3922527954410488,-0.8345685007940411,0.28266138181930994,0.2865323322545724,-0.8430050359888185,0.07117384253793686],[-0.043530620238731096,0.78411028360608,-0.16115341611235276,-0.22897980761156853,0.9003812401535134,0.2595326177907499,0.6686788838515926,0.23015837002787404,-0.1678319438251819,-0.861908576347261,0.17538419047788528,-0.4302814880371323,0.76147852615226,-0.722367174710658,-0.6380696452135917,0.8633526713816843,0.8354798079730202,0.5991044558498033,-0.5564336954911019,-0.46006004626278835,-0.7615820538429301,0.9136693889909387,0.991813232466559,0.8033056345031588,-0.5145311637292926,-0.8438032188310384,0.24383642383624723,0.24480225108983597,0.35744532811705837,-0.27285341717850436,0.36378707507910546,0.5539825279809725,0.1924851383513586,-0.9325901305866267,-0.05666786171869333,0.9376666271616758,-0.7159213916851934,0.0776996053815552,-0.9063134930468459,-0.37437641132925537,-0.2688508432147612,-0.4571492386080818,-0.8918194237077156,-0.32916656296983177,-0.7568544340273147,0.3320541323948435,0.8635035756849907,0.1447952151681144,-0.8752204950278084,-0.17909075436331642,-0.1193433210291621,0.7835371558342187,0.9473174676809063,0.7167914019560292,0.2803865962503388,0.15855449469221897,-0.739841108742625,0.26813251870083743,-0.25550780298902537,-0.4754382897887047,-0.8966759102888205,0.6992864916423938,-0.9649742895223402,0.6411771850155945,-0.9468454866514219,-0.3631639139926007,0.6242276480601419,0.06919961675208146,-0.93324983635335,0.2795918676772296,-0.4467306257579409,0.7100890827535378,-0.5147857858912064,-0.8875627728666449,-0.23602429431056005,-0.3126112005644334,-0.7841478149207629,0.07696769807062169,0.8382645740698896,0.06089025365313005,-0.6680488388236354,0.28426566512768625,-0.6689353254300963,0.32122550485139656,-0.8855105846921573,-0.40718956161582065,-0.30280877643458715,0.12702166828317332,0.9032162057121816,0.6719127736784739,0.1899417457243154,-0.670077518267426,0.03472554802915105,-0.4663109855913019,-0.951893504309671,-0.026310180123200372,0.6153602957622326,0.9400112858103102,-0.209266631104211,-0.3410990818657811,0.9087988264979029,0.5763690621571524,-0.4977385189396083,-0.5672362312940004,-0.28387100932833187,0.43490340716792303,0.6191677199691963,0.19265020918922982,-0.7182478653855808,-0.5412904622396429,0.9173631303621258,0.48676931785561345,0.982063820294774,0.17491940229930428,0.1522023926805838,-0.4528842587748335,-0.6658835662523548,-0.22164901386890432,-0.8827522498458255,0.41035515058165983,-0.2906079252896913,0.9284125102609744,-0.23501702334846677,-0.938699902288536,-0.4545124886717129,-0.617684493042795,-0.527723142689859,0.6756383064757606,-0.18219348277152878,0.5108250061281562,0.5342943868409488,-0.7553932455605022,-0.9307518792748947,0.7307036580187436,-0.4628845452957658,0.13108972789843248,0.3883956141667011,0.9350982383869308,0.3838980127467988,0.4379754249086657,0.38832187637320814,-0.8836100562037169,-0.5595067547846816,-0.5399782117125246,0.4553649718512717,0.547274642374358,-0.48228731336330566,0.9476212810322658,0.3232095925339293,0.12491090294405692,-0.7778246591089203,0.42786289900895014,0.3722434098501047,0.7802634600289161,-0.415453289474104,0.40732336027305105,-0.03863971802444275,0.2156261041842836,0.8127264732137572,-0.07477905509244621,0.5726439785539539,-0.34093604696920765,0.5213446363427251,0.6290760323221913,0.5792446999645618,0.808503139037213,0.851026994565735,-0.6855304228584467,-0.9540583951542613,0.6893933603374381,-0.48040619072111923,0.6982365890343356,-0.8730384341370027,0.7586328820800606,-0.9640444213827328,0.08879691714690748,-0.6515322626301104,0.2637059124382443,-0.9400352173581257,-0.4276431800025171,-0.6541849884620194,0.601089031729371,-0.7944599198627214,-0.6502795690489512,-0.529962591300795,-0.7839503421538812,-0.5391130260354535,-0.059457045134293625,-0.910898175525552,0.44965224226802286,0.840846080657549,-0.8873060633312813,0.37643805868522606,0.6596716969266443,-0.11407550136120759,-0.39874071324242644,0.9163546401437832,-0.068672631314091,-0.810999189071973,-0.05279934602602464,-0.4517960599945622,0.7398270820725794,0.2564283364815357,-0.8826216241981125,-0.46828790517533014,-0.9595665415487361,0.7006673467995256,-0.03980266828436267,-0.6640613759566424,-0.5657256579274403,-0.9872260712643613,-0.9953790724443303,0.13627711687753366,-0.705879697414858,0.9774450733721255,0.6301029045631835,0.45245496204490065,-0.96510095447723,0.17143650916367859,0.21283762040762297,0.26492370419910505,-0.9272708864740966,0.9242014605397938,-0.501105946923454,-0.5781744990105769,0.44249987380555283,-0.37782355346227,0.1566676467412108,0.17803271944205776,-0.4721447981608671,-0.6972211849300279,0.23150894461907426,-0.6935957551218364,-0.09141339668813186,-0.8890593188444604,-0.9455864623570698,-0.6215675566956256,-0.059566747197751874,0.38041096133419827,-0.9517234012282046,-0.46879004905368926,-0.6441830724194133,0.8536980848574237,-0.1677241002821223,-0.6763585895135197,-0.08779143008593283,-0.12998299281751408,-0.9597918375881789,-0.8735068779781116,-0.08924155552089272,0.22633232678312548,-0.648428092718369,0.9037066482300528,0.2727893664348795,0.8566861841948411,0.37329499658418025,0.20865989739115656,0.7814708971448868,0.4768801325379623,-0.7820124526161616,-0.24448259660233604,-0.9139544020506577,-0.09394834716051827,0.8911033397529978,-0.9798086969149654,0.11269251286134793,-0.0962758806848663,0.9288550129215958,0.9830815127574345,-0.36261997006686497,0.049572375523259056,0.1224097668290124,0.3483705210525906,0.9517664719044928,0.4468720857241586,0.6181564551716299,-0.6450572628875456,-0.21387749894723043,-0.15762612940486612,0.20188798923176215,-0.3567675023347031,-0.04282821355605455,-0.8640393188616027,-0.8449642886954066,-0.45240220443014073,0.5640178806523269,0.1884700603160599,-0.28794526974453355,-0.34469325439966403,0.9841014934014592,0.3420717485879185,-0.1439489060257854,-0.4921736105957181,0.4051914746633718,-0.8704174582888305,0.9540987269882428,0.9135092805689939,0.17813856017565308,-0.723177749687997,0.5666816295566826,0.5012769686998685,-0.11220555878423716,-0.708247417439367,-0.34465639018182087,-0.13687567157583688,-0.28880286368526936,-0.31455078664246183,-0.6289090949566616,-0.08060554593422455,0.3715011553826279,-0.8143732779495015,0.6205116024975917,0.9838751857837028,-0.20859756226610723,-0.821506318388138,-0.31193025574952715,-0.5851423295937075,0.4139017479858679,0.05618231068834781,-0.6634437365229856,-0.2898090637815375,-0.9188572430315188,0.14772990283738727,-0.9896535997108789,-0.564663960253451,0.34763701129256974,0.47611041053780684,0.03649336600911795,-0.5285435460475796,0.15469552095403172,0.7114725717676739,0.04569319142475853,-0.2737293141004158,-0.09805601094666412,-0.6208649095338968,-0.7686444451343722,0.6741441435409176,-0.8713211420857726,0.6343073764573645,-0.4834449348809323,-0.12781881318689944,0.2505858936811682,0.7280120179820405,0.21819633364922092,-0.053870982409549684,-0.9010009130154287,-0.33252075624626404,0.37801327528168743,0.44878660961491584,0.3702412114283192,-0.4870589679318282,0.5712440688025369,0.46282314256736046,-0.484242196659703,0.25419707545105424,-0.29002918886280454,-0.146027665863016,0.09108481831790854,-0.7243195799022882,-0.8750324325763329,0.6760597972997725,0.1298833735155201,-0.9544974879376501,-0.9584944741691354,0.38838009207717217,0.7216988199404115,-0.14674997550911734,-0.5451893465370324,-0.7352379960473112,0.6435058527531552,0.17244857751299017,0.3671127430131768,-0.34191692759293996,0.63415700576522,0.5399112462280441,-0.6328208351879367,0.6306394988435511,-0.3016027696119796,-0.28040820257472554,-0.389706853625777,-0.1334165254863027,-0.31183517580608805,0.35865426033344494,0.4023546611306935,-0.24443908572989193,-0.6666921007605486,-0.6551269681004852,-0.20617738825098153,0.06842583249041836,0.8799127023290135,-0.3597201694493258,-0.13964838431660442,-0.25710667918843183,-0.45612335975808377,-0.5089030208582831,0.6732420658671451,0.9537675462096602,0.09706542484855826,-0.3953625126893513,0.3578843924320515,-0.13616743038007262,0.07912062855844543,-0.8643325883515633,0.0934731411130673,0.2355553711572809,-0.636347665353089,-0.8609444246840826,0.4228788534325461,0.42725195391914667,-0.8948159671637023,-0.4779940585011306,0.8241436731594788,-0.7920254599778218,-0.5431864454421989,0.46957378932844956,0.13528643215019837,-0.7057325834133602,0.87024100305648,-0.18140446924036843,-0.8681995382428475,-0.4533974079330562,0.27790723793176136,-0.08047612404370182,0.3210352377367655,-0.6423543367282265,-0.9961400939473319,-0.8476760330032967,-0.1509800194355984,-0.07700716060710468,-0.13685380855211945,0.4530825808346727,0.3092402746644956,0.8074895442903482,0.5828552007700156,-0.040715101148258825,-0.8050076480056444,0.5004532571522489,-0.5869517034805513,-0.8044250756265438,-0.24273789832728326,0.501307522588632,0.5965593052901625,0.0998882433694987,-0.8920217672734108,-0.11599103687058722,0.22632702946526198,-0.37124961129080575,0.5534617854448576,-0.7398327607224932,0.9441899880878752,-0.3174970790818375,-0.6545819752130182,-0.4067418828977232,0.9197493141474311,0.6552989284976737,-0.6943294650263786,0.4119186447888245,0.5982365573059336,-0.9574241416673283,0.11189581128915378,-0.3699128423459744,-0.18278240050943284,-0.7723731325116875,-0.5782314718961793,-0.5999446601227091,0.06490369318186838,0.8203781944877218,0.47041492375231186,-0.7902729869789384,-0.10932506603127821,-0.26315382347244354,0.2916457187587997,0.7798821994244398,-0.22418878945078077,-0.41573630006816703,0.2956966446701975,-0.7737665087415279,0.13526516283774281,-0.14367662520552954,-0.4233674187984084,-0.5787153136183992,0.5431562673066134,0.9445008103850044,0.02827007089530913,-0.47639121808543405,-0.23703115355406157,-0.9631015609553549,-0.8831938313635194,-0.7600131670448272,0.7113958365786127,0.6023671835501865,0.9854254344554093,0.5412765832949424,0.09557018712364108,0.3467341826481701,-0.5387459958556675,-0.7242910880187945,-0.8617542820959885,0.2806165198805917,-0.5115674031112224,-0.5946043261801882,-0.45874763766160503,0.8528080244314815,0.530304526575061,-0.5617060808692174,-0.3630656594654903,-0.020503682557524845,0.5621100978476796,-0.9646293247778249,-0.46293540868597766,0.23914993702920714,0.4184629512104348,0.7432396026070923,-0.9852033494060592,0.5056902032619377,-0.5329840815501324,-0.6625445345778284,-0.15990147990953218,-0.14374456032020022,0.843887251694191,-0.6450587223339457,-0.6619847591348178,0.7168021106312386,-0.18049238556258057,0.05385902068793337,0.05055940044373729,0.898211552102951,0.25406470160744393,0.25952560053020196,-0.44233975331689956,0.42871832835180307,-0.4414135204587782,-0.6616882870482544,0.748043548860224,0.9011273051841912,0.09375241252903047,0.8865223710671774,0.12889859589185343,0.430784354528934,0.5184080320590441,0.6299055457038293,0.1270755036227877,0.2610285440379371,0.24526715852853603,-0.49900292870085383,0.7561232782836039,-0.44685466146237535,-0.13810802442063638,0.8928566358133465,0.510555014407852,0.962954491011766,0.14650334861036032,-0.3150214326549057,-0.1025904991240387,-0.7670364564339582,0.13568817111237488,-0.20522155800476674,-0.3727459173680176,0.21932863347518264,0.5956877112346091,0.7290237471782638,-0.840299061065081,0.5232654086748383,-0.7978466237214454,-0.10777031870591086,0.03456759162562257,0.2120428210583349,-0.24856626520815828,0.25516856551191114,0.22008261260849163,0.9917254338743954,-0.19173673568879276,0.39523220548442994,0.569684211427232,-0.36709454397586194,-0.6660234885271471,-0.10991542562427033,0.40295042157890465,-0.5475074147367097,-0.9524005120453738,-0.4200097214286535,0.21244669175075132,-0.7808797372864034,-0.4625159219209243,-0.6901976425557909,-0.4518850046299342,0.97784544322853,0.4734084480657327,-0.5800512206064324,-0.7589383317109805,-0.02275399232155886,-0.34078650510817915,0.47559000089405884,-0.698230765734291,-0.8649768341241659,0.12227330901366805,0.5072165190521178,-0.9334302112147237,-0.7065054756287297,-0.04454286703833272,0.38212139162091013,0.4628694182427843,0.8920330512428623,0.20329339258783927,-0.16761384272754232,0.6252854879364221,0.6229538527734341,0.7304921231527484,-0.8621133466722993,0.5191088617520101,0.14019441300327515,0.7136007681267015,0.4948207232599283,-0.2854596669506977,0.954701881440118,-0.8337718873049292,0.6969453630669797,0.002481198550640502,0.2758059339251845,-0.26445896458034535,0.9127241569632192,0.153970473024809,0.748545315136268,0.9027124418417205,0.06534383854918303,0.8014798106837885,0.7894231302593547,-0.3248449455963424,-0.3962475931832245,0.15404728387998115,-0.46371832180607003,-0.1265457310920042,-0.7012870383360801,0.05806116711591991,-0.6949979911290569,-0.8012193996473189,0.10668829606617944,-0.22324283834494454,0.8861754047580709,0.4073828669051217,-0.885303685538978,-0.21408731467030573,-0.9835885109851419,-0.8746697818616385,-0.8867172146655128,-0.1313563633022844,0.9227251785535286,0.10211949377325062,-0.5617908581498213,0.8408735304288758,-0.033965924930529155,-0.9662727066434709,-0.617271050453886,-0.6481638462390159,-0.9004248693267708,0.47826937420869675,0.7010086934504574,0.3765365318716062,-0.8903994822479906,-0.15934182605415212,-0.4933932379159977,0.2533228812875879,0.419187491117146,0.9220535812857468,0.21616510997315708,0.4191879428960005,0.6150429720282746,0.10934755430760557,-0.9032553101190769,0.357068713054588,0.7952836717165286,-0.07699476036785802,0.4458292879870778,-0.30779014794812726,0.33776741479014905,0.34481802517456484,0.46489929494162385,-0.1389633229667458,-0.24601864217268085,0.11719404767582302,0.485722983249708,-0.6738469188797591,0.920109278434214,0.034596727969793815,0.36487015132936795,0.921376197402772,-0.833306588059907,0.13978654836895288,0.5829847717062899,-0.4160470330887641,0.4585452719350489,0.6928462748818842,-0.131591288783243,-0.5313669004260032,-0.7862842744565313,0.7995769598707654,0.011570742955592189,-0.7629551451270207,0.18541027187200354,0.664886032321758,0.9434253836989545,-0.8240430745018562,-0.7297556189088891,-0.4210173961102826,-0.8778755879607234,-0.2769898201541754,-0.8906278475781132,-0.04912304047426944,0.8064063007500798,-0.0355706359838811,-0.08793218006753223,-0.030381435614812092,0.8883641368820967,0.7181883096054504,0.059727641807859125,-0.19495947357800011,-0.3820597093625983,-0.07310445080348281,0.7358610458190857,0.6510341371054561,-0.22957297987044217,0.25916242207319706,0.08166783979977228,0.3707057136419264,-0.4063869098570472,0.05441238044045292,-0.8102780484010753,0.020070905144839057,0.21491091284973524,-0.9556133496310875,0.6257717707070203,0.1060698161621841,0.09842696479780647,-0.3531889832712254,0.1084939315206619,0.07865244329166846,-0.3881911306803279,-0.9505054870860201,-0.5221212875016993,-0.7394508709800414,-0.2038918458710919,0.7905377052358665,0.14918323812106662,0.18727998368595947,-0.9715275340877149,-0.9114504059918475,0.8743187667138353,0.1583646544997118,-0.5763438610251238,0.7875034807209728,-0.17667083693513203,-0.30566923352662567,-0.4568342021695621,0.4562274823557279,0.7498907910384928,-0.45077163730573383,-0.7374529177308358,-0.08277377498988381,0.3200692547919419,0.9457815039302667,0.49470917788504887,0.2799893453043469,0.5596231041649458,0.7799987711897433,-0.12685381546712515,0.4135670044613628,0.8147846136453829,0.6850248604281624,0.4712280259534686,0.7179540721097221,-0.3764225955141405,0.048987563007527775,-0.8330832298331657,-0.9589469953152151,0.4600563398932643,0.35014511371260365,0.3574025588039846,0.6343761947707417,0.4384005939822855,-0.5004591421588324,-0.6145220983635694,0.1539648702068548,-0.24467295968725072,0.27839224258914275],[0.88664048277607,-0.09839809713240949,0.409579023770573,0.054833244735009966,0.6175009200949877,0.4857742268856061,-0.6794332416062224,0.6445821937086558,0.8532074216126432,-0.10817727460388879,0.2358539431598954,-0.5126522387415354,0.4776299796854145,-0.06855609642694808,-0.12078629399102148,0.4567572821040825,0.3398149310880389,-0.8464122589504025,-0.22886938628825557,-0.09879302792324145,-0.23933064188083417,-0.46163098460029195,0.874436569792092,-0.36717070387219136,-0.5064181409340917,0.9294108482289837,-0.8287939622699714,-0.2728102933618099,0.28553230762186743,0.7481522407101036,-0.3534370465966016,-0.2671056249366403,-0.1409554447534822,-0.7144338172305762,0.1101115140235907,-0.8265028722567965,-0.12829966699945247,-0.8187643706837145,0.3033101789029718,-0.9302058780822744,0.2087409291419239,-0.42334503654098155,-0.17883677276594478,-0.38119940396512964,0.8256060708879821,0.8690844138268149,0.519183637329162,-0.8636031899566071,-0.7188856381942158,0.9942563395932513,-0.7183186607270358,-0.09614826064898506,-0.9117236650831749,0.7306447477277951,-0.7050307542462262,-0.3458894872173069,0.058598800357948684,-0.35498618648155467,0.29920414768589537,-0.9080330886852822,0.9270474158871034,-0.011625998685957676,0.6851195923153208,0.06291632161041195,0.7186630796701831,-0.8965561062776249,0.7570049321886266,-0.23130052526939238,0.5541608903171473,-0.2808302647069151,-0.9991405089206485,-0.22674369003970707,-0.10934073413032214,-0.11520128287765849,-0.22327465646662942,0.4510035070745059,0.5550441785291303,0.23548076346450103,-0.503205979048268,5.709377419678243E-5,0.3512490274425389,-0.21672582541317434,-0.9440717709593961,0.17621341120717113,-0.4908910865559378,0.4919492406752454,-0.9511370262060972,0.49923160365146985,-0.20874348272126916,-0.4791101462661431,-0.8616089424595501,0.8411337596249641,-0.3141528714742165,0.2128601096374106,-0.16856712059106027,-0.9730449098162638,-0.21326001101067066,0.6523608368891999,-0.12503684385029987,-0.6384167921419458,0.19908199966260154,-0.06425329452601994,-0.4986449683960501,-0.157970064351188,0.6070943312266202,-0.8287550116555142,0.8327686944698885,0.22266486197812757,-0.49786205021151625,0.6664307338219538,-0.10321286765586431,0.07166171108543158,-0.0069833521033960955,0.7627161568603695,-0.08939936962841041,-0.5098905760381527,-0.3932202449622197,-0.6591685329198046,0.7585954202754459,-0.7390649142972772,0.5371099018556823,0.14823752288643083,0.9182956162745464,-0.14701309929943956,0.9087171993671259,0.7888570165532295,-0.5178315840624094,-0.07365864874722683,0.7999877861002944,-0.5325159816595608,-0.6220832987519178,0.7680988660587975,-0.9975206227818683,-0.6043351011001137,0.40741425940440834,-0.5663788773581842,-0.20536021100607224,-0.8572046400073006,0.30454771475329967,0.2763780573149322,-0.6314980766141327,0.155647772120778,-0.3451969064738235,0.020282346547334202,0.9719144363693349,-0.8285091899183432,0.22450868896556012,-0.4384185381365304,0.315192800701945,-0.6855943829818857,0.015222308186206176,0.2830706742897103,0.33990437361085735,-0.7086419400242573,0.18882540744865456,-0.17837495395305816,-0.9411596560806101,-0.7059354079624391,0.9014911692890367,-0.0492796839503284,-0.1499488900370234,0.964607090078346,-0.9602696262476559,-0.4771665586070349,0.3241320583436944,-0.902778272974415,0.869327981183906,0.26230359598811503,-0.3171977555458735,0.625643588615401,0.6880497560075585,0.6074541008068699,-0.6518701630023291,-0.11515852389223014,0.7155839569288913,0.7714707077604173,-0.43440474222156344,0.1379208484107312,-0.34075224069109494,0.7247187583583268,-0.3295082389552957,-0.07657729312772647,-0.3384281750160181,-0.10308016019178588,-0.24397742834918562,0.9052322263547381,-0.3340270385088008,-0.9442208807322515,0.5927587784168465,-0.40327832746573106,-0.3707288388669977,-0.9606208168744795,0.8229531253045743,0.5827237758980686,0.46490293995198634,-0.19716361953724504,-0.31046342717872255,-0.32260701044819606,-0.8817341576505393,0.5854493289100092,-0.1415423528091948,-0.16704554383210293,0.7556988400040384,-0.08724694778781775,0.2543490502629228,0.5537987091531847,0.6911790886810821,0.618581556088074,-0.7466830338585919,-0.9276852124906882,-0.6201040658483646,0.10548808815369674,0.06301370029092757,0.6073526238785177,0.575455387512189,-0.34247290164990646,0.668945951303888,-0.3468965358666748,-0.4224804529529413,0.7776415540804275,0.33732129809470224,0.4356787809470416,-0.6107155518090633,-0.7574260427048863,-0.6614497132801135,0.42660541476379593,-0.4407294961295185,0.8514480646620726,0.2918602740626215,0.11691305310375082,-0.5005185004764328,0.6898605385634449,0.3303060810912102,-0.8675557861822788,-0.8479407869103848,0.13950502579331747,-0.8532316519099696,-0.7895469951924844,-0.9808584474952875,0.8341028662632253,0.905396387797969,0.5595514009039202,0.7757231893515671,0.29556167451930293,-0.010755031165272218,-0.31053554557831714,0.9528692463704176,0.08003014490898072,-0.3962961846409509,-0.07594850238401442,-0.49126422253336277,-0.07830916013093202,0.36663741497921426,0.5004768369196225,0.4974157187793021,0.5828567012853543,-0.8100158882588128,0.4093810111685352,-0.499288144284234,-0.09786749091882356,0.993897195739058,0.9453544587172368,0.005514433921326675,0.8780897156895754,-0.9066814397958426,0.3139505913880692,0.4895334827547989,-0.46585656555220417,0.4582348691917236,0.5809717339773939,-0.3792613691486412,-0.21901472555869897,-0.527335350523826,-0.24834426067773452,0.6808928238654649,0.5261482600933949,0.3037734332633235,-0.16809955777913904,0.09119557256628323,0.875983240138191,-0.45867379804417047,-0.6494281570858259,0.7480858935703988,0.433521066243253,-0.6209699130449381,0.011426661911629213,0.7698639073271286,-0.5835900451983735,-0.7168608982981852,-0.10488169277504851,0.2098515910911872,-0.3977015887937629,0.8300167521156049,-0.05380040055727751,0.3093901991093727,-0.04522541657762292,0.19319646660016032,0.35702052486540037,-0.055926370004500625,0.19113256660993833,-0.3782129422040869,0.8998294024170328,0.059151338707050374,-0.47602996076563386,-0.8240801391111804,0.26037801573068386,-0.9048362274786205,0.34181663589240013,0.9712403107607447,-0.00924348802346335,0.6724069144109267,-0.3103125498982045,0.23329703988981026,0.8261537870511808,-0.8670685841876355,-0.9313263410356356,0.5739915235573371,0.7996883632484344,0.9313442442490982,-0.7056354312482931,-0.9239113243211922,-0.15860708753766278,0.32075749859654396,-0.06286906385267817,0.008119386626792157,0.3619253436409542,0.2978288540568572,0.21296347395043982,0.29082048003413513,-0.3015187122119368,0.3508767379207813,0.10179364018746953,-0.8023924794947197,0.2398881357263975,-0.8023217328912807,0.9409150416511127,-0.8046226000563413,0.549769764221141,-0.5954067094742396,-0.22567437041833702,0.3182931767644258,-0.12884202744839712,-0.45373161472463214,-0.6654790579090053,-0.9839912568100788,-0.9771396492467359,0.39523442523399327,-0.30854206983665766,0.029132056384616696,0.8873434208177502,0.5232880919854185,0.324136803220324,0.5185547096204076,-0.5581235483898023,-0.3483470539552326,0.6534211162176903,-0.5884113097166461,-0.4009228227586101,-0.8955572958221798,0.9204432549095831,-0.2732931221117217,-0.9999766211401878,-0.1999065109703295,-0.29686484012564684,-0.5000252941347139,-0.6575262527002107,-0.6420619650878018,-0.6658754510345942,-0.13987357488144156,0.8287631354892423,-0.8977583222161409,0.016454895104725472,0.785541592395762,0.8823431090285963,-0.9864555199825293,-0.4707371814682965,0.1252140551143803,-0.5910978369108866,0.0072581224413368105,0.07378708757619751,-0.42286182783526133,-0.43251766016466126,0.3120538058619865,-0.9692471704994419,0.4913560323689984,-0.7310927199763015,0.17561079522286183,0.18339118821051528,0.6012467048345529,0.4333512369021685,0.6429446068973319,0.30606892487962645,0.0854585508401996,0.415775281278728,-0.26747229411768164,0.9266791163710372,-0.27578166508465946,0.9474544550514676,0.9780734407133432,0.5416785227162724,-0.6624187765866361,0.4437511041866937,-0.99112470048332,0.5958271229838918,-0.8204936250643411,-0.4072682186127739,0.609193519621294,-0.8655771184726344,0.5104785966378951,-0.23378007948100693,-0.4727258544353323,-0.8059991181228593,0.18271965874220356,0.9842716068709281,-0.8028817638915529,0.7181750183794686,-0.25413539304202765,0.9160742474712813,-0.5087355082090237,-0.9314754555805811,0.3173040774531131,0.7146676679578101,-0.35965381653409706,0.04608931740392425,0.26021864046127274,-0.6401174459931769,-0.464657852168253,0.7472926390283186,-0.4263286766032598,-0.376677367784994,-0.22904395118519683,-0.45124216477396867,0.8229352069904627,-0.2288388481757262,0.9936674949660169,-0.9512575121353721,-0.5754224132005498,-0.3149841916811304,-0.6144160396452888,0.8885743866332262,0.1496368892000802,0.20806026354281562,-0.5547391920029225,-0.9643035207679844,-0.18043065924270052,0.21304345831431645,-0.38070529814645626,0.33063599752051626,0.3434587205627544,-0.8592089242786698,0.7935053412208927,-0.11660756584063943,-0.5186850446313719,-0.42774850951460386,0.17016465606445216,0.2504793448838118,-0.9828760947704859,0.77408897592532,-0.3622393457899175,-0.7679900976568315,-0.6133783056121834,0.09726409326664048,0.3823826692912395,-0.40102714148818003,0.22861236116914765,0.6100368266601076,0.19490454293979403,-0.9059979536348758,-0.1850385968380594,0.41122403076379743,0.6956816483521493,0.644672326587272,0.8632405728979068,-0.30344567470282674,0.5286115607590128,0.8865561736372572,-0.15268860279008747,-0.1596354693300626,-0.5310785362379935,-0.18604180403105045,-0.40502744715450767,0.5068742778497819,-0.6558117777374565,-0.34051499316344935,0.6981297367756397,0.11971256741343422,0.6856249515546202,0.949262156621674,0.05975739896870741,-0.1046924624166392,-0.8932314316410894,0.08886604869989352,0.7632684231047832,0.08524682376844367,0.54928849256761,-0.19430512990439144,0.3737214823642224,-0.9253863722241122,-0.2593153203078885,-0.6932623373287835,0.7666388448898014,-0.4521881149137686,-0.5237315327668798,-0.8936075434988209,-0.37098245373291155,-0.9397035358845495,-0.33216681442810764,0.137173336247948,-0.11154426235301983,-0.9558822602867857,0.49407439384553525,-0.023108688889345332,0.5001534280862595,0.5271258531541912,-0.5571642966349943,0.8090345725874758,0.2578481648338057,0.660118192410696,-0.4471391936639044,0.07884315522539541,-0.40639714474011135,-0.4767927401144083,-0.257178097643976,-0.28427713139988126,-0.30732894493778196,-0.37790996446270536,-0.2420604201719602,-0.7366204754280082,-0.3264897022035684,0.9869009646485871,-0.030370736734752803,0.29224313998851537,-0.9306818035090421,0.8507331115398599,0.03113452239167006,0.06445038810687652,0.39631971493403734,0.5119206214583975,0.22225230796552453,-0.42011388820449796,-0.7946470245153764,-0.8264160373078595,-0.7912312886909098,0.8524331787224287,0.6871135646231299,-0.6940947532835486,-0.10266170624017486,0.5488489300801477,0.6377731507169536,0.3910776264839243,-0.9158783074688347,-0.031665400458660106,0.3904948292565145,-0.21221668426237064,0.6755430598725822,0.749097338958178,0.17970768758470035,0.8915512328344809,0.40214818545125847,-0.3410989844526742,-0.6711811181976559,-0.23074409196333176,0.15157558722835435,0.35979484476713053,0.6383833560347547,0.010518038401503811,0.31428559813469426,-0.8670624444161399,0.4005798413286509,-0.33431759098144814,0.865718157263552,-0.7924023709381014,0.5771446151943336,-0.1704884359629605,0.3011563735401574,0.5591604176114605,-0.14821897692535507,-0.3182890040904847,-0.005340887667806634,0.8241343857077973,-0.4956402665867757,-0.3901872004306518,0.07096996325695379,0.3258836308458219,0.35307561658134734,0.41694256441868827,-0.5405681679403354,0.11298988319851891,0.37202396669921095,0.5563948162992672,-0.5585378681810693,0.3828714105923451,-0.9844723379516174,0.8369621640564884,0.7082869531821875,-0.30351136877985213,-0.23314650542798526,-0.8926435968781782,0.7131481403901296,0.9856422590369283,0.9777633725280618,0.055031753735916365,0.9323033278462923,0.512611329733822,0.6767185476647756,-0.5557970882593545,0.5417364351927036,0.6625560837133737,-0.3026462267444599,-0.1302430623974134,-0.02846382921361896,0.7323290309123718,-0.784823018098035,0.41824728534187017,0.8174939286662377,-0.27499536838905947,-0.42075251145221737,-0.495924490116715,-0.3304389235678683,-0.43228932237086654,-0.8130148126414759,0.5884762599469682,0.5593785472717095,0.1409786709119612,-0.9259810379634211,0.4908130240345536,-0.0658432575732298,-0.9589380751398454,0.8773324631319057,-0.4338314968304649,-0.6682335661329337,-0.9076184036325609,0.878819084241297,0.15019341584164767,0.26200682260798286,-0.7145481451595653,0.9476576973863349,0.36158640673922815,-0.8084452324068246,0.03634330668061012,0.37376022141704385,0.6045573990668354,-0.014809391537961255,-0.5530716657018284,0.8208528902566187,-0.07192762605144207,0.6734990579846654,-0.40909995057112875,-0.07337948807054363,0.7756362316305824,0.9972838603351339,0.7587114242061721,-0.5613639578153117,-0.40117868462103295,0.8215445856870103,-0.9346924183318217,-0.8013765076171823,-0.690319172107206,-0.7830962289777607,0.8577227367205287,0.7739601215235474,-0.3883124905065748,-0.22599069704208916,-0.044672618965333935,0.08413496296576861,0.875747630609644,-0.453536052256589,0.9137042983031738,0.9812038505484714,0.4173014275244218,0.91040721818634,-0.7761975986632905,-0.582901406196829,0.7824927208449611,-0.4159799289309657,-0.3586892160123519,0.567028158525971,-0.034168687589898515,0.06771828797177033,0.6867955135630216,-0.9230246308139995,-0.6412748331767433,-0.15406035772712318,0.7654117218576301,-0.5353516423786223,0.6676991129772161,-0.16604446771398118,-0.6743307707951652,-0.37292723038335396,0.04309944000403753,0.7582794101461514,-0.9900234093290842,-0.6056317819515207,0.22353923387362437,-0.5732213834140472,-0.1546576164268537,0.11799632797632541,-0.3717930040095914,-0.8253595365502213,0.18082989748831593,0.39319765699981546,-0.9812313427325058,-0.8349574132794831,-0.7008922995610488,-0.8109008511386959,-0.3956033706382728,-0.32169078495288544,-0.5874291448662771,0.89631624637179,-0.7219988655238678,-0.9589816129153812,0.1002662944976609,-0.8992891754754818,0.04866044543178861,0.42654861154986823,0.1500234135376987,-0.7467298072562076,-0.325301015851577,-0.5988382882217053,0.24093191324690555,0.8299614023336999,0.0038514809504953344,-0.20521668555662512,0.9344666244263035,-0.9383608185591537,-0.4086822348491971,0.24320146560572664,0.03829436495301973,0.8630264829744382,0.7935901712696256,0.5785397895009361,-0.4349992586982053,-0.7989613257372018,-0.27472732133557703,0.13736609489446527,-0.7713475582062579,0.8165766703464423,-0.7818675323672122,-0.9890682403199333,0.7053438941395742,-0.049751180642047234,0.23606004527883534,0.27958897751213935,0.729556461765494,-0.4787120291642491,0.07655357417007178,0.35352047041834656,-0.4936147034027126,-0.9297076815972852,0.1288237559560875,-0.31552147199706176,-0.10965040751075861,-0.29981063414787884,-0.039472864027770505,-0.6816599586555072,0.31478007283585807,0.23624479774060028,0.06966108050026439,0.025839795742338308,0.551394286053848,-0.12535042588810497,0.7650055984928826,0.07890661126148435,0.03792746844832019,0.70063876033003,-0.6719604652828643,-0.867356647981941,-0.26762198715769764,0.6308816623594707,-0.1388299443749337,-0.8719487404459525,0.23563536493813791,-0.4287666973635034,0.04157960817813426,0.6481692282503442,-0.7300696348589587,0.879711765524008,0.37690930551519874,0.7403651429540975,0.5087897975356221,0.5859879866760808,0.49854545208417483,-0.13982658345372848,-0.7751170764522521],[-0.4698823066351028,-0.7029749433844751,0.2552942774369479,-0.2319860917377147,-0.3666613633410942,0.20990035393658765,0.3795298865677323,0.19555083138689672,-0.539757750841513,-0.7690567460976188,0.3636986212873348,0.843384317202366,-0.5696704015881011,-0.5122801660151114,-0.3548819830376487,-0.8926296893743909,-0.49681923541004464,-0.15016133664894676,0.9146615279836278,-0.19548547482671838,0.4313002742270831,-0.7767708444371761,0.6999731197171656,0.7989476726295456,-0.6448310137787765,0.7953753065370419,-0.5391966841860484,0.5020707264958192,0.04189977006791561,-0.7223154076291369,0.6785375282911792,0.7625367664250321,-0.929406864121116,0.39576296360285995,0.9550008479187085,-0.3519225128614395,-0.16768655232649418,0.14640974409115018,0.2315658728052569,0.6700923029430501,0.33928775342321554,-0.33004117709926073,0.8975624606110367,0.11304791747018413,0.5274655008364997,-0.020840836651165248,0.7778671285708588,0.3047931954497633,-0.011448042880538047,-0.7588694742902704,-0.22737400793295684,-0.09991868077137091,-0.11783466012313297,-0.1738377286907342,-0.7320808063071611,0.5483900035498337,-0.8446846418840351,0.9173525185977176,-0.6558902742862269,0.678658062615902,-0.8634380003844635,-0.8821808670596655,-0.7203138435091049,-0.44291629746830957,0.07346505705538281,0.19701616594623458,-0.1186738604881266,0.2608206182806706,0.24683503085991454,-0.11453507672664019,-0.2332938840184418,0.7588195515586372,0.9220035546240163,0.457147449491187,-0.11517483647793732,-0.097199101868038,0.5869509437974917,0.7315268485472457,-0.720824417390222,-0.1951479653654282,-0.3209320721781193,0.08219286708775148,0.38262802564122356,-0.1853014631390465,0.31649470965940785,0.056542491802142616,-0.02197753575066349,0.1083405678985106,0.4274398919976686,0.2912911905641357,0.36731699446187943,0.7611875827978359,0.10990480102855707,0.5509369659071397,0.26238754573180867,-0.8972662824733265,0.056385671160474965,-0.07849266438263318,0.44395660664803027,0.13583466175940165,-0.5574892665745323,-0.5406151533380584,-0.6691829520578125,-0.14711856692484573,-0.19439497536501404,-0.07475953070756586,0.2596115081781115,-0.6078740188321334,0.12858875661490723,-0.37442537818457106,-0.5035236099293872,-0.8484360973294133,0.5964044404294482,0.8393899554481338,-0.21556273410419063,0.21380854408778913,0.306972863772403,0.8252717817777185,0.5768322532151954,-0.2655954722412686,-0.40467676763470356,0.9840927357004124,-0.9851926396760494,-0.692566197924999,0.5691249356588073,-0.6048000400191247,-0.8222640296065891,0.7457326556418136,-0.04428881320397077,-0.35108565850839285,-0.8312905146427548,0.19989546942310013,0.42537275549162973,0.6659445518928734,0.19270896273627955,-0.9115132957066115,0.182341678002546,0.024248186903502264,0.9437680587654864,0.9237932406499466,-0.19552106025174593,-0.7935873521051897,0.3373695972503503,0.7907739331673334,0.06473698346997954,-0.8641141398702186,-0.09167606271625041,0.97346651629157,0.7817624578212983,0.3877942512421584,0.039546223600349706,0.022011053644537055,0.6240268167003105,0.5402731188605885,-0.40445369168206124,-0.5856110517875576,-0.7687443342158787,-0.7252727767536058,0.5051888811842871,-0.10863567954578301,0.019071510690898585,0.0385601677887266,-0.6287353147917953,0.528865302166857,0.5970000984627978,-0.6484165585635785,-0.7194498729847842,-0.3386361572963575,-0.14302092081318726,-0.8328839186299548,0.6456143940318401,-0.1191980561506997,0.47912553185241163,0.09172596097357337,0.13096751135994025,-0.490454605142783,0.8533189864694005,-0.2776398891297805,-0.5010875210818208,0.18236561264693016,-0.7703968650984082,0.8773313482945562,-0.4436629737594541,0.4708079417769422,-0.7125635991223828,-0.9223407366836173,0.29194571647914913,0.8452879750454928,0.2532922678106733,-0.7221851563971565,0.7638438595510427,-0.3066235944804822,0.1979968087918747,0.5501591993810143,-0.668873987001944,-0.40030331117470835,0.20954485400270134,0.19459203498386737,0.418120705089256,-0.3587763841833709,-0.23558183689484594,-0.42453681976206786,0.15881450281553258,-0.9366898984671096,-0.1904657438082894,0.87998639305493,-0.01076129974436086,0.37569697164278,-0.18092808410192915,0.9477042697338993,0.5389690993456533,-0.3563017931829702,0.40483498240803195,-0.6619506357306829,0.018692405122051534,0.5491561628637166,-0.06414694313565175,0.8830629444750461,-0.29138421338246284,0.6564871000290495,0.062276721053582874,0.11516366682661375,0.12385531225459352,-0.7565373968410724,-0.959567000391387,0.16446452003721893,0.9653335838221936,0.04236687374527737,-0.6791762731372268,-0.011684713249511189,0.06116724234758773,-0.7138320165686052,0.9872896992399183,-0.8747287731947008,-0.8387998990872094,-0.4343461170777004,-0.674713431116636,0.5586479120783207,-0.3316972354636248,-0.8228374773807303,-0.950874292123198,-0.2702664918162724,-0.8267001478921342,0.8771949273096126,-0.46748820875812347,-0.7417426072015759,0.005692562093885611,-0.7414468145565434,0.7636286683198996,0.5080611664330571,-0.07870104343141454,0.3244841956210206,0.6853332244116092,0.7780398035465489,0.5176823208210958,0.26070858754374254,-0.9166522303123237,0.6040092923091405,-0.9976516092167056,0.8918093070327882,-0.750581483011394,-0.5756370799034168,-0.4662610038955705,0.8572198878956065,0.27351365104340286,-0.307411717906888,-0.4864247879066959,0.15322396051209383,0.008588007010172833,-0.5876349230978247,-0.07017129475658462,-0.638471630697506,-0.4965792250554438,-0.9741428344862911,-0.8675258968484613,-0.3789872657380368,0.013518108451944136,0.6036677868320977,0.2704229689511961,-0.8018927853821449,-0.4233512410843134,-0.6353815084658299,0.025606130005961323,-0.6271696873595887,-0.4202312296352402,-0.3034907459710222,0.2514634787648572,0.28102535087702873,0.7453205377356389,0.053798910965983174,0.6558785625314473,0.33992092847852007,0.5297457961303315,-0.6241954383787104,-0.2355148936743904,0.9326925575012124,0.0538625631872116,-7.622522833269406E-4,-0.9414089963569002,-0.8605517574268806,0.3743411818448307,0.4311414799120321,-0.5977623975741788,-0.5245857722600701,-0.8426851029804742,-0.19616765990257234,-0.3432419401931331,0.8337217366681327,-0.3704456442692446,0.3505242709857612,0.7262141462703208,-0.8710229802565574,0.05996528149922404,0.8208306730992293,0.18589971604820338,-0.5009085310490191,-0.03683031811227499,0.39763787083902397,-0.8836619927983431,0.3466550898992479,0.719114216309743,-0.6180039601460893,-0.20133275717053362,0.9874410080838939,-0.6329017955238933,-0.3196091305162327,0.5230411207929458,-0.7773093735241646,0.9595506866247476,0.9585071744752915,-0.0804842037971163,0.7627860333507842,-0.9496729612185074,-0.7813693325315364,-0.057818610543316516,-0.8960098793877579,-0.35589270188335836,-0.48756162605866754,-0.08012182674740953,0.19625170441106793,-0.751709594385667,-0.48113953927558323,-0.06695791904016482,-0.961169826708333,0.5453863124885159,-0.2033697808268652,0.18410793450693305,-0.7981646996133667,-0.35654401950325465,