{"layers":[{"weights":[[-0.01365309895557787,-0.5380898291048837,0.568073044013855,-0.6036999327111843,0.026528786025633577,0.8499196731401799,0.1179160698960866,0.5562829815018557,-0.7871774605304624,0.42362809962665526,-0.9529585113565413,-0.3311652636083182,-0.47064653328305406,0.9426861309672725,0.1704873360565078,-0.9149775001899036,0.8595945155208042,-0.8098514015414446,0.15610626179288833,0.3561649622705003,-0.07474735660199539,-0.520735049284873,-0.5044961684404141,0.15930944888037013,0.057706971431715326,-0.0887675190779671,-0.20806576392935816,-0.08562354193886046,-0.7365144164181938,0.2462787125043815,0.569804466736114,0.487564234141028,-0.8277785147137191,-0.41948334327010506,0.46864067729940473,-0.513066535117749,0.1449798011132395,-0.5864053702905405,0.9050741129258946,-0.17007914098239785,0.0728031493728738,-0.8527590122291386,0.06960686542670858,0.4988581332640569,0.20977473171140737,0.5723820584628954,-0.5293794495645441,-0.30059894939212817,0.7618503268036076,-0.5174107804820907,0.14629490212884821,0.9981019570903675,-0.10783376486071505,0.19419029564579704,-0.8641947963426464,0.4391862683765413,0.30548107764442634,0.4584569204224991,0.8343721553987182,-0.8730777767086231,-0.3611368084883042,0.01885953360708892,0.45243926800082,-0.6911984613494218,0.5126888244755492,-0.10354174719475484,-0.04254252896673871,0.6060758113744205,-0.71453053654122,-0.6209230873194045,0.5974584798618323,0.712022609812804,-0.6920213000181004,-0.35501496849403535,0.38880239107272563,-0.38535715805618587,0.7866037880569627,0.9693912379467486,-0.2038116123978988,0.19931908853161184,-0.757201350771898,0.5421295925547955,0.24121901736910822,0.9482927957198843,-0.005030485761077674,0.06749763505659523,0.04651350887549799,0.37764656124255014,-0.9089236731136725,0.5222847089107632,0.9555677431524807,-0.16119457754893385,-0.31531278846942934,-0.28439461948630806,-0.5357385941732983,-0.6396003710876823,0.9741754895425385,0.6242325353150524,0.8581168494756579,0.31765912190904144,0.5142026469718273,0.8697014797830185,0.07011608024207971,0.8903385442260885,-0.03941658491226541,0.15853565324215846,0.2570869500440174,-0.4935009008227089,-0.8759179913202129,-0.9754780859053374,-0.66162864095704,-0.23169782670887829,-0.4143575914301836,0.79204185957033,0.6486921515013466,-0.28270197887348236,-0.9349922777227444,-0.677956493858695,0.32783819431314676,0.7205194634147851,-0.7633621117927106,-0.19268382291951613,-0.8970090447684247,0.7450214545052897,0.7512868956771591,0.6513089870582159,-0.28478255658427265,-0.662668128095738,-0.15144477966670933,-0.7051879361564799,-0.6001405340485879,-0.7643892734050597,-0.8648152415682919,-0.25260270767509474,-0.4487489931527959,0.21613987393688627,0.8558180914876286,0.5355939368671476,-0.01460132914408896,0.5120957833735342,0.29739593229276773,0.7973519379921501,-0.9400359975866737,-0.05861493432478171,-0.1546793252187224,-0.6675753705602672,-0.6809108714909466,0.741650111961944,0.6489660173505967,0.5608801115444892,-0.6986900601539414,-0.9656184977835482,0.8560667443549723,0.5470290391005885,-0.31799475045089354,-0.17359902259313198,0.9399756529200782,-0.4863655849435615,0.017532018018357798,-0.4941924965718032,-0.22927304004885474,0.6013473530812887,-0.9835985518639425,-0.09919336872681384,-0.22970006705212143,0.020890480848235082,0.48355250997142285,-0.8563283284316379,-0.255571750769777,-0.7994101435446623,0.8669831359724258,0.8184136768870665,-0.20224469574367165,-0.9505676590554244,0.681703118441499,0.16956460706092003,0.11608680208465794,0.03590621137006323,0.9941743162841128,0.5108068183646677,0.3389470921116071,-0.574541652347542,-0.37889143838262984,0.39600968691538474,0.7475976038608035,0.7244812480133513,-0.270304639459799,0.6015631546012787,0.5581291590457977,0.14632024312943503,0.12203603685958297,-0.48227554477102386,0.23619298595585536,0.7448700859779402,-0.35523758762602453,0.1580244225916856,-0.060610882338411054,0.7539075319284612,-0.11447699105323128,-0.33039383443352555,0.9452824062383427,0.6253852419243631,0.6012214501411159,0.9636984973326574,-0.7625286664939062,-0.7225099210094599,-0.8314042529373109,-0.1157468869873024,0.2990865008020731,0.14334754167702712,0.7559296297690659,0.19410388847997406,-0.3974503066700723,-0.2461690150863418,-0.11460880880017532,0.5818346182152807,0.2863771484905122,-0.2069856899320497,0.5886958217464384,0.8788685261539426,0.07426349240510044,-0.16761734225644087,-0.5455051744871298,0.7251225608863086,-0.38136301059135924,0.2799963182368008,-0.4759064251459233,-0.9671035237287591,0.14032834171206154,-0.5266216986715098,-0.7871935312542968,0.7724957147040663,-0.5120500568501434,-0.7000229819192425,-0.7825414752052509,0.839414025757641,0.5550346291055877,0.2466314244086516,-0.2837525280518064,-0.9382687919118187,0.3699359718083344,-0.6404545883971833,0.07538272036388594,-0.232291363016077,0.11294655285694155,-0.7611441881505343,-0.25237938877980803,-0.24260622979449242,-0.18295794808288357,0.8969563796496403,0.08101882409148642,0.008372398569550965,0.5731134421181228,0.07731873040304005,0.35193616219230783,0.9946366774678159,-0.3124977194228926,-0.5393705206382733,-0.5054939509500045,-0.8911368271778102,0.4291065764207391,0.07763927073948351,-0.28048363319820124,0.35222599865179705,-0.2447206071583694,0.20320033872009324,-0.5011690771312682,-0.8078047875375092,0.7201935018773791,-0.9764551165950512,-0.7628095540552342,-0.7123987656614272,-0.8536998463142824,-0.5510643113733211,-0.638564886821307,0.6415727185856674,0.5789625942620171,-0.4136012775218536,-0.4721069678098535,0.6667842915299307,-0.4537027854508213,-0.4076746429659386,-0.8181175332448329,0.6337777927040407,0.7107103881779762,-0.10769064613421064,-0.20102143748411372,0.021949814632674425,0.6255698530791405,0.08566346827909843,-0.20410126662164618,-0.5958741177069531,-0.5000958079083014,-0.7553635021592731,0.3195638162926129,-0.33053084360499274,0.6259765585901274,-0.22656829457455396,-0.09390475248908414,-0.37419853091408894,0.9390319754615863,0.5097045841302095,0.34721143996095005,-0.6787597201705524,-0.444529265522037,0.3312962129677455,-0.9903098568792115,0.7863855647198772,0.07515293830307779,-0.8264631453142468,0.32426647283416954,-0.6778834845438795,0.9354938063089113,-0.9324679857687503,-0.8064611633158303,0.9443885229384164,0.16946053975195996,-0.4225775551325073,-0.3358407927893674,-0.8537536394071985,0.5465365976081248,-0.1553140510816322,-0.6332133764598828,0.7486001352836589,0.2651707780943937,-0.6598710431924966,-0.0520142137198909,0.28513687249652064,-0.8828175093290247,-0.6207080531566385,0.0014561508117965083,-0.8969305683012951,0.359047983638896,-0.5254269283313795,-0.14831987367182808,-0.839746815190185,0.4019442143912144,0.6774501622673184,0.9512814646763994,0.3605271215495316,-0.1281187265243806,0.2067616741606222,0.6240888796471353,0.19296683322688657,0.5932074773553133,-0.13591678459514345,-0.5808978746443323,-0.5729374319353423,-0.3867769382759356,-0.9951839214166496,-0.5637377949061311,-0.33533501230092133,-0.4874066740246672,-0.8363186492128107,-0.3568711359083703,-0.3391311687887355,-0.06429662617644638,-0.17410854492082173,0.42227306108075857,-0.5001665291899735,0.5270518578393077,-0.7096504527889071,0.3723944095899352,0.9478665658132495,0.2742314856971948,-0.9111953393871304,-0.2681229124144313,0.6049257639480159,0.6350001524771349,-0.9950310255954418,0.7017007942826177,-0.16297867784213005,-0.23460233223181826,0.3801822125077208,-0.5846739913969655,-0.10416913399524486,0.6678163607607717,0.09728483061043991,-0.6636232172061636,0.11816504387253413,-0.8576118211142689,0.4019416559099507,-0.5393533153088792,-0.3532480172893322,0.05200281859927469,0.5507339822485697,0.8571568372685547,0.7251351858062312,0.6007248149245463,-0.8320820296223912,-0.1963014650882322,0.29330919445797576,-0.9226690909718285,-0.8521762561960604,-0.9445049019650704,0.34704388477388126,0.8301424402371707,-0.0425514754134253,0.6313219932098526,0.3226780062158787,0.11627935428109704,-0.7261244035748972,-0.09037380340827417,0.6304891420775474,0.9079169541125289,-0.9662719417132879,-0.20211013776107856,-0.6164233855352925,-0.2599207385478244,0.17694506978407776,-0.7283143507653687,0.3555211991833833,-0.7510447124228046,-0.36525317417870995,0.67557486350228,-0.7510858029152838,0.17667825548141725,0.4417311468158265,0.8362023784696817,-0.5318239265114342,0.3079613877099696,-0.7553754679669884,0.25864530537162955,-0.23608683456548518,-0.944064408490874,0.9352874622197342,0.4602758870102541,0.35238930144663216,0.228989293067974,-0.3468481861435809,-0.1578982528874282,-0.5874829263928016,0.8873617505982474,0.9823476468878507,-0.5942497410231877,0.2241015728634057,-0.8623032939481057,-0.18864747011823657,-0.9050333564536504,0.6348976158374962,0.21571394200958083,0.028077542002807876,-0.4263019653634996,-0.9696302642343875,0.2716111343840546,-0.009121023013269447,0.8485403035322858,0.5288723921468348,0.899761074582418,-0.4539335107915796,0.3015258203773823,-0.2637050400375083,0.6437214561839797,0.2550526141175524,0.41993471476661104,0.06804652359206942,0.45952979571271313,0.4493706373808988,0.793014814364879,0.38258059992935234,0.4347066380884341,0.7493627459670968,-0.20880153622598252,-0.5305095803647736,0.9373447169090503,-0.2375796709949607,0.7516081244763555,-0.20346718826791954,0.8091153996737415,-0.18076406872895046,-0.5356551450694111,-0.15623401080574628,0.21797481986900524,0.8116042283559102,0.28725786524632224,-0.6606839973144485,0.35080791287744595,0.46288797567319073,-0.6874041237508399,-0.23988591492732514,0.25319905774803764,-0.3076572494704177,0.6671441339356139,-0.4277248963983534,0.8129731886858068,0.12707196062219295,0.2481545112162512,-0.1403843031102191,-0.8638966974045758,-0.729536689618319,-0.01942131145576198,-0.7748612872643581,-0.6219663165993005,-0.646466284609545,-0.973182130939775,-0.8508608944224854,0.47042121005707127,0.47568983252012376,0.28840568120100096,0.3489135778614785,-0.8772494468092162,-0.7160116064184485,-0.9902564303715773,-0.891114333004384,-0.01976837434987777,-0.8549410770043582,-0.6727881325817515,0.036284762556891614,-0.11615863219518929,0.5314295644666713,0.2026820330158492,0.2463469685642119,-0.1946752251673589,-0.8259248455390495,0.3386591363831466,-0.40766719442997656,0.21942298892010625,0.42558397970279493,0.392987028692277,0.22948534894387795,-0.5724499520366904,-0.7665813495709284,0.09425114202391072,0.538380767010781,-0.33840771067753783,0.14032450448224343,-0.2952828577535691,-0.7680494260764006,0.6734577495597927,0.8090163075650165,-0.31415241962301566,-0.6682161599056118,0.9554569037749059,-0.28914666616507945,-0.6078596355685015,0.6231453658705244,0.7385471152602177,-0.1767099464925561,-0.8477624199308096,-0.815526296582096,0.47992893653355617,-0.5515316808728143,0.1919547849494201,-0.3640481984651933,-0.3215666501801362,0.5953945761832475,-0.4879145912858507,-0.1369297636449578,-0.4544066158098494,0.7607247397079082,0.054537241492875976,-0.8550683931484895,-0.6877537387690564,-0.6017437753085855,0.2735606921938827,0.8533732276052077,-0.235035029758496,-0.1151946951631937,-0.42546678747405475,0.18781219273924155,0.9835726860737497,-0.6297731288552186,0.9909655300610358,-0.22795358363997953,0.19044438322540969,0.5419102334081698,-0.05890029998576973,-0.636928137131167,0.12425538549517645,-0.9608359869121299,-0.06132841679885592,0.40830633221046764,0.41528780853833513,0.020480835204566006,0.7281139584517415,-0.26356433512728517,0.06636077083566239,-0.7832496731154253,-0.5273212429688428,-0.7215711753990797,0.3329013567220305,-0.30393187388118803,-0.65533906601757,0.3890951520555286,0.04762842142262769,-0.4791350382528059,0.15010895870500063,0.07588495819161212,-0.2502267498457156,-0.5043400797191602,0.46611082455102615,0.24046410822189745,0.855714202208486,0.2838190589445473,0.17694629828264352,-0.10008034332586457,-0.4526436008889345,0.31427810711602056,0.266100653061192,0.27828310035056125,0.05653989906782364,0.10426818604158639,-0.7456625045444829,-0.35461470705780673,0.5882132605598043,0.8916588878697547,0.7697313091791307,0.8288850458412442,-0.7479380010043113,-0.19938626357586164,0.3937639958952075,-0.5633575988318924,-0.9382638082036572,0.15682889829446367,0.14829277456892753,-0.9995656538609299,0.31277159424843015,0.02370639059340629,-0.228601290547928,0.48834043884421896,-0.5352444053833401,0.5483889085498874,-0.7241693587733429,-0.06804764539181507,0.030238559209669225,0.286663596851245,-0.8080401571538163,-0.7241090915498691,0.91234785514184,0.31831833778677443,-0.6321344500852373,-0.01905885068588309,-0.8649881550876057,-0.33038602370381986,0.2323743069435822,0.39844515585732254,0.9741564925744839,-0.6728874147611754,0.0225784646486491,0.4824189001271688,0.12518914430788897,-0.042819095451240186,-0.36443672443164377,-0.9828099656994052,-0.26846208894257795,-0.6619340721444855,-0.515225472175916,-0.787821541920328,0.8509674602880979,0.46651777709572095,0.024662063019157854,0.251772901661687,-0.7491544893603654,0.31851260892378574,-0.547062497033483,-0.8129178267326691,-0.6995118873257926,0.3237077896664131,0.5079874783859577,-0.5823305769834115,0.16816335780514224,0.7558380204954753,-0.750312375803287,0.9352055974076101,-0.4677120901068639,0.4463402168398889,0.2450642724926737,-0.512694070686053,-0.41919705194764223,0.4960733160985513,0.6759553213298128,0.8686419597583037,-0.8003306191952178,-0.009924020106517162,0.5440240590789078,0.6577494316070691,0.9408752593574581,-0.8871147136559052,-0.6308169414430731,0.8917805344452356,-0.3876976860576331,0.5170151693190561,-0.43931145043616504,-0.5922226751710244,-0.8537500846242676,-0.6852256897839801,0.9858682771670171,0.8778709518150047,-0.21963048547011965,-0.3563214745933816,0.16964999126716096,0.9271396570155892,0.5242151920340692,-0.6017070871403913,-0.9712405730615679,0.14668640794894872,0.3865686540099389,0.42641604573533254,0.07766119977315977,-0.699174016934641,-0.09684950734656117,-0.7449029533978504,-0.360982027650274,0.5760976312391468,0.13128328635883357,-0.7579456154542232,-0.25035253563490456,0.3311499918647791,-0.532476241344163,0.9406432486448748,-0.8263413884411386,0.48037078368005215,-0.6037645129326337,-0.5784034167879379,0.21765323875668208,0.3804636725483703,0.5915270056164694,-0.6876565484167934,0.8885803409806885,0.8880014985032803,0.6719318330585846,0.39478542210821876,-0.6569642380625644,-0.8826858359809024,0.346661751361067,0.7449906863758318,-0.45249911346613336,0.35189726323366877,-0.30578346457332284,0.6033440714987695,-0.39778146374026657,0.5488551280035956,0.8785872725493715,0.43126741351699494,-0.7228930020056765,0.9247212587649691,-0.26475698886552723,0.9407057159524368,0.9663161668345033,-0.7776741655283392,0.3485439481829993,-0.7248504142283576,0.4887328007760938,0.43220961021353954,-0.0058228159868434215,-0.02395495770220002,0.9449448751713474,0.9784100232118023,0.6346645221705982,-0.11398139178894695,0.1868793860867366,0.6772749962356321,-0.46705537923448537,0.720423858440645,0.36452889472900196,0.13928700023540586,-0.5115147397335618,-0.3187059501102867,0.48488734634071795,-0.29229147213684215,0.702334091961746,-0.8071363967477667,-0.04858265556600094,-0.48581209031252115,-0.6580299750518901,-0.39460114755709275,0.6480752982347353,0.7802932137902121,0.5037700637781626,-0.45584294488104926,-0.7098772733934147,0.1052691045699432,-0.5396405467590564,-0.5271293479445651,0.4846567549442484,-0.8458593141781166,0.8320667711476815,0.996231908880375,0.22699411053216445,-0.10338444398786772,0.6361578130766756,-0.5565691921563323,-0.5952522624483452,0.3460642620557366],[0.35487832348752324,-0.7103627044932732,-0.39081339877564325,0.11957024903548663,-0.36317633038254593,-0.03222221145384618,-0.01919951225564187,0.8013420406222078,0.35365328777009414,0.19239445874185707,-0.19548340481026893,0.9807022905539251,0.39523953855879723,-0.7613834321857349,-0.13110793465385018,-0.37632619579349824,0.5867759338928469,-0.0018024940267498124,0.21998292799246766,0.598835121058954,0.2011324658253979,-0.22727066972179255,-0.5549558523504523,0.11295080561040183,0.2888196520252506,-0.9928985844131992,0.7184539026328876,-0.5259119765244988,0.7582463618180091,0.5506724119195188,0.1997668352729174,0.2784712902669155,0.719025324661204,0.9418208461737385,-0.2648709167043406,0.05678110768453609,-0.7563383371376851,0.6822425543339071,-0.7628835822738833,0.9175574143908454,-0.5919638645820535,0.5005717797456821,0.6043843417758292,-0.21018766897800378,0.23867489663124575,-0.7994067164418304,0.5913476639693884,0.4939294327726542,-0.9751263510651367,-0.15246310766674953,0.6494346120781656,-0.9406448359000894,0.3463237633051315,0.7666251517985985,-0.5647103453302464,0.4595613099350877,0.12196538174224236,0.11126535705735763,0.41762605935374153,-0.7507998858807996,-0.996629702686975,-0.39602669803784996,0.8132581326428188,0.4653296472278849,-0.48396336910658233,0.4613192244900414,0.9441711947299185,0.5940419989769594,-0.5054456458764327,0.484893274129772,-0.9686843135115613,-0.5942284425478199,0.5626790320713781,-0.1665184556275039,-0.5728616707267316,0.027031367731277678,0.6769303594577536,0.08736462113874777,0.3376941595184544,0.7432560325301523,0.08240823692453114,0.873831528577153,0.19650876453115096,-0.28309877858978805,0.4220994014792001,0.5437227217135085,0.02618966021179614,-0.9431063631093224,-0.8039762971166631,0.17201070322811418,0.3601133617015057,-0.5100189040528518,0.2841493500145347,-0.49886920187397826,-0.4046551141013364,-0.7385148802525225,-0.17291762573510128,-0.6460183938560202,0.009263721485078147,0.8324116746515964,-0.5988843950998535,-0.48579253735909034,0.0962269880916109,0.44182857490391014,-0.8707006477746453,0.10459747545754206,-0.6331171343436899,0.6678717341682068,0.13777460616495518,0.09011498459872436,0.3016233498337333,0.7476948231307665,0.5966876452915346,0.6902941932950206,-0.2390396100719303,-0.39386942356810994,0.4775830210698244,0.20643268426238826,0.8294523343110738,0.2947848782145226,-0.8857496717717447,0.052216628560211344,-0.19386792686692855,-0.1422614827898475,0.6715755073515995,-0.3778838070192097,-0.1467832646040935,-0.4830192618899891,-0.2929658707167315,0.040091538256996406,0.6762042447023555,0.5101647967953418,0.15202997213095326,-0.19813990412351457,0.5323013127550036,0.9152030150585437,0.24536647531599387,0.8571612815350829,0.850432603182316,0.3607048408387734,-0.7812771783485462,-0.22581816051882453,0.79493769291416,0.6481871974484112,0.8640729218093526,-0.7135118049258442,-0.7836319169170018,-0.998545313032365,0.5055707600454362,0.7435254080474089,0.6066347617305972,0.9104918635636952,-0.6464969040537509,-0.2310556237012289,-0.08791667603442277,-0.648323131710543,-0.2645130736931969,-0.22328570360109667,0.3569013185864778,0.5430501780623207,0.28016808901846413,0.9031983478348797,0.7905905613138462,-0.6671315395486512,-0.22874433453052023,-0.6159499086193085,0.4970651933073553,-0.1784216063393569,0.09480503528358075,0.43801130710295344,-0.1107345979315455,0.8818395625813433,0.47023972278031634,0.31538381934859583,-0.9379966757378484,-0.13184702801244752,0.9856808386033015,0.327154965075006,0.7870871404559527,0.9971150599174041,-0.6492662175130801,-0.608539042742847,0.2085961474330822,-0.3687303495668571,0.7349497770943526,-0.08273375742868883,0.23250952564842398,0.013977987984812534,0.5777755749792393,0.6908591231698906,-0.596282455591254,-0.12030587024626449,0.33586815928178315,-0.1610563677546608,-0.07522633493412512,0.8034608667009826,0.2762277504275932,0.9128286707186257,-0.605426249528618,0.1554250997058757,-0.37130170771426196,-0.32858961883472415,0.831475797665435,-0.9093998733094173,0.678942502615183,0.23634868623122202,-0.40579659049533756,-0.868931772490322,-0.2869111247514138,0.9510439490924336,0.9252025598026945,-0.41273378592528337,0.11782179838107232,0.49571381709108064,0.0149509102943306,-0.6830524027359914,-0.6052351311358328,-0.40590714438111464,-0.2779540435314174,-0.8651210595374685,0.365585747714644,0.9929560950016698,-0.6172735722555736,-0.43674121265251253,-0.575670880139848,0.3038897809600405,-0.4951889967861711,0.5523290152100051,-0.6639386112277759,0.7674275460890996,-0.4351360457847788,-0.6974214528707716,0.7859910946286639,0.03287381772765191,-0.38627200175533405,-0.6155956636824913,-0.34919568145124136,0.6428431435258835,0.9443914515392847,0.9780438425637679,-0.20596507373319128,0.06973737302705452,0.687482315496011,0.2460474498575398,0.07986611402748567,0.8721042733397786,-0.1264782455351281,-0.39748822712553444,-0.7451611257908357,0.8220018659254844,0.23737387188088244,-0.04225180267145312,-0.6354803681862193,0.7002125430536053,-0.16081398524847113,0.8940140435497617,-0.547740326008314,-0.13565218521590472,-0.5625806765649426,-0.8326128209142794,0.4297547585470889,0.6655867224481226,0.4734075051242681,-0.06718260645155638,-0.7858069730371144,0.3229995734452131,-0.48679113956633113,0.6538417119131537,-0.5056428677692049,0.9600973732933094,-0.9586574913039427,0.7854032596069589,-0.18187633722174268,-0.8335183672899638,0.6123304326813264,-0.9923329243826224,-0.9136173101039902,-0.33187491739220865,-0.4602072518178164,0.04067871629485609,0.9934771036623249,-0.5269343526949612,0.5391740350116809,0.8841654337403537,0.47183983158222187,-0.795034330059269,-0.9609958039102007,-0.296268457422284,0.7785857437104093,-0.7547944143457149,-0.7630718757611998,-0.47584508965245687,-0.4956072965201675,-0.2251157585101149,-0.5994357999392499,-0.6075584719605396,-0.5099184042680858,-0.15870914557967541,-0.6004188894793459,-0.262248449284157,0.4038949443768425,-0.8308632656493005,-0.995789578603753,0.2822608248199192,0.5625282145991009,-0.40498602562952457,0.096740068882889,0.04647615613869016,0.47157523573711924,0.7242696373591118,-0.3836373217456055,-0.2555241690514294,-0.483895388460859,0.6926798420734195,0.7940795989620226,-0.8210008769955253,-0.7503274974437362,-0.23898995547921437,0.033191504473522704,0.12326282998504912,0.8101538091229806,-0.12124267775166597,-0.34776736401046215,0.615835172057436,0.13334784637005015,-0.6759389625436163,0.6310349476460122,-0.40314969521898725,0.8404052730598706,0.05999188484194229,0.4869366328143214,-0.621698827497013,0.9426769178182925,0.5431081549604269,-0.5430232829590216,-0.43190019245274613,-0.16230659323411434,0.37839055071614824,-0.7267531883232021,-0.24295127665077398,0.4625384621544715,-0.5646395978755598,0.9923978457504432,-0.47018105520942166,-0.07403086743670095,0.8233908064753762,-0.42337070541539923,-0.8245147453313543,0.4582106123887115,0.46992754517822544,-0.7776853948716764,0.8501174801358253,-0.9025679903104784,-0.04647162317020448,0.7937468689855689,-0.11660755190139205,-0.8255122890257207,-0.28564767210645625,-0.8566850895973275,-0.5768794244664481,-0.6374133028986992,0.797910100605012,-0.4142506219759514,0.6760638151655862,0.8261305080030028,0.8836084673762366,-0.6570940295683316,-0.36964939399757313,-0.1669609413944535,0.5078151058038967,-0.6131185526271932,-0.6657407576050267,0.08746110120946682,0.1118763989749933,0.7830859487035268,0.5580905104244143,-0.00515602698259765,-0.1712744357869016,-0.628779433893345,0.9803032483739733,-0.9110832080472713,-0.2325878234816976,-0.5790508023479044,-0.08395885827808569,0.9302175222223159,0.9631069242719439,0.7603569074067444,0.04563086040479036,0.9283738797487062,0.130814146038307,0.7991465947427157,-0.3974150618149921,0.745425790434608,0.8942467924732405,0.8548284877069205,0.04509710397744149,0.20505445193488958,0.25701277513263565,-0.7610016996542079,-0.6380312481929924,0.9626633863420678,-0.2585334033536203,-0.3278764581905875,-0.14663892467856443,-0.4161709761166432,-0.15871667969277437,0.7690868029466564,-0.5212822469348979,-0.8662686436208915,0.21701663338484245,0.5740627142034507,-0.32134176616806553,-0.10227315045263574,0.40960136140299297,-0.577866806452582,-0.04540617085041099,-0.5666645616995778,0.7549701172592225,0.7663738828872393,0.42927238304706283,-0.20353301872508878,0.6536516660516061,-0.9670269621868686,0.1134098139331956,-0.5101972631055494,-0.6175753277287785,0.053271664583914635,0.668020813059208,-0.5511777884010636,-0.769197527673618,-0.8295573150949616,-0.9209868396009246,0.21104407830027916,-0.09667271390977716,0.7298541345298528,-0.1499357034456057,-0.6933715158007778,0.8493579487934917,0.33598984630556616,0.07175076634801081,-0.1364346110223411,0.46523332876540757,-0.0048701024892738864,-0.9606448717594878,-0.5617475121090483,-0.04059732735888244,0.061819871402226,-0.0312721064488406,0.1623440078091265,-0.9206871610027227,0.7684871939574811,0.7990348551550015,-0.5606704112986747,0.869547531192205,0.041390882582845956,0.07317383662112957,0.6293814128895587,-0.836084223477917,-0.707582045739779,0.45109520053715446,-0.5714152904189533,-0.3901070108886848,0.925069986370822,0.5382246041875666,-0.021254293567832594,0.6820116207436595,0.40430918546674466,-0.5993859775292669,-0.8634508378217258,-0.6384799638488043,-0.0862369173971107,-0.6095594440163499,-0.21408469867811109,0.9428084441361599,-0.13988553058673325,-0.2801213076050211,0.5949847438208293,-0.22717802990584568,0.7833309203117746,-0.4016337901365572,0.19923725705330342,-0.36212443520581084,-0.4072823862726287,-0.3122894257883622,0.4348296158306341,0.982989863784963,0.472603943896495,0.1314446068019907,-0.04868737576602341,-0.8179284131573666,0.287801160244914,0.47929920214089194,0.3004741815035085,-0.32703723072248825,0.867806072797342,-0.545398231103212,-0.5718814521478648,-0.07040656616078134,0.16003255224014423,0.7018684205942969,0.38818718444441624,0.9641583698685934,0.9162082427755638,0.4038173292816225,0.05368848826256145,0.3354663996353948,-0.6876200949484532,-0.028528621394894982,-0.38350304139352054,0.48529183874614334,0.7018097291697618,-0.1120196286431856,-0.2518516935461208,0.6327724053965041,-0.4386297141892024,-0.77375770627535,0.4363414752112813,-0.5723999389929155,-0.3841257614909259,-0.6376414467965064,0.7169352241916964,-0.9040541620932585,0.11110278958404285,-0.02859166577154104,0.7888050156041786,-0.09121936762986516,-0.7448749932601333,0.5189836164311243,0.3290037724970989,0.4604345291923544,-0.04117084627987766,-0.8486230353390902,0.21824853970957347,0.4659594672415057,0.18041343977543445,-0.8607315357003875,0.34183367581457214,0.5690517198751102,0.41491409340681895,0.8442113715559838,-0.3513520952751361,-0.002000894157536295,0.16867429597984085,0.5541685637892926,0.23105233806700332,-0.18467941445671854,-0.380011884869083,0.4738056764293599,0.8309533341329123,0.9774618227586924,0.0909793514431072,0.6571993973404835,0.8824836274484547,0.4541301594248226,-0.557894725834791,-0.26492712751711145,-0.030718803140914464,-0.7474659003282913,0.04950212220431127,0.9156231577486915,-0.5955637264186033,-0.649987157638201,-0.36328200797169097,0.9274583991107501,0.5337518162561925,0.2592357359090951,0.9062063442390236,0.3251167844661784,0.3180440358250889,0.23335662092897808,0.6522822494065963,-0.10790924417127123,0.7677850094933043,-0.03578519347441311,0.8360705618502264,-0.24676589733770227,0.8834696897630936,0.034865660197557435,0.9643046893388616,-0.7521170213132573,-0.10233395114833654,-0.6415516445431586,-0.962338757842919,0.6169739397759024,0.8197863466622821,0.36857614310337006,-0.6793549495388915,0.12189621687329066,-0.44780483888602274,-0.17784225557904398,-0.766132861150286,0.33976780047608757,-0.823652219597715,-0.26624959718636787,0.7808855098155636,-0.9307210505501149,-0.5997682782693001,-0.8187470183205835,0.09560739741020097,-0.46680148717142145,-0.3865397515123721,0.5059507775963898,-0.0674197194844528,-0.6219064581398626,0.5139472583273981,0.7756189632762545,0.2213253650086915,0.34876314346196446,-0.1498308941319284,-0.7123874495314351,-0.832802553898395,0.4543435182387894,0.46559834573100156,0.3595508079138554,-0.19491846395198964,-0.055007943532916714,-0.4630283001984019,-0.3115738130266008,0.398565706328301,-0.5174873021776112,0.6656329557360645,0.15466104501212508,-0.3739426269517345,-0.48476283949598065,-0.688730140613276,-0.8941588797877172,-0.8933615516492537,0.05693045065541957,0.9499418951318064,-0.12443948613644107,0.4922827632925364,-0.17855843842327412,0.2933738405276125,-0.4239938273071744,0.08938774354446011,0.9792739973761624,0.9240686716936408,-0.951368040094209,0.7713996406867221,0.6792030848044488,-0.21912912395411066,-0.7345477721955977,0.8056407584334409,0.9175211589099086,0.07218967497969775,-0.5557933877570602,0.14127427993488073,0.3394441359697018,-0.6008298828031675,-0.32615900547264953,0.6916710458495927,-0.8783341631405255,-0.8613228377301354,0.942456270937507,0.1932706881750128,-0.7879991122873864,0.4660371312050009,0.11808069138295929,-0.6656428697074173,0.8915084830312241,-0.20994182671577333,0.6533157663919829,-0.9790024435268683,0.8764435309944978,-0.17206997580096983,-0.4318713995039942,0.883721047328367,0.9918345094388015,0.06518116366385707,-0.38925900242525757,-0.572658401348068,-0.17455949780534197,-0.07405022698461927,0.40479019103058644,0.5876592062919768,0.7102927035076876,-0.3785969512828371,-0.1383727020580401,0.8825990096949978,-0.11402048575194912,-0.6507826432085955,-0.8301725886984898,-0.16832162975674425,0.7532865551192969,-0.7153901965795917,-0.7303116000055849,-0.13348119002398517,-0.23624287500392116,0.6334904059279662,-0.12130864911817274,0.5664486009004972,0.6751904559095996,-0.08911825444630961,-0.14538412889013475,-0.27293092260296525,0.6560498648732382,0.5628309907665079,-0.033815926595566426,0.5059865138436346,0.03620390097840698,0.06761761653647125,-0.01317126891240994,-0.31126027062287687,-0.6216205531365684,0.7321383255432401,-0.5646256199146518,0.9792805277991627,0.984155757732428,0.5419285421404565,-0.7418734824656562,-0.8568061150444375,0.9502844102964172,0.6283578758548938,0.2800683225252161,-0.18182862120736232,0.45557115087295275,0.18411558531257133,-0.6514402699117023,-0.14491961883382332,-0.9144897107154653,-0.011820233969791927,-0.24884660506874212,0.16429968728906075,0.6913137882104905,0.09404219680324344,0.7098239554709014,-0.7841803919426025,-0.4680679568218351,-0.3099609673759669,-0.46287271033727806,0.5779336255895731,-0.7378844240373599,-0.34178476887074183,-0.6144988369297293,0.1781756939409222,-0.2934804565609579,0.9382299796782896,-0.5708766390833059,0.3314888759361243,0.2993069889674558,0.4453860868861379,0.7884496266372913,0.004428831235828268,0.5706600480249704,0.9969475842980198,0.5407472751685181,0.2705534646565426,-0.8739404472697385,0.4684849385847325,-0.24433867599443126,0.46095399367534196,-0.8088503949255219,0.23206771644844815,-0.34696860004879126,0.12523006513301693,0.9844538878350195,-0.17929932299057905,0.7008977099141465,0.5920299005896303,0.9321656927583877,-0.28152041654271365,0.7548297762022416,-0.34539204740492435,-0.9463148689355115,-0.8064817160334853,0.18541560069320923,-0.2943212361539896,0.7235335243154414,-0.8292182139105416,0.348955255634358,-0.4928221855323254,-0.5452797862939258,-0.7154711917154974,0.7270986738818512,0.7043586001328699,-0.6493991547991211,-0.5448427985153459,-0.40561997763347524,0.18000080951393516,-0.5632867475328291,-0.3971827244507331,-0.8317003147756272,0.3933114965658675,-0.7889731890551939],[0.854802919389906,-0.0405545181654956,-0.5594974740602032,-0.3202469812756459,-0.5772824888531101,-0.10060789292798922,0.48380858629821843,-0.5552555553295071,0.7239083511946744,-0.7736950048153857,0.23449026681565077,0.19298270711443566,-0.07838968416673264,0.8331772176659469,-0.8441525788662614,0.03981920807518935,0.09761473217627237,-0.9918963806593704,0.8182245520337459,0.011446012436529429,0.5796637767678812,-0.6728240438327766,0.8513725800376835,-0.536324617924171,0.3636410902654268,0.16141545585690498,-0.7110063076614181,-0.3307760432196023,0.6008249881526568,0.5829509537729083,0.9095345291745114,-0.5934298252282859,-0.7213133827487337,0.06699098714085516,-0.63325425817535,0.27603332326239644,0.9444145528781105,-0.9400366133329339,-0.344521053257713,-0.5762050999454396,0.6035511840403982,0.2205207599117156,-0.2273543980276913,-0.6278239221316371,-0.22817056372636957,-0.061048473971836215,0.3102150634296199,0.734535922192205,0.06650070942760888,0.6018382299048379,0.1565825597585302,-0.26423358084001247,-0.3058504800593145,-0.007335128920893608,-0.5154095837763601,0.664411789719686,0.7251919887027947,-0.7946215536611463,-0.23105978719308262,-0.3499684666264724,0.1409593709117516,0.49674987751618804,0.7026844341946998,0.48950036334063546,-0.7025298293456803,-0.3852957847455995,-0.42805794670584185,-0.36148524310861196,0.6706988647932215,-0.6863832474300795,-0.1000665984566329,-0.060335281303488086,-0.46864963531601833,0.003909560075284313,0.985884052629715,-0.8240160056250867,-0.45714556854517086,-0.2179108240784806,0.3412997082737099,0.11900039224934411,-0.81550358307989,-0.5512775539966324,0.965568218980491,-0.6171387466254876,0.3723034741390854,0.5456534275519951,0.9047970844122533,-0.8987998516103197,-0.3164904261596464,-0.06989696982209037,-0.3977513223885362,0.2109847880388971,0.18612487794266763,0.9521186920177036,0.17568432234377662,0.9576648617168495,0.03333865668037306,0.9131664729933626,0.9464005552604784,-0.8714827264164549,0.7031876370026213,-0.8425012438907045,-0.7033546980113476,-0.5238366260442462,-0.9528746854938188,-0.11576725278060196,0.2466333827700744,0.8118116226873984,-0.8431695879688144,0.566936392227801,-0.9807496652942576,0.3278570782928869,0.4667960537321505,0.7288190729086312,-0.6999546764581248,-0.14795271566738255,-0.5190556395435153,0.7454672072239399,0.9020409221517829,-0.059498520012699174,0.044713133285991705,0.3333872619397657,0.10934727904003227,0.9844490947309198,-0.8202290702356757,-0.5685490730745711,-0.8994802040617101,-0.16436350283756318,0.15670244003127332,0.29366036708218113,-0.45794082519163637,-0.15209373125018089,-0.29826686529169,0.7854781018319825,-0.30561739705822255,-0.3124207897137201,0.016753511205751526,-0.8876862268537251,0.1870945476563055,-0.217213022937516,0.6375947587149464,-0.49244850142221197,0.9972802674564201,0.862030183495825,0.06373329532961303,0.7688660141044446,-0.8959546645139314,0.6747892727933525,0.5632901028432302,0.9553827003885631,0.7944541298815815,0.692107170581437,-0.4096030765420604,0.04456913590746203,0.6604792995625657,0.3526169157560205,-0.15229341067713764,-0.10341514178376188,0.9535279962232248,0.24961743309522366,-0.8149744848269149,-0.514881726981661,0.15256251647824892,-0.4527021086870251,-0.7542490816556882,-0.9723989896669971,0.35378625667489905,0.8693824983001675,0.0559979468487406,-0.6160088824150247,-0.5956800790426162,-0.0790357371976389,0.597005128212512,0.892158370555147,-0.42075482223863125,-0.815573400674708,0.8096098771913756,0.6692299221995703,0.04084572580429202,-0.8270928448176029,0.45028594766419383,-0.6679218358807253,-0.6791691444349166,0.9298413253811014,0.7514488605404849,-0.9235240410961962,0.6307766554366017,-0.2692934138214995,-0.0655798225131301,-0.8967560417805611,0.9329760400449234,0.2731445882639598,-0.7183465314998398,-0.5089220608849301,0.3933403110463638,0.034261535982990754,0.6955480413653543,0.7895439102996986,0.0899480777095567,-0.0710714431137025,-0.5456647069391216,-0.1579286432409246,0.6652913803126499,-0.0794731310803709,-0.7787323247724967,0.6475997019737529,0.9872212406372864,-0.1843610524324566,0.2715213884394405,0.4308568810319695,-0.17695206479731507,0.1167699773901364,0.371932739718549,-0.48490853344224205,-0.9667947132266279,0.5122679799038785,0.7818913626074788,-0.9226189450003555,-0.14465975233692951,0.35016562313509647,-0.5605839878486769,-0.5844995653162586,0.47664296815373675,0.2727922361258117,-0.445358283829312,0.9666349429208376,-0.7183146944886973,-0.9184765698942574,0.5536510468698737,0.9920664204664049,-0.08501090805472966,0.8561609721866232,-0.40121601573641885,0.5782827006788565,-0.38800156985097756,0.37099048746204843,-0.24273489689952354,-0.5962121016078368,-0.8709174787131965,-0.07035101256861487,-0.7018099781689919,-0.4177697770510693,-0.9573444788660936,-0.11648831828569461,-0.4313852115223853,0.8162682959417986,-0.8105703093853163,0.30338592851119084,0.43269685278477055,-0.9170447250810712,-0.4156822982393329,0.5418778448024937,0.3535380196502822,0.12022382818368715,0.27939475566508687,0.7538752815646315,0.855583510974248,-0.9046040260087986,0.3168315181590431,0.8351692742879553,0.32613415048753125,-0.989534782473845,0.1806375654131731,-0.3056854143955592,-0.10226757243017603,0.6352250813255566,-0.03348369785352978,-0.7095936405028362,0.49888481130618123,0.05816292699003878,0.8660830984897772,-0.5504694765372977,-0.9312118942775907,0.3063191578613802,0.5011524016862812,-0.8847785047630847,-0.5975718111918851,0.909218100855441,-0.8542472110599624,-0.6066597406802354,-0.8743749440474351,-0.2317797338297014,-0.062018572746870504,-0.48063653788371763,0.8952990964349865,-0.7584649835972952,-0.18923677841954945,0.7061521874319368,-0.9215618645361234,0.9664322575596505,-0.9399677671423581,0.7228476653331137,0.8839465629884798,-0.3859753925924565,0.2208070404802247,0.010618638274850989,-0.7952328990786937,0.5083318671287784,-0.7639158176366483,0.15856417091963992,-0.7266529495985952,-0.15985929000215737,-0.21957295622001416,-0.3568474406718527,0.6417685029880145,-0.9324659989677304,-0.9604190718904051,-0.12284364984031604,-0.03149105947023734,-0.9812338622021437,0.24939763435996642,0.8191210594450746,0.6270470748880852,0.1995017018022487,-0.13819313657896903,-0.3380174370896438,0.24720889521795675,-0.14474032959976463,-0.6674758623652666,0.4495282959686624,0.9583582944145234,-0.5487694541590495,-0.7853617011742613,0.8619730497907976,-0.6757553607139715,0.40547435093675976,0.49417458812026194,0.8670000719974149,-0.2574993413238045,-0.8521897624471071,0.9181831179867914,0.45019540274401204,0.4275329950164257,0.8755686533024176,0.4428547195678285,0.21888245904940917,-0.9963076906492474,0.7386789386951491,-0.13138006501085586,-0.6840600058271975,-0.793639043785866,-0.38959282043037424,0.23113982153737433,-0.2147322785014214,-0.778225886012297,-0.9136171115241687,-0.41844968472835986,-0.7018621186718191,-0.20789784499052,0.903379189104401,0.41627531479190294,0.9797588298519473,0.37052218466330067,-0.4193492025244683,-0.793823889973909,-0.03207092761321095,0.3317119130270294,-0.23956178813316598,-0.7732410515736596,-0.7092136392177681,-0.473599925550223,-0.539395144656863,-0.7943855618268836,0.6681764206271177,0.3143128540993718,-0.7488218235590498,-0.8197832159631901,0.921289115688062,-0.3819430391674994,-0.7720948270097083,-0.6013370829203402,-0.18223334100379662,0.5111842552480585,0.5797586791045766,0.09788483820213813,0.3845718235625666,0.3868859089549399,0.5336555845420039,-0.4416724579825797,-0.01151817261665844,0.8494666809768074,0.5084883815503614,0.9610148164004899,-0.18584789069124352,-0.8710464898579069,-0.578125361054264,-0.7375741695717295,-0.2377285747357223,0.03989530111665851,-0.73311065794046,-0.4455014704379554,-0.7545909646999893,-0.7113853278036089,0.3123463884949136,0.19157764589706971,-0.12326851756585988,-0.7211258325749068,0.579038009342673,-0.6569468285549593,-0.37315405133293766,-0.5258764892714584,0.6056635784895313,0.5698961539851652,-0.33339571412491353,0.8452031355452667,-0.0579882010426469,-0.4747496978362422,0.8187803444411397,-0.03444146190972153,0.29327762546930725,-0.05630860066920573,0.30911134250316263,0.9117715403701891,-0.21175600930482674,0.7107190595903827,-0.6627275213431378,0.2853576668445672,-0.5446391580413463,0.9934994181056831,-0.11906884828951547,0.39252934284252916,0.6646029362765813,-0.8341703176157194,-0.8988937090892681,-0.09819550743249916,-0.9706945609002811,-0.42525132512052477,-0.26536412753547745,0.1450496327174582,0.061006792043026566,-0.9268287282468723,0.9396341767637257,0.6357490011963269,0.7316598049010776,0.682376842289413,0.2023978479329942,-0.6510057366983486,-0.9786109306726132,0.7501357262838575,-0.8807012626498425,-0.15910713311967473,0.516321599464306,0.5347102937121935,0.1347792826345935,0.3807953255041343,-0.830179826405405,-0.7280791950890881,-0.35335631266876,-0.07205388859587969,0.4517979512289567,-0.5280811644028967,-0.7175822512823926,0.004864818357371625,-0.7153905847000581,0.44426462488878027,-0.3943742513069891,0.30296813027853475,0.40034616259371886,0.8643579155469012,-0.971580718452957,-0.7983544637313245,-0.9468119390268481,-0.42877606111129096,-0.7129550075941286,0.2902060647808642,-0.6181963519707114,-0.2738887648630943,-0.5207279160709823,0.4528147105964653,0.14059297706633567,0.9633090494295284,-0.6321058697329454,0.10974234438645958,-0.9950699079762197,-0.7709537729238256,-0.5779064620737993,-0.1960460824502288,-0.7956389276247577,0.6312876004543504,-0.1015481090691448,-0.51973512938818,-0.15094252960678434,-0.1873058812928221,0.15602140926551444,-0.4750036753919634,-0.011352879359050104,-0.8890310167854915,0.35493072810319715,-0.0827298119653662,0.1788761994798077,0.08526833784887389,0.7055685091320523,-0.31123115355679365,0.13037992073685523,-0.1357123445268169,0.5154868901869143,-0.7029804398581485,0.8751658420272759,-0.7888672107355053,0.42373504412829033,-0.512069820741968,0.8102613024312117,-0.7980195430320551,0.4173984145219487,-0.24345859686948557,0.9642685577240744,0.9800328189857934,-0.5072792000103699,-0.3893709375595067,-0.11856602685944972,0.17319945856961327,0.15324874912299635,0.500022935714147,0.6291473676371215,0.2534015719667988,0.33002032941641657,-0.5048055905629987,-0.3913826935822955,-0.6326561389817498,0.7638991049557227,-0.418126443150199,-0.9151913196223398,0.9830538301419274,-0.5922690225029996,-0.21584047899473235,0.6505314517269896,0.07344073480134017,-0.013919506461513187,-0.7632094430732728,-0.7990706714792764,-0.5024198891326961,-0.5071190418303555,0.797943202377718,0.41841981485376345,-0.25761840610149167,-0.8875886889629929,-0.17286655080148017,-0.7455216670905858,-0.7482465146508266,0.8165899159176468,0.3484960899608345,0.4434829634035771,0.19732743409621056,-0.2783454093971651,-0.022079574257259926,0.6951629999436064,-0.26573820726987596,0.17987551356706888,0.7132254422599822,-0.11396642169860072,-0.4624042353654063,-0.46297342489714643,0.9697591647212567,-0.6934976452590262,0.7290770090824308,-0.49608234264390694,-0.9104895681868457,0.8191943992757544,-0.8186586187400371,-0.8296300314300309,-0.03997488276520045,-0.3546571174952824,-0.37422470365457494,-0.16740662139524765,0.3501209658442903,-0.5800645625656282,-0.007656618735068177,0.010003593028005797,-0.8974010209956786,-0.8573698828952563,-0.025880286026380706,-0.7049052270843987,-0.5801476742606575,-0.29972037928949047,-0.06378862441624933,0.010061525898919177,0.13647646027149718,0.7482447552843288,-0.021782118463888445,0.03644225627485054,-0.9063119578918664,0.9114786941508275,0.21132302599585517,0.6391339065813328,0.5135624912846377,-0.49727474434701247,0.12556751380715525,-0.3762938202655357,-0.3831963021334637,0.2539762659036906,-0.7001942418029936,0.7460220254725136,-0.3640374255690082,0.9186740114107099,-0.3536979877197082,0.9357484212948128,0.8467238525845964,-0.9740301794441779,0.8838743764597108,-0.3995798328551434,0.2730837631084191,-0.44532491833428733,-0.0020510696622000335,-0.9557024817909809,0.3179450338548728,0.8433808960446989,0.07283830981079809,-0.13366337276610363,0.7288575462637383,0.6645265363876627,0.07101357051366741,0.09416909243904703,-0.9706629663699009,-0.9359441584818935,0.8860897833141779,-0.23393325272204923,-0.17060256838488708,0.3046033633568126,0.31070018835513125,-0.30955592549778044,-0.7253653940817495,-0.9510061311682956,0.43738621225297236,0.19252983572344218,-0.6985964488107361,-0.21783720026484227,-0.54991647674301,0.8004177748392416,-0.6636668402102059,-0.6065698744982866,-0.23426118684637487,-0.9722168677396075,0.6116269182781018,0.8274022791395212,0.05004275824470228,-0.32186815399358126,0.3632997245213325,0.7605774513770032,-0.24177952387355872,-0.5744750331757995,-0.16229450446720928,0.3720914094848877,-0.4587287897742365,0.8193016632825052,-0.7475876215009254,-0.5491577876772356,-0.8899951522383225,-0.6846004597287048,0.6406853738520915,0.31757443724381185,-0.036326877471525076,0.45445174813815714,-0.14545922528799005,-0.6606734384450959,-0.23305070347339418,-0.113083821580648,-0.09046180639712564,0.17497245703332265,0.09846093575340453,0.5880718664665525,-0.6748204015474539,0.3144267346344942,-0.20396535132417593,-0.6892048860693636,-0.8520109533971965,0.9603874306440661,0.18826528792516473,0.0916057852732266,0.9400479923858462,-0.14965065899173124,0.12897339804476315,0.4555528116419345,-0.8260342033120107,-0.7720760435784599,-0.059429848605675684,-0.14191406932871198,-0.8040326044467676,0.8463420295098973,0.12429991848858979,-0.14286130189546253,0.20198323773174254,0.6233417170585627,-0.990214299796206,-0.47377414362573944,-0.48266989868601273,-0.6345327385324746,-0.6067458411809588,-0.30056346554483904,-0.12122582567335916,0.8411473587168201,-0.34672881874095296,-0.2182169646241796,-0.6115288850986198,0.4057218925569652,-0.16522814273692932,-0.9365579003338316,0.3424804714670102,0.3679481033649088,-0.24337918484980992,0.7440051208050456,0.2322560179285964,0.3363183962769709,0.3248940814991832,-0.7970693233842803,-0.12428457171286511,-0.10513639786723838,0.9235245678315729,-0.5550286309174108,-0.14480325003185834,-0.8680598383578677,-0.9940922843149678,0.1044257249041518,-0.7771884198252588,-0.21817540431011806,0.8255168637104333,-0.09035794155799537,-0.2205911658957289,0.03778010602425752,0.6205301624681492,0.08928224775837479,-0.8584350286093152,-0.5434387570257464,-0.4930746355276694,-0.15557143548288876,0.28172116682046533,0.7981850056125037,0.8364504029340185,0.7156967882935548,0.2597891233458762,-0.8689033953036343,-0.15966760754345777,0.44209643432131096,0.46025233125518183,-0.918298503776114,0.006539592414347475,-0.26154352531090486,0.8069912754859778,0.7185582320292303,0.827861823263756,0.3108139266046481,-0.8512352520970012,-0.7646471419107352,-0.6899599385113002,-0.6157598030623941,0.29148294674317254,-0.666883483455303,0.9436032366476861,-0.964841505975025,0.9991099214398023,9.489504780682001E-4,0.7200556173193877,-0.2997163060260617,-0.30676217336079037,-0.7441270995044014,-0.7875133876910541,0.3768938688341066,0.5520767981037118,-0.6737546399938121,0.7426385178372958,-0.7657784108605115,-0.7571911199137416,0.749493017281567,0.22091973217183147,-0.37666941551885785,-0.3830433295377335,0.9037642175743117,0.37280327575427524,-0.19708077498960125,-0.6433815806342273,0.6044153018477341,-0.2454995418247381,0.09107926160814794,-0.21986674883275725,-0.4299142613969351,0.21276599814546526,0.6081031678541444,0.7989295450946019,-0.20056664512944877,0.2581170753386539,0.2930187312202681,0.3630209803377007,-0.801567118415377,0.19773541546131135,-0.5433867818189151],[0.159478656968715,-0.18625156299970191,-0.22372436864733736,0.6496468701710634,-0.7826547509542092,-0.12544939938002275,-0.6569281329159089,-0.9135323237802477,0.39339799920035357,0.8312770534013685,0.13904363532241337,-0.2957943672246468,0.3882715159109955,-0.3215047473042003,-0.8472003566982564,0.737036381323533,0.39455737463865326,-0.8523715476757807,0.23404577825193584,-0.40111001323205464,0.9748820880267841,0.1535899434228829,-0.25721992526332893,0.36253190936336566,-0.81293106574601,0.729544585362554,-0.9335450694332712,0.3723123918184621,0.9369187922997302,0.5616793896673924,-0.8415114132997505,-0.24812335797183338,0.4004655925212759,-0.3246873403923112,0.39408488711530576,-0.4611702693929203,0.2813931376356784,0.8256253269787264,-0.7556011029584315,0.7115554111100499,-0.3443728055641653,-0.28924749050863796,-0.4623353483441952,-0.5309144795329162,0.20394551222062018,-0.748079470524057,0.4059781058224554,-0.21686865965240698,0.7447752992296954,-0.12521892252383626,-0.5909920623397726,0.46207662548920037,0.15317819677357192,0.9780297938696256,-0.21901610997720677,0.7499465587134795,-0.011652425690350077,-0.4101359630786474,-0.7351091026855232,-0.17093444728865292,0.4507745742129168,0.5897803514628819,0.5778757608971468,-0.49668072957188625,0.6515646792063112,0.8126674861145242,0.19445011456630756,-0.19035723970091656,0.6002166256050323,0.8541048936524465,0.8391531835193189,0.33855237119036197,-0.1964979539473266,-0.5397761010054507,-0.1520859917901931,-0.35974426967118345,-0.08308602799482134,0.012454837122511497,0.3874329780718504,-0.7489398842583348,0.5014789109565998,0.8069193834370532,-0.5855208406821233,-0.4044832512871932,-0.38744364165562706,0.5801950653278274,-0.7879216893212322,0.3029343785978664,0.6835774349194164,0.047623708843042234,0.3571451372608492,-0.6773990439035824,-0.03349783158002806,-0.9027078672419191,-0.9458079998705519,-0.36974561921421545,0.6521038961360097,-0.2777332532376493,0.912320543003599,-0.7109520641431597,0.7170157761145193,0.7756106353243302,0.44778742999975063,0.16145712320961425,-0.46919489474701415,0.19717914073434484,0.8620089829632183,0.6642793379227279,-0.6948340804307709,-0.5118754891085906,-0.02505383192513655,0.6170802121411718,-0.4213479298762228,-0.10149190450958101,-0.4136049720605479,-0.5448557302756356,0.10419773952388955,0.04536498129136124,0.9927808952193826,0.8611887710495849,-0.2569968534671067,0.4930197704131634,0.9046349864232042,-0.7841940547619216,0.2671906177125441,0.2044085163710133,-0.40999022232794274,0.1747995670639224,0.3349612030544884,0.7116055380986168,0.7116689608417823,-0.8477174564390504,0.32581621309496467,0.35572376325029875,0.03095975419126007,-0.4783851976405813,-0.7902678694258418,-0.989206699407672,-0.08113361833165045,0.9419505640130108,0.17300407488160174,-0.6668157504012151,0.44480574066070244,-0.6236221506054003,0.33480525253424176,-0.2324063019009701,-0.29368346240878695,0.08833105167372308,-0.43766450355429254,-0.7074335245764374,0.01786611877145261,-0.8138363663902963,0.12876027285895963,0.20297649573956633,0.5945775010513161,0.13146405535760083,0.7569700272868314,-0.8961599634255402,-0.5532409604341852,-0.9650839233758439,-0.5464820316040209,-0.27069913245846977,-0.656304813023181,0.5341858489881219,-0.5390780122819729,0.20256211916897282,0.9102367319158577,0.5815451396307214,-0.35715459006486583,-0.08299318865812277,0.1873056609010677,-0.43537681344125456,0.6654979975801987,-0.6543047159269504,0.3175090004660226,0.8418957161113125,-0.5500714249424303,-0.22411750762935134,-0.5903670143641986,-0.004783671875808304,0.5437081067242564,-0.7828466128788938,-0.9091315346097826,0.8849012501652639,0.2968258979765335,-0.4537798933830226,0.773194873319712,-0.061418434159176805,0.025462788493253008,0.3283925609133329,-0.7595700811830692,0.01323549009682834,-0.2913882508574961,0.6951685814473509,-0.194971076247475,-0.35947232506165405,0.1863691079685439,0.15935856929263048,-0.011203372738694428,0.498770556225677,-0.6849731819717813,0.31360369604822314,-0.5507478818339369,-0.449461665691417,0.08293744704363282,-0.014896957466168372,0.7034657612026125,0.44316138631103463,0.302445984441684,0.6088198763722614,0.0937653211623466,-0.5099676625720785,0.16701223220019323,0.3333821491965714,-0.6052143231620666,0.8338617459574236,-0.301025016795776,0.6883611082416328,-0.5210836310589799,-0.7612838530756885,0.9122387176021853,0.5185460332876475,0.5372773056562994,-0.6341116606449686,-0.6245102364144557,0.3303016352354464,0.49593306441248397,-0.6406635237110114,0.7853783306094011,0.19703925285296675,0.4721324513699041,0.09964441443171523,0.1454310301730708,-0.06471059239527999,-0.6170602085705232,-0.4188470863052216,0.19528512406467735,-0.6101832459248633,-0.8512988605950221,0.5251152964890826,-0.15383391274505298,-0.6443340612509345,-0.6736308865630369,0.5624356672555364,0.5523560361712034,-0.08300746231724743,-0.5372181401985685,0.10274873274698226,0.7847304081363451,0.7969703130303614,0.9755817558486932,-0.6476943064886522,0.0712671297851355,-0.30996788729311864,-0.05047704394046271,0.8513320436016443,0.4307616860848773,-0.5128517223272051,-0.12149329002068154,-0.6277726671074924,0.4498084970387841,-0.19319876183317808,-0.9112448819151739,-0.9468209326700681,-0.2605613755880105,0.3087700041933577,-0.6538850676537695,0.2374674173290341,-0.9433697753630002,0.8947849482207577,-0.019440266465825307,-0.35306100164692444,-0.01276243488716755,-0.910423885534803,-0.24646220397527308,-0.761167716707879,-0.23928770054287574,-0.3522156822907896,0.6488904515486476,-0.6216601475273951,-0.49668166559701654,-0.25334250500386757,-0.21435565098404274,0.8049957105276047,0.035370209045197276,-0.998587670750932,-0.26894113971954425,-0.7208208192675041,0.1793529857197953,0.9795899108993555,-0.3651116872061717,0.7657302777502941,0.46960927441803474,-0.10730788319388229,-0.18910357176690562,-0.4551260244412949,0.14060922085810246,0.7078288967464077,0.6592387120775571,0.7363544254023395,-0.6803587736679058,-0.9509238939916114,-0.8465933809122108,0.3808830613823597,-0.5388988285697405,0.9476780346399287,0.5080056501413341,0.4437078210526193,-0.7666286348982849,-0.24780417251696352,-0.9012824195340792,0.888313660078037,0.30562023029107444,0.3241494455100431,-0.7766257882630512,0.31396769006935,-0.21932394836098634,-0.9783441201750882,0.87315028487604,0.559025438324563,-0.6185421807774573,-0.08697949887254164,0.3254588573070347,-0.857381724990778,-0.07772453903030585,-0.8358145061599609,0.07521253819630314,0.4505438315278909,-0.9173655503197995,0.6084051988644767,-0.6113091415688943,0.16688636947733104,-0.9499808708383692,0.13345556477385356,-0.40566732404150474,-0.3889046297317962,0.2094431000340098,0.711150046267174,-0.8826489065214387,-0.6390451932208547,-0.2686055220447998,-0.3541180004080964,0.2201449870110388,0.8250780109048592,-0.35387365967362516,0.9333677048041733,0.42806127495147006,0.2742669472933777,-0.20892813403906674,0.49771918323217545,0.7001390904029106,0.2492780191095838,0.8794931006517461,0.5144221536343405,-0.4529550708864867,0.23323544382736272,-0.13770198212527562,-0.9712384299987213,-0.49651333892846705,0.010146720885923388,-0.2587085966246887,0.6436728638489273,-0.3700278022343024,-0.7733360704199963,-0.9590493259119377,-0.8220361754022572,-0.9511432980035628,-0.6675506298000697,0.2571480593183353,-0.11470092014968447,-0.08780032154291528,-0.704799034328683,-0.2249331961181562,-0.9237077333357553,-0.3459670242143415,0.26959827058835995,-0.015111320664671801,0.8005082017763296,-0.10278168499129059,0.7451318714655089,-0.3773428499245757,-0.3778784899037515,0.9651466393318522,0.605983398247161,0.7250496552928949,-0.5375541905189325,0.5911218212376326,0.006825081074019801,0.010619194999728299,0.9844843053779422,-0.8766675690660586,-0.998387797969472,0.9863953812361155,0.059117972347626724,-0.7090916631650854,0.4581439619048431,0.6275613305672338,-0.5205051714838591,0.4266284946953487,-0.05062824664249832,-0.910747741689346,-0.7203614557277588,0.9344272767438133,0.03313723341042185,0.5833505458250747,-0.2347501611104874,0.7449248721732658,0.6152252343807665,0.28947427237609213,-0.32088332934225683,-0.4802157034905874,-0.0636800665894044,-0.031803302113865506,-0.19947465289309063,0.44577712864543617,0.13165577350185798,-0.19415265182047237,-0.2825120126846885,-0.3979832329203403,-0.7171421595080429,-0.05591531875342626,0.5125793887214116,-0.9111029042639998,0.41466951227930426,0.1337533267223594,0.6676169842402662,0.3748523984069516,0.9849677915984094,0.0013684405531837474,0.6193733758968917,0.6471322620212716,0.07467110652900444,-0.47210246032508585,-0.9120314159990546,-0.6546368181871642,0.7048460433550647,-0.4866618432698411,-0.44847243693589744,0.5117474903205794,-0.5084764692377868,-0.9630818362984339,0.055169398023410476,-0.8906726350292338,-0.8055621834051521,-0.7784262978375014,-0.0806864486029959,0.03982048285138795,-0.3758950433732462,-0.0273127925654979,0.8517692248597601,-0.7648880576061308,0.8423599193102091,0.784896872037367,-0.5299873724468631,0.9015644196340875,-0.37532470147979596,0.19711673584104572,-0.6954852802643334,-0.2361116992231478,-0.25171084463436877,-0.9752655108371855,0.9809357624187776,-0.014610406342980164,0.8283654573592577,0.10928238832575299,-0.5315502438213233,-0.6660067214384082,-0.8548707066381525,-2.94708303451241E-4,-0.966571692682789,0.1185169466464917,-0.8119005635441565,-0.28432335821074317,-0.14784998511371006,-0.5627520338488499,0.48926866223752774,0.5422430438308632,-0.8868323020327242,0.3609557014813711,0.7252647490347328,0.6664046945489361,-0.12058759524234852,0.8150475939265234,-0.9607591710585704,-0.6099321362379505,0.982067560843933,0.13065779524839213,-0.9335570941013317,-0.35986525434238986,0.7827034677770638,0.5020338659153916,-0.7568974610431283,0.5453197508088486,0.7671032438877985,-0.08233741129116456,0.6365116529895067,-0.03938281711573599,-0.3763143524040111,0.5251630415636912,-0.24516332231549787,-0.005835815186670201,0.7113618975600311,-0.15495972392180324,-0.4215706752577373,0.8275803824147563,-0.3638721307321582,-0.23401787816291675,0.40010025274406,-0.5803156497023916,0.03264595384044977,-0.1655462031921624,0.9700207586762335,0.04482297597820106,0.5865202197173713,0.9939253841206863,-0.08837727015057606,-0.9591264048363335,0.8349258512613531,-0.3658557057557694,-0.5919309144438034,0.6283081313261909,-0.6523003037491499,-0.42155606493146225,-0.2454288951269381,0.21053679752619048,-0.48203532164306884,-0.5328429495317297,0.5300311970753986,0.17707626313991187,-0.6192012374622711,0.8877808685978592,-0.1378065101182031,0.9049164672011192,0.6304236046089691,0.5576191488993048,-0.45631250462419937,0.3897873309549009,0.32083628312569035,-0.11779570415176366,0.6020531666538751,-0.26214505798643395,0.6117612836072792,-0.7071188735583485,-0.6649612391906226,0.60970587436295,-0.6387451560178334,0.9095111472251745,-0.20683371560039143,0.6323048643344298,-0.6317591411179677,-0.7206642872665534,-0.7752376501874565,-0.21905949344376174,0.6327224838610177,0.21061349180749667,0.09435495534696159,0.782001197455668,0.12835249872247245,0.049725509810713886,-0.0564592829232462,-0.30124873634059224,-0.728490958814513,0.14302097459262542,0.5841291484317641,-0.9638933518443595,0.522972158038115,-0.32024739456162754,0.896574578195481,0.9367362179902787,-0.6272496937917789,0.630030774132506,0.8524090900504411,0.3396432633261721,0.3355605797978407,-0.9281976838522215,0.2875927681974575,-0.6662889045783711,-0.4760863501162904,-0.15656172129714507,0.4244010803766225,0.36252255875106343,-0.13227972600177895,0.16359391912206633,-0.827327949080457,-0.5769065609048147,0.11377267951331804,0.6275808223316572,0.8369391345540973,0.9499869926111852,-0.6345788033324464,0.8195705540677258,-0.9858211696790231,-0.31239575990361756,-0.8877880119772537,-0.3274732599435679,0.1876049549361236,-0.47272508171153826,0.45120764438883976,-0.3371594865362497,0.8051453183378006,-0.9779006626997404,-0.4838339794168012,0.9442225754745106,0.4769385393754324,0.09132178434039906,-0.9922995656168676,0.6054834285301345,0.33439307895468295,0.28734334308427734,0.15700942027328324,-0.6205891659336964,0.5640525426825427,-0.07769029868369826,-0.5422979792037432,-0.6649672502568036,0.6627158027383628,-0.662461438968799,0.06471000369649782,-0.6468694061848477,0.05596196609982984,0.6478785754205096,0.8862254464106769,0.5149475971058233,-0.6195654555656751,0.4044208327539609,-0.9159432856005223,0.9266136497258053,-0.04905751437593997,0.7928104369554736,-0.05024913335355796,0.9568865561918523,0.7166370245511813,-0.7792641322495919,-0.061723603110281244,-0.6166111833104959,0.3562294261585033,-0.5529998215488299,0.01802767437519126,0.5225952285739843,-0.9295855489482048,-0.23409255792308858,-0.564652410486542,0.06140660536171838,0.10037031979831479,-0.8154750884410433,0.4937329108007886,-0.986778590944535,-0.9655923442092873,-0.9832892037687071,-0.9876684090597394,0.9889969998086423,-0.4394571682871251,0.8666242486455327,0.7552980234044089,-0.19613156828376854,-0.5190245197237022,0.5857632885863064,-0.6869749748687266,0.33247247708269057,0.5251515134694182,-0.5385955814803092,-0.33178098297844394,-0.5187987126493481,-0.2187024220738314,0.6306449642118981,-0.005748293927578141,0.1631895488260653,-0.5879850860580946,0.5130785669309985,0.11015630013893363,-0.7580837817796608,0.7277242842722642,-0.08353859164815969,0.4561045881089534,0.5518802051034144,0.6624564629459824,-0.606444668290764,0.4551465486938304,0.3098876625422582,-0.7703137561752187,0.4146617381080746,-0.30855030475890977,0.4980668534870376,-0.36838929755253513,-0.030810898833828926,-0.5377707858965535,0.1298040145948316,0.35347583410370675,-0.679076270930675,-0.04999273456192466,0.7023725359270099,0.7952583549909977,-0.18449671433072057,-0.48619370735599166,0.5951054023100151,0.7762134778785308,-0.1250812036731368,-0.5876834873586323,-0.3104608925411503,-0.40649835971644444,-0.3872996462643057,-0.3509541746335956,0.0680356187862925,0.2243106904097747,0.8647696461778556,-0.4310943157355669,-0.710033782736454,0.7315934338875616,0.8547698880501902,0.3376414503164846,-0.5503791417523987,-0.033257032365921146,-0.8009874420000447,-0.500028875023971,-0.01241722224523345,0.2582319620803539,0.5050083084473593,0.4392422410142194,-0.9426122941924726,-0.06655538459377497,0.4288770976964025,-0.24911709782090297,-0.8581354480303893,-0.7583662523337349,-0.2692382294184805,-0.706139294647856,-0.4313672515582889,0.5291380743968752,0.6036958033405837,0.9988279801873479,-0.40819073818433416,-0.6363022624055747,0.3502056936094202,-0.6114205879988175,0.7870564761610572,-0.2870894290837045,-0.6577439367259674,-0.7940967239564489,0.6496824451193735,-0.7474276414069247,-0.8760275892918739,-0.4541397952947952,0.49057519418120354,0.4138501565245356,0.5029071594204899,-0.5460270088787893,-0.0076536568030201035,0.8739385359816274,0.5244401722357228,-0.9212258329012544,0.11811848590386775,-0.14694634622605984,-0.6647654976450852,-0.8434026412121407,-0.5420159514847249,-0.19867881816951405,-0.8845039466603293,-0.14153737902989372,0.5532335515462621,0.8423195991245858,-0.5038863416389676,-0.15664599835032167,0.2560320435295833,-0.31425905305068547,-0.8244157813018942,-0.2608582594916993,-0.2377003130569113,-0.37016239129040596,-0.18704313831560127,-0.7881444021704016,-0.4018671612744331,-0.25497889045476674,-0.3031453285133652,-0.7140346631369932,0.5451726057438882,-0.6368109415817511,-0.8230346304393692,-0.3572168996403762,-0.74207899513492,0.5930563552616379,-0.6067806236769115,0.2510526366460861,-0.843936057937329,0.7399659708433546],[-0.12675959911875534,-0.9325457372408481,0.22936488239856656,0.8501368183934528,0.7430025868957928,0.052477411311794286,-0.08367055768907616,0.7622626573015114,-0.9762485550368931,0.8581031974096374,0.5092276567228717,-0.5510707735700904,0.5351983116088936,0.5300058513030783,0.2438115126315461,0.10047502833823652,0.6742039091631173,0.853710787464957,0.9147323656923729,-0.8015503920348652,0.45821966640829603,-0.4991937731522691,0.9046781056287092,0.5412360488345944,-0.8159430106808219,-0.9761645362546574,0.9470330237058184,0.10690986233038458,0.3216741668178211,-0.8264365594978338,0.01616356364752125,-0.9594954852776827,0.9521242572140656,0.4048894867662818,0.9601380662583794,0.22668251580560247,0.31075976318584075,0.8927565313612897,0.2738900199801928,-0.8548615105748978,-0.18875588378802455,-0.1030147992928232,-0.2434611792255006,0.004888717142244925,-0.6971287002618161,0.8950384640205455,-0.2952162757771837,-0.4850690398987949,0.2531505151136315,0.5443021220266455,-0.2350082605433783,-0.9274155939636177,0.04956336695864394,0.24054311342871948,0.5998009198657097,-0.3628498517283363,0.6788562710662112,-0.1932132623451044,-0.8792337627818656,0.10535815997695641,-0.3308175870423846,-0.3230686638569651,0.19677585106785034,-0.38360243702411495,-0.6301382519157881,0.8309978681791439,0.4686708792891221,0.8881523996103373,0.39547994385867913,0.6939888158187097,-0.8162967554020673,-0.5774043588115354,0.3755008888491458,0.2279102696330404,0.8091704023131963,0.21712062956319556,0.02751987257876065,0.5265881456708021,0.592768097212313,-0.5200820874703715,-0.9882619645819963,0.3654883026486264,-0.7920939099934226,-0.22866635050079132,0.026192307967680684,-0.6361722507296259,0.1554345631094105,0.9794738935678591,-0.8332732234508482,0.683843120378991,-0.3110681879958315,0.5871465757888519,-0.29735376726489116,0.5221599698250199,-0.31109250523761045,0.7985618037408755,-0.8915555490092979,-0.9592150284862577,-0.86802124193723,-0.7319604167750349,-0.5560464441541619,0.8403209829282665,-0.4157216524633973,0.4093004201060264,0.9897140659806603,0.5955836287427905,0.4940603992880592,-0.43725510376282806,0.4213173305380973,-0.9461250014389879,0.9666675624858527,0.6594540599527625,-0.2540732314344305,0.23874955520634744,0.1757313969457317,-0.5555276123051287,0.7261361617098248,0.407184903626858,0.5976775575164084,0.8082620063905133,-0.41922345264418326,-0.9243526019263396,0.8523119070986216,0.32404587549286845,0.379237720812729,0.260622733533325,0.09046691882246395,0.7000853869274952,0.7353207247307036,-0.02824353756082787,-0.40960964803872524,-0.4702357018750911,0.15859399321938739,-0.049168267074503946,-0.4922398439733202,-0.541315894725958,-0.2643228661452204,-0.33261332183419556,-0.4300829669773856,-0.31320312918935,-0.3091707097393923,0.661851704793402,-0.0868972390386411,0.5849359274151478,0.8146727980104207,-0.5303320746551179,0.23220105868398822,-0.8710708263336769,0.7518364581109473,-0.43507709775157727,-0.054322057421291925,-0.1591894542967629,0.7027543555104674,-0.9703795184212534,-0.8258770936819055,-0.02453076861691437,0.22181077055226295,0.9847777318719875,-0.01100588289922988,0.8024112733588138,-0.5165259312273209,0.21212156156472206,-0.3911242194301112,-0.9938729794397332,-0.3599844285602378,-0.14976524585245476,0.0037571391397599463,-0.5351040138640568,0.70886321633492,0.5665798187369826,-0.28645297017747273,0.9666802820471678,0.8045919015084384,-0.8130930144772459,-0.4047599756206177,-0.21790882946571544,0.47000629928559906,0.4061305075948595,0.6838538704342154,0.4382397485665366,-0.6372751145518023,-0.09016329467892059,-0.6145382430342141,0.5236103156602522,-0.3818729561675517,0.0031632799739744755,0.8163438611051503,0.9029245334868568,0.8364784038037045,-0.32613009920712255,-0.7395114069762982,0.3322903344789685,-0.1684991655709791,-0.09100399135935389,-0.5616253696998312,0.13876140518659885,0.029611727472750315,0.039582012894842755,-0.43683038976615096,0.36475658751220497,0.7235030487052534,-0.09449395184134168,-0.993816268780038,-0.42337956628851847,-0.7393099583094804,-0.2874316588720163,-0.19838054704883223,0.3979321078669473,-0.31289043537544803,0.596532511204942,0.19136233748492493,-0.24800093020875255,-0.6321987889297842,0.11391100245941965,-0.05623936625243364,0.7843000554824255,0.6711587577365459,0.1468611848816752,-0.7239556158185987,0.4844676378777384,-0.06980846784871408,0.03963504422160691,-0.131761912460997,-0.861265532408146,0.5836887779442936,-0.8233947788966491,-0.32287574351321524,0.9175876917026939,-0.34786683224758663,0.6669667414393696,-0.9579822121623731,-0.8602891277215319,0.5176630185315341,-0.6812064003419831,-0.08018493734309251,-0.947882498688732,0.3543352496212955,0.6652055519722608,0.9949831125412566,-0.6722913949250124,-0.5056047467480089,-0.552019686774869,0.8808606382956634,0.905315766995225,0.5182115373934739,-0.3309766380487633,-0.3381595836530642,0.2836189338573818,0.9199878547589273,0.08768634897771621,-0.37828711344337607,-0.0708439247018009,0.8283170226835852,0.8720026468456155,-0.8383537628929933,-0.9300301437187544,0.45009499518528706,-0.9955126108142367,-0.36801229449528305,-0.17973444730520738,0.6582659937922679,-0.0017733691809911642,-0.9147299273984564,0.31778103426172977,0.4583235119957285,-0.5034406956946061,-0.19648813275304744,0.35439938925457426,0.9454440243579039,0.40973348096054085,-0.13889650933105346,-0.1581387056327357,0.8035843382986849,-0.6155052851465173,0.955272803659241,0.3782640672178623,-0.6001735836624131,0.6076473672529727,-0.7306710525221864,-0.8326393761915885,0.09170603335034455,-0.7877988447268149,-0.7704153979085604,0.5915015408143036,0.4922155159430137,0.884798904638036,-0.3249391887890596,-0.14961017895101203,0.12662392338629358,0.665696686406807,0.17978209137187173,-0.7483525742314516,-0.8327904102968698,0.38764697955773175,0.050670825060020075,0.9755200734474978,0.7464569100533587,0.717612102544716,-0.13024408083790195,0.4348749530857139,-0.2737841367329661,0.3453154369883784,-0.6423892794079746,-0.2870253774217806,0.7397844283972679,-0.4947859639779588,-0.19435912648778242,0.9853376710551331,-0.17418105859112165,-0.2764442011820285,0.3580443423709603,-0.6816743907961496,-0.9625641051992706,0.4497612880103694,-0.9800302016754892,0.7859233802219767,0.03681992965396219,0.06144986363533375,-0.5733980796098435,-0.5424917861544296,0.8751056114405315,-0.37499362361792454,-0.8713936460464959,-0.5167684150893321,-0.09074457581908679,0.748663740229645,0.43256892570460925,0.23996454417249735,0.12210565164606968,-0.11734483800882445,0.6807680636794351,-0.7004128006305763,-0.011288632852989977,0.5010661680136987,-0.7371783459197947,-0.15726997409367538,-0.528432282621659,-0.25740280428907036,-0.37754705801331934,0.06490268781170871,-0.27075715276546997,-0.707476396521703,0.055823090636432315,0.10827485277124671,0.6874093302267752,-0.444281230073764,-0.8064180052496821,-0.8987985859979174,-0.25178683476117736,-0.49931518733599156,0.7169901125146505,0.9989124028187677,-0.3966257807918949,-0.05288827192860568,-0.9208301707200703,-0.9073848403035119,-0.6316358860627829,-0.47543329031819503,-0.21425446215496735,-0.7094121527902391,-0.9305395466236095,0.047489942928141016,0.1348363050737622,-0.42633365598601203,0.8924305018120686,-0.3682450111316591,-0.7754324169384619,-0.6111408878968922,-0.45895083144502546,-0.47937318176541277,-0.49302858147113904,0.16865068046032272,0.5556107357566007,0.29303115801959895,0.2003481584512802,0.6498826001694218,-0.4939545391500766,0.8946252534649717,-0.5321342286849975,0.21492967574545685,0.6012065966449722,-0.23776102213529215,-0.5716257321060965,0.08921641352447329,0.44534513589462765,-0.7951664484776886,-0.21388003695253555,-0.09705259963328872,-0.5752554555641256,0.15920258729856984,0.14924250376956993,-0.13874656010266673,-0.47806152297157034,0.4562190399662416,-0.047355949027605426,0.5657829078472656,-0.7681094606983312,-0.18649097555128757,0.30902222008769265,-0.6079033585034963,-0.30603536027219025,0.91301229877017,0.08256096864278084,0.25105180033334684,-0.8445279583442777,0.12696736947252552,-0.9870226802362159,0.5486896087436275,-0.5529710864495205,-0.2765651477934845,-0.1866747003814706,-0.7920314091653349,0.2769180599828587,-0.2874429834737988,0.8231601276850782,0.7270141073904359,0.8410941557357978,-0.11267911360061356,-0.9806292531743153,0.4223827417384649,-0.502568658520745,-0.932321772389634,-0.029809728481130504,-0.7578322741079906,-0.9327386742747816,-0.9255508777710566,0.6635980959396504,0.8326009388525872,-0.2957956358317484,-0.4604838858746145,-0.9504697844337224,0.903133783685687,-0.7902506137816907,0.30139349341258104,0.6060168197123539,-0.6411919813280862,0.17699136285324846,0.8403326732479959,-0.7274292377805556,-0.8449436758733642,0.40838786545372896,0.9747076225933384,-0.31014789329295267,0.3788988548038479,-0.31965008978069065,-0.12950403827162327,-0.15716185570162367,-0.3281677813810353,0.11693497472941461,-0.6917455488979785,-0.07456934492421463,-0.21646615523537927,-0.813136474514573,0.1070635910490576,0.5276360973312408,-0.218166726926137,-0.3474667736494321,-0.37750574998719993,-0.9078431192671779,-0.7567689667610216,-0.32334163001693206,-0.684271540111389,-0.00456509241663694,-0.39042892346207514,0.731615212774992,0.533542739879507,0.5788927762508393,0.8203061570093655,0.9585263514291447,-0.15605761645250182,0.9893197669162876,-0.6838840549188776,-0.8124279040333651,0.5398124368616035,-0.21694655763772386,0.5584742883970968,-0.042032765666965455,0.25302839113197817,-0.0931883925261181,-0.6789164524481726,0.5654976614419902,0.014049611214957958,0.8887307982357768,0.18292490663925723,-0.5825379735230306,-0.45290510763594666,0.8563721590062238,0.8890023129466197,0.7893190632845585,-0.8914211577750176,0.34415843118318024,0.5436835725782159,0.45429077339976176,-0.24343521604222662,0.7609065858160635,0.9628720612368025,-0.403370436423667,-0.41843104747869164,-0.14117060838750928,0.9350710442145687,0.9212060888276201,-0.8658703266036558,0.578574543672637,-0.3722725042073709,0.9365313740906609,-0.9478697708693249,0.24058029621360877,0.9240750706549787,0.015276012316065124,0.720945532333519,0.21122495662291718,-0.9129798981189163,-0.97419355731281,0.692059522942529,-0.10704679753444846,-0.1795551577082093,0.08020859037689965,-0.45912180524888546,-0.8292360123083371,-0.46537074051141736,-0.7412769416119203,-0.13795870032757374,0.29314866215542645,-0.5786783296307547,-0.9525300513817643,0.18061438188176515,-0.42622926690662144,-0.1946845232035348,-0.3342066792887062,-0.2998796241935391,-0.7291179720545056,0.16321853197420277,-0.538491008323821,-0.9865513105833039,0.5346725039276778,-0.8135709155729576,-0.8832067428612709,0.1702570886508401,-0.591544458489919,-0.6858392958945965,0.5344010770095144,-0.17543963560998013,-0.47220834641485565,-0.7263138142941461,0.9633582417129138,-0.4212217377289269,-0.6176413501923046,0.33879985981215244,0.17522288714274614,0.09559160285206558,0.7885777273576988,-0.7461760434657592,-0.683534257767515,0.06653617501357134,0.5667094803414712,-0.9306855163189556,0.4394718279540124,-0.29366010628044337,-0.6756639640109643,0.49694921385859336,-0.3458812279282568,-0.9154122462826293,-0.2811509571952209,0.8149088753534934,0.3438410826831242,0.31137772237506267,-0.3952338236606032,0.8413910499293618,-0.04545853685311796,-0.6387927103837929,-0.9325979732617218,-0.9572768039786719,0.49166440921546894,0.14941091368816228,0.502622569475728,-0.5461285933672968,-0.9497996106260695,0.3680440009868178,-0.376884878154673,0.762967228914569,0.4543416166019336,-0.4568108573708296,0.5548092429604596,-0.3521947635459577,-0.602036689539251,0.793238141397725,0.03278677529550267,0.251090264025168,0.3540587338647825,0.8477803719218522,0.11422240286491259,-0.45745690382370663,-0.0392920926043312,0.029307488190676745,-0.2034000167845953,-0.760200326227306,0.5931140007647369,-0.8949777155073524,-0.5373484231320611,0.9463687586451808,-0.6043061664959879,-0.8163833356663668,0.16917082370243408,0.213740336536008,0.17516314223623142,0.16196314963407832,0.4550538127389534,-0.6539359222432051,0.24500905801083084,0.6192420283293085,0.5646256249617476,-0.06035179508619115,0.5636960545438932,-0.4888962234477823,-0.23448818212590994,0.3858536472963343,-0.6765950564318071,-0.4659551137217903,0.7860187457451808,0.8647895050858383,0.5230573068847708,-0.38974554253348037,0.3051893171905884,0.718542099730785,-0.0011693974483191205,-0.414235414888883,-0.10059657044133519,0.5164989088411123,-0.11267677276070365,-0.060181589097560106,-0.11740386072529141,-0.38834375714222347,0.5609805414507527,-0.9290546026016455,-0.9271308447704352,-0.46437146282600517,0.7023478420850513,0.5553141432111972,0.6764752203035163,0.19140409065182284,-0.6268328038599198,0.6655080579188879,0.20085661909712083,-0.5232790567006136,0.6862903642705147,0.39295017904488705,-0.40837586005603654,-0.29273530015627336,0.0028313391763874485,0.2347800441473591,0.6340637863185787,0.007717978691328842,0.4539364837617075,0.0860636117684874,0.06796381088328185,0.7000194231617185,0.026002483448547498,0.7207960926730361,0.8352555919668279,-0.3579816825327342,0.45012614065774437,-0.4497645582823504,0.41316698089759707,-0.5439612261078288,-0.29897772177337556,-0.3853185596344608,0.28128877736001745,0.6356962430768385,0.03760043751956288,-0.9051046083971466,0.22915811113033624,0.6306362130430379,-0.7931572313821247,-0.9780689266225022,-0.5683342016953621,-0.8173060489231869,-0.3154202703420912,-0.6807716645593724,-0.9972013545069933,-0.576698034016913,-0.35878741101879585,-0.17160340484684336,0.08392888836118306,0.540799957049861,-0.30261428566238036,-0.44980496370542045,-0.5689312866807263,-0.8123704343519265,-0.5259366959652059,-0.025206098856048964,0.936207900889499,-0.7787736448128968,-0.5565797719034584,-0.9195205456016093,0.5510589076558896,0.8587464857510603,0.6514082082491852,-0.6524565035598433,-0.322766137650879,0.8745968758422129,-0.49018751464864785,-0.03582431849178125,0.2450836730597188,-0.9189370233016594,-0.9549331745593523,0.29375673636343125,-0.5758694357893201,-0.9938411398939855,-0.2569516235405429,0.6280262430386889,-0.8087704272446199,0.4191503037354054,0.44352656979093164,-0.7318202273931258,-0.1717025180406493,0.15303129342447086,0.6148932156825282,0.05602499666168814,0.8296505501680396,-0.46543843874875024,-0.22074508548363103,-0.38009192628292743,-0.3303044114127991,-0.3436986840455811,-0.14007890471514983,0.8051963853459678,0.41492263512200966,-0.28859279846138497,-0.21222574043069375,0.026684110104294723,0.2598491871426398,0.6607819924298777,0.8299632643921704,-0.3896355149301409,0.7247709583981492,0.6134981688164032,-0.20618836239920713,-0.41540968606125156,-0.5261241189232087,-0.5247560172492913,-0.489212071115007,0.8357233429463706,0.4954811717723522,0.6558688215153401,-0.18016325403147881,-0.93904980383988,0.7318577920538265,0.925932629467745,-0.3536761537514679,0.5310217837542357,0.15430789671180123,-0.1265079879075175,-0.28770040534724384,0.31824995599839956,-0.2501344967848478,-0.1638155108158299,-0.08425933700377075,-0.6498251309955778,-0.08080713196776768,-0.3300004048395859,-0.5191189060485173,0.4168929317282346,0.38094832930280886,-0.7350455001578902,-0.39130222383699814,-0.9098851844706866,-0.16389490762893136,0.3292196043288768,-0.4539311708877783,-0.5954000321857151,-0.633597444455255,0.6370669511063722,-0.2559248820205329,0.10769343253261798,-0.17568431667982742,-0.3276559713447247,0.09037054556853974,-0.6997327023477369,0.3176307847713278,-0.6019976582137627,-0.9225025952930115,-0.6275510398843147,0.2999194107901093,0.7435383375970943],[0.280095211617327,-0.25109562260753604,0.3260333838510199,0.9429653112862662,-0.5869503606239765,0.4479164170503005,0.9068063902762749,0.05169238242794805,0.5737997239253573,0.48134178349213447,-0.8654782934793208,-0.6260948216338713,0.9152265156456663,-0.2868347019075561,-0.7630775498251163,-0.33807253503825097,-0.9212803187024796,0.23841531521593406,-0.5028117720538632,-0.551049608478132,0.22900787055199712,0.5805214743001419,-0.41275688741074834,0.6905974160991586,0.19963195934830447,-0.24670152116542066,-0.8708301762189912,-0.6922332723799842,-0.4569315271410759,-0.7855279777933797,-0.7827882966362185,-0.30229316978035015,0.9220870030186883,-0.7916330447896962,-0.9433253379847639,-0.21776605571202406,-0.01599538883820184,-0.9714196447019049,-0.6376324929009756,0.22645284988479109,0.6270774794820035,0.32716504052053685,0.7080483311923338,0.08829652015460687,0.39834929494636806,0.7550531045979954,0.6296722984077567,-0.6513477246770778,0.6548526077226859,-0.06084910531865817,-0.04093594112686061,0.5237957267120159,-0.9248611410735346,-0.9152586704091299,0.6009669850688968,0.8763068877347198,-0.8743098786184544,-0.6624681230072644,-0.234751344270536,-0.3824042650420678,0.16684367333949957,0.4478888315632312,-0.4726296252830047,0.9346183384011729,-0.9745608798992651,0.25050400999550354,-0.48594262217760376,-0.3246838930224929,-0.933524180658974,-0.9940598625503492,0.49743300802759083,0.09176638670329762,0.06364567385717357,0.7462067413576876,-0.270290106208374,-0.8330168723000098,-0.5013139701538856,0.4247204697211826,0.9618582339489363,0.7407616658007472,-0.6879260835088865,0.8917062184090612,-0.7365003892626125,0.9019128377381316,-0.4173377665818583,-0.5006995466721063,0.9976032762252924,0.9286867333858526,0.13143552109873102,0.48631920292561004,0.6023894570063691,-0.563862248711823,0.6246425230933723,0.20085761510539352,0.1941726788768867,0.3286369641850986,-0.605860853893982,-0.3104093475369445,-0.5712938356509742,-0.34230976349031117,0.8978548132361508,-0.7841523552212504,-0.45508353203680896,0.5496742274565178,-0.4891267933711503,-0.1357632414894503,-0.9362543534002647,0.9950547087899801,-0.8323043662159628,0.5477978088929512,-0.7738539017910515,0.48010586393885446,0.26883429009340665,0.4543665314777492,0.9281021473055293,0.19410127158569246,-0.7800391236793289,-0.7479654627614822,-0.35312033609303284,-0.14059883397750772,-0.010586886093637372,0.2192940771051667,0.6515333267169852,0.10881331637250732,-0.8500591445729297,0.8736585952745288,-0.34796987899907644,0.7740581113186698,0.013151422346593389,-0.3567457332010322,-0.03482587012440419,0.4511216025001994,-0.3298083592042371,-0.340920454998088,0.26184793484358404,-0.7272669523505539,-0.9802182244666162,-0.15866567743621052,-0.9910883002722968,0.9451573835495906,0.19479636012389068,-0.8885777631925398,0.8304314106109989,-0.20405485913820898,0.1911626505209547,-0.21806658144862778,0.18673406336959042,-0.16876335109433963,-0.04207225082902233,0.9601179879530036,-0.9938831769617189,-0.3843311651687775,0.7249219143334484,0.14606339581175543,-0.7971352069487307,-0.8351114033292983,-0.07547494277572353,-0.8850072579272186,0.3765605838645998,0.9801263883781053,-0.2933796219923226,0.6438027615385116,-0.588503761552742,0.8562405904938337,-0.24910215967184324,-0.3248349285645111,0.18132701683719654,-0.8409069022878941,0.8482486766264203,0.10821623049281914,0.11293426197878276,-0.10492816945857486,0.5530688926078067,0.5630656264436993,-0.025207207076132443,-0.9149721497267977,-0.8991303705805188,-0.8129468989604128,-0.07103386507745135,-0.2931514364822789,0.7406689627139222,0.8538920274721302,0.6221817102539344,-0.21465885475408045,0.6492184369600198,-0.04746411106644599,0.8902649582241806,-0.9149465963538028,0.6741958090558478,0.3708099201575661,-0.48845843779547393,0.3011134107430946,0.29607347997169087,-0.7504473728112362,-0.6313576299403867,0.6451207393798533,0.40344991652263196,0.6162143905648634,0.3644762154064052,-0.7124236853591093,0.7442102402573265,-0.897435055267715,0.4869626805451124,-0.7547085000788207,-0.7550405567393734,0.6093628270634489,0.5284447453942944,0.9916685047069151,0.7837504345618089,0.001544428600561254,-0.8604694318317672,-0.6803009182207056,0.45620697352682815,-0.2993071612023712,-0.8665594718414873,0.801980058799479,-0.10728045279999932,-0.6127502694982223,-0.74423528161882,0.568999276536432,0.7644707494947212,-0.06686310807702855,-0.004136955706288248,0.06639619098340499,-0.7413754522792468,0.1561570756237789,-0.5600297011119038,-0.04614315162328486,-0.9919078913343649,-0.9792533184448335,-0.34760612160878823,0.372754351683519,-0.27113529174992435,0.5053566128023205,-0.3799774224380654,0.436600595625144,0.6479828279424942,-0.4850603936459936,-0.5933089850264326,-0.012173961957462565,-0.3022118808886347,0.937727035015955,-0.1622259738205203,-0.5836396760166527,-0.5928163013123784,0.22867966873014112,0.7717120844668026,-0.35006343615122226,0.43820572250797385,0.7477010962299977,0.8139976778461708,0.3029977189948587,-0.2037123387075539,0.4889055293346478,0.19048071557451873,-0.5894648780222929,0.8851766584572425,0.8079342192468189,0.42067894718883925,-0.8248567893233287,0.7825397027492857,0.2875183151336879,-0.5818926606425698,0.72002697310244,0.3798756251741908,-0.022810663881460504,0.6934689643100771,0.96765230342687,-0.6395742718340367,-0.09875903444067324,0.4478776221791241,0.4531818072507354,0.3813565994369572,0.9497495108380742,0.51711102063474,0.13379320123816596,-0.7184364217110919,-0.9493371433792377,0.3642205625482411,0.06942866655097468,0.6540242002774592,-0.13332796322198903,-0.3833464498286696,-0.7725218382558183,0.7017078526325347,0.16878095513476254,0.005369226756318124,-0.39664797291237175,-0.061374582697193425,0.5091951409080232,-0.012738412954526268,-0.6491483838776311,-0.9973178093839541,0.8493506970124092,0.8185261240001012,0.6806999497493367,-0.3854253887824981,0.3946111053470154,-0.6045605775263443,0.9125469668397674,-0.4529502184502503,-0.9546408862445326,0.7903460819922363,-0.74478218979465,-0.6385759838863596,0.5949174125836381,0.08447671495881726,-0.3580749742403224,-0.37666326519040383,-0.912067816686208,0.8355490444800036,-0.738380602938046,0.3272919805468979,-0.4014413822014802,0.31693105999804216,-0.6953937122824785,-0.6603809722079128,-0.9040104366004232,-0.47352478045767454,0.8800085754102516,-0.18793792546648305,0.035571956187747666,0.8869587217409654,-0.935390400247389,-0.27671385265694903,0.8469589015314658,0.5463949553812291,-0.3929367994912083,-0.026835142234783005,-0.4135517628598482,-0.7646928561632527,-0.061589908343649524,0.7847945009091313,-0.3211382742925162,-0.2506136761790385,0.8292947321321573,-0.4382445087571927,-0.10497849728821085,0.2997803905652807,-0.7137720405518826,0.8032222889487133,0.4940847234147394,-0.7904077333097068,-0.9063048997814431,0.19709908338710025,-0.19430072143519622,-0.2660088496083677,0.7858619544143215,0.5914384334749001,0.43514730068358665,0.14267027040004776,-0.22891598097221522,-0.8130234005267385,-0.2546539003432948,-0.3727884889781674,-0.16562157042220438,0.9986986900927095,-0.6972208104134698,-0.9177530247656418,-0.69253105880747,-0.5980759954191925,0.5701331900222475,-0.6418658437554217,0.8229704473450321,0.4084807074364094,-0.7133800165242694,0.19419007372007813,0.7587301187175011,-0.7888833890072569,0.6976659101598706,0.7153582052937193,-0.7697030279119013,-0.5106289429389674,0.07885324396486475,-0.8884899726995246,-0.19605648634769102,-0.012288465884451982,-0.15529741308239497,0.917410197626686,-0.020382599259962664,0.9568161318044437,-0.05891239510365498,0.1727044080264375,0.9326537423705108,-0.8085391707860723,0.19077635968737816,-0.33488545183814544,0.005031370026837179,0.6035504274123176,-0.2052023255950064,-0.553643086884918,0.0014099302912133904,-0.463592677539304,0.2880328274471249,0.8591243782013587,-0.5278617048932133,0.35651352429711314,-0.09436328260613447,0.4248037462344225,-0.14512350293713983,-0.7485237216618315,-0.462403919175144,0.11542664475099418,0.5984280638173425,0.6180690309036629,-0.7680659111580967,-0.23031983730473682,0.20683182355140817,0.9417747135891466,-0.44722427517169727,-0.2883670049956335,-0.481284501129704,-0.35066201725580326,0.007689688777001269,0.9921588634032446,-0.5236330154347055,-0.9415883557735971,-0.7705730713740213,-0.903130670070228,-0.8590683749808774,0.2534585131627851,0.6303781154204648,0.4506939947812345,0.7745974539559115,0.4846509331418465,0.8437764910165391,-0.4019233190813041,-0.5624163766176047,0.5165853478744638,0.42387454560876014,0.5490818091271401,0.7371995040899966,-0.7537900007048186,0.9980269974436462,0.4555354148589432,0.11819631623205074,-0.1355594927946504,0.3468154957538532,-0.4823482818710203,0.39808490668722785,0.8535161795057533,0.7340523350831645,-0.17957416647271907,-0.8719523246219985,0.1922289021894632,0.2167066599154548,-0.33960048724363534,-0.20047474531191778,0.28373392077514015,-0.36450428644902444,0.8472372273680906,0.9185106461149162,0.3257299849311486,-0.47990983085316397,0.45087539446546265,0.5340394262366184,0.11037476843903571,-0.7614157489255705,-0.4861617739645072,0.9343138841707888,0.5713792138946099,-0.6209160746085873,-0.64036032127864,0.913355981191537,-0.2116970242379166,-0.428028547592197,-0.6979792707171397,-0.7369659298478484,0.6131509266631328,-0.25539445742525757,-0.20390188457968272,0.959763341472819,-0.39805093859958673,-0.8540791994393406,0.3713298284435067,0.8921322052104561,0.5140557996842232,0.38659348412756067,0.047529612710029534,0.9151602180251821,-0.715456083171879,-0.7888577602361595,-0.6410075359775358,0.5188462578995863,-0.9199353301445004,0.7515375194049686,-0.40188097245553617,-0.5368813568075586,-0.1838141765468975,-0.39240512995689075,0.43875736375358865,0.3582525116583557,0.34427183177407245,0.25763146599855213,-0.28919301967968236,0.35927208514443865,-0.5914468045512953,0.023567909755855654,0.7714583360896512,-0.105191008372165,-0.5708896835639656,-0.9021395333311859,-0.34522981314237255,0.6653416648905759,-0.8159249839426614,0.9853523668628259,-0.01988607458434921,-0.9773078356985057,-0.45556908898124426,0.1213352270159711,0.461343436961251,0.28211212622692616,0.5573721473750943,-0.6021840781276032,-0.21762442154118444,0.5202405314098144,0.3792583451313789,0.8631858299134127,0.5911968363082643,0.9766707928153364,0.8267812174258253,-0.043806031253756705,0.41313689605185,0.3038169118570262,0.6450366948347186,-0.7066721692881865,0.39558060746180135,-0.4007785261497556,-0.016225433169806847,0.2494087479255871,0.9701167008681835,0.4064022944082808,0.02817614404287605,-0.6455873512451722,0.7544493147740647,0.6847863090449309,0.24808745859337145,-0.12477090390256351,-0.684771877243251,0.12623370605692186,0.3097147210453286,0.8592752458910656,-0.22572115247876168,0.13510765886546428,0.33636668442890927,0.387584237832864,-0.33545376142005257,-0.7092017311716032,-0.09009387764343102,0.8181911968483975,-0.07161199845532384,0.1760627380348021,0.972151448630878,-0.6036576635151532,0.49968707912994015,0.08149648949526012,0.6155471461362347,-0.23374401016542512,0.5225779078324706,0.2859034593615104,0.6450000107590455,0.6398683844749995,-0.06658998151371809,0.36428676124471027,-0.25214334445216147,-0.8388012442532908,0.8689006565774504,-0.7103660972064958,-0.8734254076242314,0.35067233726437713,0.16225628388422852,-0.028375922930369057,-0.47128071862534093,0.421943195243609,0.05037082708171314,0.31483813007101014,0.7514962260588482,0.7344606501315514,-0.8609634597701095,-0.11899517038355167,-0.0968947968843854,0.6782280117674591,-0.3405680872063297,0.8042703873501225,-0.02921674107690886,-0.11709632013237292,0.09797896112821736,0.7354309207781935,-0.42452037978896984,0.8015992960528253,0.3929897276211407,0.2805209973164444,0.18568478654347054,-0.059568481425521735,0.06535147071688407,-0.3488950187397233,0.518013982778021,-0.211912106441069,-0.11317392079250466,-0.9419306277874262,-0.6302774045978188,-0.15462952624804682,0.9883697320848375,0.7576698787038778,-0.29158876250026666,0.06288319658957309,-0.32779548780767565,-0.4019622973813348,0.48675317287454245,-0.534267039028764,-0.3847959847743909,-0.5836955512950903,0.35515818622828843,0.777317086083761,-0.3625186673621732,0.7009570961365363,-0.7871370096529862,0.4499731466389316,0.7588972504610527,0.5609881355751434,-0.6319832787926498,0.6684697073695545,0.8775337315435516,-0.7671410987473157,-0.030090710965468226,-0.38697897416417987,-0.9219936576968357,0.10824726694498832,0.33156695996835683,0.551709752277558,0.3138175480784382,0.5800038995015144,-0.22148121567110945,-0.8220927475621291,-0.9932200413395209,0.8806950381069147,-0.26038510682747296,0.016481965482482597,0.9678682040863218,-0.47243853954578663,-0.06164319863256584,0.6932912357832521,0.9676849448625107,0.9896782431233926,0.7482763018539755,-0.6043459848630388,0.2710556070579937,-0.24244843382801395,0.043479659985138364,-0.05279481716967971,0.499093638635566,-0.8776573055121175,-0.7944496529024041,0.5787357517829749,-0.7065928657287319,0.6613620231665109,-0.6594175507896811,0.6973262329371164,-0.5690549449327291,-0.32156994456162913,-0.7848051580732172,0.7392827070871979,0.2743100466351063,0.6621532767680096,0.9379545773333686,-0.4619101088561903,0.7411920537803682,-0.7978809749102163,-0.007284538954759334,-0.45320310571833344,0.337906535968421,0.7424634588681716,0.8729563850981741,0.7249561065354377,-0.7741527959666215,0.05422242329303595,0.27128225421362107,0.9334369745818625,-0.22400639638420095,0.37232612864181314,0.5458280308538783,0.27614171629959133,0.6154397728930738,-0.2299465120839188,-0.9846151900656002,0.985850722748985,-0.21875972622381212,0.5332132627087065,-0.472355364428783,-0.8278689414034262,0.27069635848125717,-0.9517261297721249,-0.29996025184987474,0.03244193597012157,-0.9864653178265086,-0.9668840903640252,0.2502288816599334,-0.026722828351779526,-0.9097423618557159,-0.18396504275060055,-0.08663785805181679,-0.5036156938998932,0.8822736477532505,-0.19192503906564218,0.5858343233346017,-0.324193272623055,0.7632436492396875,-0.6842737266486345,0.5403135485994175,0.584695152590566,-0.07259295548306488,0.4054747663731322,0.8244117498547743,0.12654045184476193,0.9994805343243407,0.6586423664453234,-0.7145600960473624,0.383680919806507,0.18204947686989326,0.3444117030402829,0.056271039822917146,-0.18335803729775035,-0.1297995319160541,0.7908814393094765,-0.207589633911893,-0.5689324770363895,0.8994720673328072,-0.4515491120912949,-0.5320491074304645,-0.6252924749352096,0.8920280107126619,-0.6832122576564634,0.11817118181591213,-0.6648726091085242,-0.4727135994291472,0.5460825025851035,0.5591092175356587,-0.42049096172899164,0.987065126623309,0.1252504965556014,0.8195257066257835,-0.48888339182383556,0.3116335491017981,0.6341912627290771,0.7882464931762774,-0.7872972951585613,-0.04811294478548822,0.26417182501138603,-0.5900458400640465,0.6053335781494458,-0.5858097697831925,0.6998508733480815,-0.344925406827153,0.5718163578371702,0.5682621219414092,-0.9915841792011442,0.44448467838129724,0.6771126133876142,-0.07519491681064228,-0.10424369789881571,0.7273435553912189,0.963827365604218,0.9884074528988784,0.5665520816189381,0.9904290875897187,0.7090645389320963,0.6525772285241348,-0.1353939429418321,-0.3800608335837066,0.999643814891272,-0.4724063933419129,0.3717051807063567,-0.2582049283015915,0.5158766217141415,-0.9218102864109667,0.7077474473605925,0.4340631191461166,-0.9901982417081592,0.49690983324558946,-0.5981766200314851,0.5351878388129672,0.621985081780102,-0.6496896710043918,-0.6066033090145944],[-0.598309523271686,0.20900373396499616,-0.525321314995228,-0.47498670640391083,0.17843157903713824,0.7088723352544015,-0.20025290941418405,-0.9185535908246081,-0.7213811526648686,0.7896060749699658,0.9629108827376005,-0.2242042539211888,-0.5107828101685907,0.21804752716375497,0.0882770426977022,-0.40127545326144975,0.1410348380030404,-0.0723447929172949,0.8744279796381711,-0.47057775221735043,0.21746567480575152,0.19172431747894736,-0.39742893802138446,0.6295107391272772,-0.009789122393497607,-0.8031679978388928,-0.2565243146126204,0.9051261711226382,0.841709169028247,-0.8056969967910999,-0.012034290913541357,-0.055927509654719376,-0.3452923927118079,0.08131858448226215,0.2776881867205021,0.2900224681797199,-0.5673918985817499,-3.789973311649801E-4,-0.27266653956714193,-0.4666811747721302,-0.3400716663140879,-0.6614068930326664,-0.7935669973898059,0.1780074389727584,0.3204182631471144,0.3908206196103108,-0.211683326058687,-0.5126884156764113,0.46107696831737877,-0.16792638928567705,0.27576218295133725,0.7148350389830274,-0.2764823756841166,-0.8160286414064306,0.5773241700186433,0.39635985546920494,-0.6401685034344258,-0.5335777477464887,0.8352825375943194,-0.29281760468604556,-0.09169509038364843,0.35825996203650123,0.8956031928174275,-0.7174900975704375,-0.07495375429995321,-0.6416761787627681,0.9622573218030208,0.3535173941213632,-0.04921676736766201,0.6755602213248473,0.09269880906196204,0.5692432530944984,0.23779439267114988,0.8755500729799877,0.5682517222573915,0.4545801726493248,-0.3298598710646756,0.6721949559749267,-0.8873861477578648,0.09719507756852419,0.7810642758296746,-0.3228771649382951,0.4336348826012755,-0.6387083948104406,-0.19536222063037978,-0.594296755421097,0.6279810969187192,0.6937054473049478,-0.705578705964431,-0.6126119436746509,-0.3847489522322096,-0.5820990772945072,1.249871986221951E-4,-0.160575304347103,0.9575611115854192,0.3040167365257449,0.4139481079420151,0.036813755899056,0.17257184416792337,-0.8418149280575042,0.6814836425248898,0.24771399271220695,0.9623779215651893,0.19192820577545544,0.4177758358893895,0.9023238005727843,0.6576425813806521,0.01251257630802316,-0.6226772871294417,-0.47540274654917436,-0.3841966296253221,-0.7822782974320563,-0.10248174115920072,-0.12001936476230513,0.31413517674080893,0.7835837145816411,0.5682311671274671,0.7786838726484704,0.44290664606890373,0.7011702426128092,-0.32407781335604163,0.02282879340099603,0.4308199014269487,0.6486603587981845,0.6289034210207269,0.09714529560694425,-0.47562310581515505,0.8774417607932969,-0.2089535830172231,0.3767128055045865,-0.2052313925325555,-0.05390229570428695,-0.06555033533140886,-0.13842559524326048,0.2603351158759677,0.45371122258781194,-0.13272006110340095,0.7468795221834417,-0.3103982284572038,0.5039891798995184,0.7012016533360421,0.49853554187775373,0.5893441687109822,-0.7257067192012367,-0.30648418056049187,0.5281814076827951,0.3840921127921202,-0.23126044553808917,-0.36766946220974117,-0.9523781226159422,0.8579340837927465,0.6021077295076847,-0.6712108837206971,0.23168921026366718,-0.4435627967504896,-0.5086230104976943,0.9385847976607948,-0.5701716964431043,-0.9640493770982346,0.024290402056355465,0.5556938696022355,0.8405287160908235,-0.4004865030134581,0.2294155854858555,-0.19553656079602488,-0.2009452043840474,0.4730422463770132,0.48976240572279894,0.0018906590648095634,0.6277541528186534,-0.7475759971284897,-0.5779165662011336,0.8701364684787447,0.8595523682827482,-0.10840278596868225,-0.5134303902650168,0.750017528765484,-0.4309304698331542,-0.49634706400748785,-0.7032723650611292,0.7994244664616146,-0.46787645180391757,-0.1885565105927931,0.8668050536879237,-0.24368315528350287,-0.016788486836716077,0.21113890210270414,-0.6357924890148645,0.5041505881092962,0.851890486327721,0.10162352699748878,0.32692771262462306,0.8982908788836821,0.5328056994821835,0.3845796372104642,0.7610903461041698,-0.9048229666716725,-0.5195572042494636,-0.14544295721561995,0.05128718939327115,-0.028303485141526474,-0.7814906814251101,-0.4247191151470875,0.19646097434791043,0.13043855190105802,0.7151779012572073,-0.7220960777727348,0.5266717181455369,0.45719562153664794,-0.5007476285496724,0.31886125598378023,-0.23884159828860146,-0.7697145077367054,-0.6213538632240583,-0.20056027469703586,0.03568703853327393,-0.6230301800430371,0.17138978018504747,0.0761266821942106,-0.6427479543810986,0.630448911479492,-0.5292865731385639,-0.919743535730766,0.8367815730180159,-0.938386354657395,0.13957750795829282,-0.38257439315710173,-0.9944319025012285,0.7429406288398193,-0.033646491749253826,0.13160103924957922,-0.4612703173241204,-0.852381080403759,-0.2878155659928867,-0.7042011622614597,0.7890826286273589,-0.7048004963713934,0.6418830030168043,0.23066384131155732,-0.32261487115728005,-0.37423770883851604,0.5540533333097766,-0.8457649281594435,0.689989337800722,-0.8822016456918929,0.31245088049410596,-0.16936943651307912,-0.9974822028188126,0.26070853037717123,0.9294222885331289,-0.6876537608615378,-0.9217422579477565,0.15102200990553483,0.3635956971803831,0.16030767603378404,0.48254579452760815,0.20214223550608024,-0.6321794422303093,-0.42222663674852656,-0.8905074759089562,-0.2593695510886833,0.9596825889990848,0.7086378089354985,0.5349756025713082,0.10774022464009203,0.38574983450154327,-0.27236272037617715,0.7899075160864077,-0.20688091890155547,-0.18796760656983968,0.28941357628828857,0.4903627116486873,-0.4017024184121831,0.39696511514842303,0.4053449237585205,0.9662262252651761,-0.13921197349286274,-0.1104438822330327,-0.11849515062239102,-0.2023947452081083,-0.6346810396055631,0.44416483529073836,-0.9219346931523704,-0.001678321493016055,-0.27306583936176443,0.9547064934221439,-0.06008896317231516,-0.021616770772838745,-0.24861121284796805,0.8849071313037695,1.8659159636058575E-4,0.3724079831426166,-0.4385228627361533,0.30755941372511875,-0.6270489131663837,0.8385556317476068,0.12363191904666193,-0.3354396590427038,-0.37193314922054843,-0.9874036039584746,0.21733336621408994,0.620837828016483,-0.1190962171613541,0.9443280504520113,-0.1394222414494597,0.3091028321570095,-0.5686079776091284,-0.4513724319631247,0.737847849234524,-0.7513094500795308,-0.14858932694882365,0.8710036204196934,0.2727401426647931,0.27058389632608737,0.5464519600940925,-0.7024061266387429,0.6456002789590634,-0.10796160623538698,0.506954011449039,0.23212891723755358,-0.7227744887029444,0.758058427724271,-0.7833514750323531,0.21746267157757027,-0.9171059917063977,0.0033001880174430287,-0.5002773085844623,-0.0031517527076982965,-0.8533174911563988,-0.31319268296555314,0.4655474666194026,-0.4097856032229532,-0.625757060148858,-0.1866888407042917,-0.3508217930719426,0.10327846008695074,0.1529031716650311,-0.12134295844719123,-0.05221361436462124,0.6924071410927912,0.08116763864049537,-0.6367537759238964,-0.9823666308759809,0.8757166239074918,-0.5746076737075345,-0.8537902553607037,0.42315238808168565,0.21098047782562918,0.11961366427737596,0.4243607396850053,