{"layers":[{"weights":[[0.6024432634371069,0.9835829440472821,-0.5889127261110915,-0.3968541341350776,-0.8959205620067526,0.38512594316163884,0.726505341370279,0.689345134192859,0.3987564921738045,0.30503028422585704,-0.16539506556607006,-0.9571002390280509,-0.1886791618525558,0.68790234457399,-0.4774566344755425,-0.7090472743377239,-0.554783436182034,-0.9230954645917068,-0.09979152713230013,-0.34040821049417685,-0.1209540898523871,-0.9948409214441211,0.4881349869527368,-0.3527553609888806,0.08122827346836357,0.30245224408216675,-0.08617220101969626,0.31388742223719,-0.9154287793013202,-0.40990728937604726,0.2851542469007376,0.02046989677973765,0.15234817455434266,-0.8738387324471434,-0.9733972750069787,0.12704740872606643,0.9175194099792922,0.11807954457160359,-0.7532280630199791,-0.10843023638648751,-0.7064009395258602,0.6407098138123454,0.555346495620177,-0.3849819905732952,0.8314056250384614,0.3738202516275487,-0.34894013176839284,-0.0640264740188126,0.6352083716303839,0.5191065351072107,-0.022887352017728367,-0.8972274781722279,-0.045605671748220264,-0.5417933384979227,0.26918516855492325,-0.9624419188734498,0.12962188504849656,0.9843455370185317,0.9219544070343209,-0.9440046133449631,0.7042556660605223,0.2700674843488496,0.7555068500390085,-0.7808208015788847,0.19198958911707867,-0.8796412175229115,0.98110388678705,-0.5395834001711187,-0.7453889770612468,0.5250521554653442,-0.044643830264660914,-0.12106838982955287,0.8502952697003253,-0.9661888112141499,-0.3479802311743007,-0.12015159200369542,0.2928377080524358,0.06225018117392296,0.6924414732781717,-0.7941599012649937,0.10150909106723384,-0.12463911806032972,-0.758684878185184,0.330778687129293,0.021851901008388804,0.7052446371292203,0.11549982000357388,-0.8323758356065086,-0.33284832904795947,0.22514441898606208,0.0429346464017477,-0.3995147392829629,-0.1541089917348752,-0.5723721740137374,-0.8327961750091675,0.9466877454063344,0.8464641117507047,-0.1438817128581601,-0.3815446315149982,0.14787279015177984,-0.31347950242588846,0.08601056137965343,-0.7498748527542562,0.20901389307901966,-0.3414388942466292,0.37488312320171774,0.49051559972266284,-0.7878676258298265,0.3773487083949293,-0.52418021587498,0.6586151088103839,0.09079289876461769,0.9726846592707131,0.7562493873026087,-0.9216485588134634,0.27064728498402535,-0.9218211134689115,-0.0325898950855925,-0.15638179206318475,0.28121908618808134,-0.17963850923375477,0.2726877189741712,-0.8099458710713044,-0.5297029802150502,0.15666149565827406,-0.5169776724568732,-0.911008689804864,-0.9105820362354481,0.5811059578573639,-0.17037401846145142,-0.10614124429809525,0.1718459992729976,0.48215014147332896,0.0678087018146457,0.6596367178983498,-0.12678862999698756,-0.753609403819917,-0.7841929320394875,0.09127046056640206,-0.7616173951458873,0.5780651304824187,0.8195573473798179,6.210301876346974E-4,-0.2812778402043472,0.44760135399546597,0.2725630657478563,0.6055553644403181,-0.803221314798687,-0.42329074688576185,-0.5739898768312905,-0.9499644214092585,0.7447353371784463,-0.5541584697232905,0.4924068964997938,-0.885905113171874,0.9108037687332126,0.4187571844060435,-0.9243083235958149,-0.7581958208560067,0.9244974433043477,-0.21660063434006366,0.054394743772556625,-0.261245643631146,-0.10582665016678763,0.2530997403550741,-0.0035059152684321,0.2665739440631222,-0.19806231162094312,-0.21278255658873274,-0.19420074098845935,-0.3811622549301128,-0.09920856959518473,-0.5293776281426178,-0.6210786117547284,-0.8409005349839338,0.9849279031928541,-0.37769834421299636,0.1919033781116268,-0.7180135489540435,-0.08212891883396783,-0.6783228581680265,-0.0563497531860511,0.7852241446729399,-0.19922443081061364,-0.9152850452282086,-0.3503855694613192,0.13880493937455435,-0.7967661412360699,0.5657234260220901,-0.08990815392066052,-0.7022902356819787,0.9957459830876509,0.842279291099752,-0.5323426895525455,0.9184759738837107,-0.5055706820382107,0.09441481877882618,-0.3734445387218136,0.6325729363807188,-0.1369765662115821,0.3045979388038152,0.622720302168201,-0.6338512896916377,0.023354983372733267,0.9762063382689059,0.613449952364992,0.6115605398272502,0.6762503862979643,-0.17725096250269692,0.5977881674564196,0.020809911230184188,-0.531759805015883,-0.13985632761809783,-0.7154209132310414,-0.2728877939071948,0.8193595487025973,-0.5822976516928081,0.6934096435248708,-0.6018068917014573,-0.5206549994911776,0.20022317661102879,0.10051318638956687,0.17733703389273753,-0.509016891854827,0.7279357850713388,0.8388618613751219,0.39645920316020034,0.9089479937172203,0.22919724047843482,-0.5873657875470074,-0.7787431735202667,0.3666498666321213,-0.6249679286796553,-0.5927344214621308,0.24167402313980113,0.37461367488523956,-0.8672802305137646,-0.24650733184156856,-0.577884744421129,0.09977089090652494,-0.5661107030758753,0.047579784689750354,0.7998670916769006,-0.7033268536801502,-0.625169836679395,0.8362501379171225,0.856053342716503,-0.9497328195473689,0.22019998250659337,0.03946392868775454,0.5719572281930666,0.036460819797514615,-0.3880431934406531,0.017321077100109373,0.8504076031608905,-0.8816267064322685,0.0734815807696727,-0.8218800320855207,0.1936708637414796,0.2711633258854168,-0.8524314088535969,-0.5203191173302221,-0.6777816244114981,0.06532970585821538,0.33612372763874837,0.6957962757557662,-0.2442588142670274,-0.766796845296784,-0.6389218411320605,-0.1044192340834854,0.2896776500911111,0.20912522949391113,-0.7701611648824583,0.23109804472890802,0.7739397344350277,-0.04426546046693322,0.0761180951629486,0.828906528563577,0.6270554465976291,-0.12515763894932336,-0.18240314694866577,-0.6469367545907179,0.12262270015671421,0.1508352200406436,-0.7042218283115348,0.6324214042683106,-0.367062510682878,0.4836490995449075,0.7512643722552799,0.644129253678653,-0.24928212084236198,0.8503877660117818,-0.746956981433743,-0.9062467762588908,-0.5248793696509354,0.6568226559135739,0.9898164819894071,-0.14675924157759404,0.5060624504716421,0.4514976295371474,0.232490671132698,0.5982996313411362,-0.9024845610731014,-0.7684402944977746,0.20374177513710356,-0.8717545761159541,0.885070073879285,0.2916640470214484,0.09569374848106768,0.05763225873134462,0.6458789863042876,-0.4414265655936057,-0.9587750584546975,-0.16712810381793244,0.030613314162553733,0.392291732586999,-0.03389408217399854,0.36487171577799893,-0.013088875100523166,-0.0327758118254933,-0.04278818797863416,-0.047324326707266606,0.7894709136072086,0.49188864310684366,-0.9965928984415532,0.63295315780654,-0.6069529392638224,-0.21415162227752332,-0.19168003834999814,-0.3927594603103176,-0.8344569873506013,0.02105140437543248,-0.2632920124809716,0.9780847784397402,0.9614479632881032,0.7948912710080928,-0.10158015412151042,0.6681086118888085,0.9756094953974918,-0.8655471215154088,-0.12078559334618463,0.10136725065079438,-0.16062967369104422,0.5007326011942034,-0.32031387571603104,0.9932755538701488,-0.9682428250818355,-0.5605043246127454,-0.9211347402346961,0.4270895681381817,0.819616362989134,0.10140457816834071,0.7888490683892488,0.28472111140221873,0.6734726547269473,-0.4442958258472226,-0.44672980658478173,0.05791730298822768,0.38705524292096694,0.5462383537146005,0.6385784271764393,-0.9195624902782331,-0.03293603420019185,-0.8642697274217496,0.04894258552531266,-0.695298740575636,0.7797347366938834,0.5557971222222224,-0.7627682227503745,0.8856485718969435,-0.6038825403207898,-0.5159807887514519,-0.9245734452396795,0.04469851361273064,-0.8674873433116022,0.9892188072597795,-0.5612379110239014,-0.05164877678655201,0.3533433841072,-0.6063015624699489,-0.15368838105897642,0.6697568449560541,-0.719217009617397,0.44624111084087587,-0.6748456506891695,-0.3056108667734481,0.2702619519100135,-0.6433224335422788,-0.10320922818767382,-0.11749258207786062,0.2890236200610104,-0.5179882703382952,-0.09236164191759469,-0.6755520489168235,0.6919203304056535,-0.24084731194156828,0.7996569955251152,-0.9030785738707223,0.2795873481685278,-0.6773134007887466,-0.15006150594931275,0.5811417646131174,-0.8795826078719584,-0.7959863737698576,-0.06608884332181603,-0.30136903050397407,0.6211505923796857,-0.5489077292420256,-0.6062187024053931,-0.8052277020579173,-0.05006846078936016,-0.40654835470973794,0.755733153226274,-0.07132962471075921,0.06373359202634558,0.9680590195479033,0.20746531653411956,0.01743868174794513,0.311650516116188,-0.8968835791201526,0.5104706683381472,0.6451204738157932,0.8775496904779284,-0.9076659759222123,0.32934197645767116,-0.6480439514797568,-0.8474950290958111,0.6833359869477108,0.8366504614490388,-0.28182007181140334,-0.43148546812802924,0.687472629852931,-0.09171181651729164,0.47797616869089093,0.3548711971575687,0.20844605061832075,-0.8058813735687284,-0.6795216842303146,-0.755033458549873,-0.7956318634680128,-0.05478422256584557,0.8951590330256651,-0.7594445748127453,0.9289197292512537,-0.4137967653359567,0.8692310868353638,-0.7979521399682995,-0.08462895444287304,0.7194306497982935,0.2804234157876721,0.2579071065901556,-0.6610853462154112,-0.502963094699451,0.8779896440986789,-0.20216513205887054,0.8274924154145554,-0.8956997466650483,0.6709236665099594,0.18242936886436678,0.0992671138626033,0.4989583144952719,-0.5273953856002982,-0.8180724244069041,-0.8501768758896944,0.4529606924201162,0.8810086401755332,-0.349666070155228,0.15243128939233658,0.4796926962144273,-0.16412887122074946,0.9630197237162523,-0.2893300879785288,-0.7261742651751669,-0.3389191254513912,0.34413313152429054,0.6568170088499096,-0.0730294593244928,-0.6666482065940994,0.370900268586996,0.1965431402271675,-0.6321742491055253,0.6060299846560079,-0.3467832874101847,-0.1226785278000945,-0.776859459099731,-0.4207763112201813,0.989593075261694,0.5970635744489138,0.6311111636683056,0.317435105890894,-0.8791556167031734,0.6580087905570667,0.38088392496235207,-0.7996419308293022,0.6320629582812245,0.7448406505101368,0.22448528506820237,-0.1653619601396441,-0.48670654943140623,0.6207335871868253,-0.8102481298826805,-0.4420217769529948,-0.5741268546160821,0.3270616334426848,0.2958791166703439,-0.1632747849250403,-0.1824628760188971,-0.28542913357503263,0.19601620635625755,0.1837418083824102,-0.31807990785596607,0.2548157675336382,0.9586670672998513,0.6242422632663521,-0.006952683933536043,0.24641299214257797,-0.5320122734764638,-0.8170877913280572,-0.3912839588089376,0.7684783382282968,-0.29208782371194214,0.3888020543123633,-0.20083735992551113,-0.9639961607454989,0.6005360840155495,0.3735369902751823,-0.5431213454530353,0.16959805385673735,0.9929141415533443,-0.2190062638927599,0.5173582914042467,-0.181171783844511,-0.10711410840152275,-0.5900500525739668,-0.8484983235925132,0.5575090794305391,0.1192614370239996,-0.7187217770805893,0.8884907730257211,0.5335836481271496,-0.8470091382810226,-0.3493995128368329,0.9859946867007854,-0.5520814161478678,0.18277668764033006,0.379131424654096,-0.9176473647277037,0.6252851665200948,-0.9374925029661418,-0.9700629502106718,-0.5483583953144364,0.6699405814474546,-0.761521660605698,0.07697334668180242,-0.9724265512123648,-5.994117715733405E-4,0.5673823772282184,-0.30764187173165497,0.7695952256550426,0.41193725301212064,-0.611293411134693,0.7186321647565325,-0.08524385589039683,-0.24028311057731058,0.21943320456375812,0.6434595224020717,-0.804085281240967,0.8046616475169559,-0.005663572952586296,-0.3475431866854471,0.19535387567550344,-0.6442595977507012,-0.07733632602592116,0.1772132125753529,-0.32982963500405815,-0.07648993000037489,-0.3071806967766539,-0.26254859195682473,-0.10230114093391637,-0.7156376410535006,0.03273476306824078,-0.6613497659722348,0.8791673389295672,-0.4079381120680026,0.43719520474257934,0.20206639127144693,-0.4184560736656582,0.969814191155111,-0.7504591595991575,0.17937033881156675,-0.6943443399138661,0.8732505415326124,-0.7674245441375634,-0.14041056080265618,0.7467474561673201,-0.04421095314793299,-0.7488103723415673,-0.9392041728058266,-0.6700785828373127,-0.3772910544563574,-0.2255974025338744,-0.8098765388016272,-0.978214086985695,-0.9534967163717736,0.5091887795709547,-0.2347187478365452,0.9564104464627329,0.9959918498986735,0.6834399680999292,0.2963111102454494,-0.051569928523403745,0.5248245504197349,0.24271818242071258,-0.32368024542426865,-0.7591420379684896,0.2913359578159841,-0.4660079518881125,0.24434193934658216,-0.313016416196803,-0.915008325938136,-0.05757014168140019,0.7774498783344337,-0.025793064175129436,8.210989791741379E-4,0.36361188338518846,-0.21145729406466132,-0.5440460767811217,-0.39298949521231374,0.41853252752887415,-0.26431922810208647,0.7117894627465592,-0.5312746928352226,0.8679637872862036,-8.926634054359616E-4,-0.9665707327912649,0.41002996860613483,0.8146103259685096,-0.1786658338575574,0.7022934207096981,0.02527889045608733,-0.02649896902682635,-0.2066087453013835,-0.8610036795493912,-0.8811465919948258,0.5361869026468893,-0.07214936068462073,-0.20307944505310982,0.9880418112127249,0.979826771926077,-0.12098140063676936,-0.9914746051971569,0.7686871847644233,-0.4661190120115278,0.44276107075045806,0.9040762687926323,0.40998736031362965,-0.027788123767436754,-0.879221577967052,-0.0028151101653853005,0.29081955198491877,0.8902827213151329,0.23322687356775804,-0.9389231613004052,0.9548660661837844,-0.30594277390958946,-0.1672850438908876,0.5150186380899433,0.0033128752984202784,0.15652587651345914,-0.49814609926741754,0.6966791181725511,-0.20913798396649802,-0.4179699993894597,-0.9890428035033747,0.1271496608684777,-0.7540977490703675,0.3800465511270549,-0.23138520305883714,-0.855588829026512,-0.1263429126210631,-0.8492558635518151,-0.9919798915343683,-0.8662230411645208,-0.21001386183978382,0.27411905403439446,0.7426178219104299,0.9943750555362807,0.5138908884921343,0.4286955215658188,-0.3399415169705162,0.44888880229216666,-0.848433667662832,-0.5332203151852967,0.3315288656213131,0.3335298809089625,-0.399629483535824,-0.3618453749107213,0.3756601680858046,-0.8955139406308661,0.45051298400146916,-0.7154896527305126,0.5584446357768217,0.46072647615078893,0.37042240067008764,0.8126700421486655,-0.8110893198389277,-0.8103218874480294,-0.06257941272678559,0.006652378480408974,0.6345111915579177,-0.8597208193882296,0.10858563097074606,0.5541913415487514,0.29441472087164894,0.5611349621514309,-0.16862749934943677,0.04285128791352842,0.9505538239836709,-0.03608081934981599,0.6504757315220858,-0.38557733895158053,0.05848750296734222,0.12574666792815836,0.5902254527190907,0.972982383588588,0.24144552046718926,0.8922045991019487,-0.9171447964651068,-0.49444552766692307,0.02679935028752869,-0.9686034765201735,-0.7426649554351039,0.8992539140619303,0.6848558349938296,-0.45355959233791016,-0.4824103510361041,0.8310538938096003,-0.07045229678423064,-0.41938127863311414,-0.9887329977352765,-0.9443276582961592,0.19169752391591552,-0.6761606948253709,-0.6742684846499157,0.5334386484679172,0.19449484313061988,0.18589762006876936,-0.448585254909517,-0.8837076225664554,-0.35803537884639713,0.8980887893056391,-0.29266944792531413,-0.2502772502349627,-0.028652696504374707,-0.8136191970706691,0.45264290245598615,-0.8502497288672853,-0.6723940454942438,0.1841709287085326,0.9910783481010574,0.4783697947490749,-0.8164655273397234,0.8527888994083391,0.12648021541388824,0.6696550440444078,-0.6379087502077719,0.33598332335281506,-0.4623404107476255,-0.2537662404723371,-0.39221747993535,-0.606437384966106,-0.4856561595443037,-0.2814862202156421,-0.6911289823625626,-0.15695023638665942,-0.36725109590007543,0.472858165078608,0.49199910991037665,-0.7145261896230968,0.14935930724510413,-0.5655024219056475,0.7890772997206443,-0.7015222170586539,0.2506270224896744],[0.7186515899279894,0.7489079509837888,0.7207469921750557,0.04920144021696103,-0.6679789329361304,-0.08236308461805841,-0.916685376309817,-0.42191547347864033,0.03804984991470324,-0.294658284488032,0.7893926048390784,0.7668349154030794,0.21726186957418964,-0.6544742872574291,0.6652116718215749,0.19238787344357805,0.2824089191581477,-0.07281033671109777,0.6658406118210356,0.3851753366715239,-0.4685402742879118,0.879120386442172,0.11574989504055093,-0.49541749428392784,0.3316558702762346,0.00745174582509703,-0.569545189031964,0.370066158008782,0.3584290525627051,0.6330471039242068,0.15202655786002586,-0.06274555358079548,0.443989727259112,-0.4966702349108001,0.7042591878252475,-0.07583343149738453,0.08924601130429966,-0.2817517672907444,0.010075114023714134,-0.42170885420284693,0.7864606903541347,-0.04987803653809458,-0.7845554831957192,-0.21000044037177965,-0.20051990909455736,0.9906713922040563,0.9382634668409343,-0.6006071781835884,-0.9152719071015686,0.5265727890570338,-0.7283344505378065,-0.24365083758267017,-0.9711040585368639,0.5552280520516946,-0.17140265881478567,0.7042434680045694,0.7472536543734627,0.3538059151456567,0.36963923366747925,0.9964168975103075,-0.593374464736791,0.385270729018304,0.7160485851487202,0.6041726490716831,-0.23206018127232125,0.8093667035899212,0.714852444898124,-0.387371201254234,-0.26929952201116547,-0.6890091701698317,0.5977173920394385,-0.4624534156669418,0.5711544453109598,0.6232553721396071,0.6771427486657399,-0.5082766633439763,-0.9249015159287399,-0.04121017843907767,0.5799295299533473,-0.21578812425442045,0.16063969047402776,-0.020507110114831997,-0.2892871823341967,-0.45416141819566896,-0.8882096303358646,-0.6064294531186067,-0.6784515758762668,-0.18264065363507406,-0.29254713039154334,-0.32729521051081545,0.1782010152487295,0.8504565891253015,-0.3275289866167635,0.5933080651309784,-0.7025602137131232,0.6023594138332057,-0.06984881991088485,0.3108990967941302,0.2646429550873525,-0.5452259264573963,-0.5244723326419921,-0.741821014169424,-0.35305305956342403,-0.2917229263478881,0.5958862463513622,0.911248536601672,0.7482924965067574,-0.45555127066697704,-0.8955574490405911,-0.07651709062470645,0.8714252454261643,0.031123160943816897,-0.9453293024252234,0.3512345466781309,0.33528776987156783,-0.42842577090384987,-0.838454829518352,-0.790972786859583,0.618399329021945,0.43920704953909795,-0.36603919536994334,0.6295707504575978,-0.14484738081733192,-0.8024673607656555,-0.3434907238109911,0.8965879173230323,0.43191118178357096,-0.18644055225233894,-0.4779111421817835,0.11956400599597564,0.8217007722649418,0.6820353818479163,0.7548731081430963,-0.008057201548614959,0.03160129482651302,0.9501088281415695,-0.013537231870048466,0.554541613674123,-0.6589141744598136,-0.7688306166201945,-0.503824695553589,0.9011307513604445,-0.4655253081779094,0.6670312551330045,-0.37541293035163836,-0.6456015877430387,0.4239452943256281,-0.5884857771402401,0.11241358067696575,0.533284786794968,-0.2825185578891768,-0.27346621212391464,-0.57463864700775,-0.3005678612555495,0.2667376503622038,0.8261932610404837,-0.7063185271995137,0.16787590498235583,-0.4687695443877608,-0.053604238293989956,-0.46707374974804455,-0.7329211425138137,0.8343454817812983,-0.7461356447917905,0.985773554530159,-0.3884175405686707,-0.38946196860787785,0.7689721562292854,0.08051054482869184,0.5412061565816833,0.9402473410767129,-0.5996780632586807,-0.7848099944768541,-0.9725515470671572,0.6026259276582506,0.13545188195497068,-0.5548530214317198,-0.8013666425525019,-0.38943493817558505,0.546482238354498,0.41315934541676047,0.5500398724033506,-0.3884450793693744,0.6315160444266739,-0.938493532928972,0.22205659333887315,0.7549155862133455,0.2878228398028595,0.9269380966335361,0.38191682199948723,0.8425630426045398,0.8226617292149346,-0.9162554303058711,0.9640974162427233,-0.40960556705701084,0.3317858628878123,-0.20501492421187428,0.016181854147920782,0.40454473071049885,-0.2770393193137683,-0.8086719604390136,0.3386157495326811,-0.5721478668744738,0.984752599589029,-0.07086102991850231,0.8475848226232271,0.789681876476942,-0.6187881713443824,-0.2902537436614826,-0.035483230003974194,-0.15799486495459295,-0.9703691530770283,0.5603311151700953,-0.4279672682509193,-0.17840862166950322,0.5697132686933245,0.5187370739925282,-0.27639698442343996,0.0622590726348032,0.6466127987890399,0.9920709422614002,-0.6655885374513477,0.24861675293281862,-0.721818478792662,-0.4289782320375294,0.1519156359062079,-0.6773590982005868,-0.8743526967189906,-0.27562458699872777,-0.42480563988232034,0.3601651440997628,0.38033023123473636,-0.10862255626071396,-0.3797902868740827,-0.613015922479385,0.025513251729870626,-0.15011892300401813,0.13223107543360488,0.38775351262513624,0.9525955457313791,-0.30459426993254296,-0.4887165616097697,-0.15712466127069222,0.5849558449373531,-0.046078246603063255,-0.1852274306807847,0.2741169418064867,0.6214241193111335,-0.6050283220883977,0.06626311383228843,0.05259286328574266,0.7987921887848042,0.09072415791295281,-0.3807210380056745,0.30992147550653576,0.45228741461520094,-0.6815505315047176,-0.3797007416279007,-0.08256072933224361,0.2918413679182657,-0.546158867984346,0.2937037412662979,-0.411474740384565,0.7763607067831435,0.7917944470343701,0.5231242029078225,-0.05667373623993413,-0.7881727478621983,0.13524088435525342,-0.780069708652138,0.6681080000414765,0.5487767626168337,-0.4303217753129071,-0.2939245470346828,-0.05337285186212355,0.2653523029876824,0.4641777325425801,0.9766405300647181,-0.05097604883559388,-0.7241567561064042,0.9128249324560666,-0.13802245762304244,-0.30488659112227073,-0.7943329696050875,-0.4197919480534315,0.18477288315948528,-0.09193169365757393,-0.3797558557319568,0.7299124160594774,0.6014258506750926,0.08345944001439569,-0.17779002847780725,-0.4804159775155349,-0.4826136525483583,-0.8364006638671225,0.41068211921475933,0.8748732202174648,0.4023538464394877,-0.9264453581694833,-0.15618494602153207,-0.38515183609610193,0.6681102654635521,-0.36224885246333005,-0.9054246957655105,-0.12574080897819362,-0.5817317181248485,-0.33952755083639985,0.6116935289654443,0.3660353640892153,0.09049761428209978,-0.19587960963768272,0.6072755467977221,0.45170134070231194,-0.5333464456065024,-0.3551701318234411,0.16496637987193663,0.6694565430521525,0.3731281474883235,0.3606454306331721,0.5293581001498104,-0.034792331604431674,-0.07172903534740245,-0.9083588082837114,-0.5299086876364597,0.5562540026148702,0.08393229405558045,0.3280551495096962,0.6161313696940985,0.18430520586243318,0.9828277768745809,0.36479561479322886,0.4015754164831541,0.26036561779006523,-0.2719437312184688,0.5747466615893961,-0.6332578171105411,-0.5788352942569902,-0.17124069812073014,-0.4538944633231609,0.28386602458388555,0.8147708367546291,-0.0415277925695514,0.29550765822424774,0.9852743604871734,0.5815576887594391,0.4603851342371174,-0.7032805899947273,0.5839032682810876,0.026069281483023347,0.5031864798869632,0.08439357592648584,0.24295929906634828,-0.9165215498887294,-0.3962771015994626,0.92695341432317,-0.40514101868478514,-0.009068220866094562,0.9831349240714639,0.22828671754404234,-0.4189905609873439,-0.8173193014065004,0.18960580097533533,0.4127140155389887,-0.4573582579207232,0.9613587764029862,-0.9581438463332443,0.8079680645662916,-0.9663193214609977,-0.31503659062056694,0.2881587530206482,-0.3372214823160265,-0.8029464396770082,0.8097866279088133,0.06413252187560473,-0.6354217146732822,0.27886065291194717,0.6018667495108548,-0.3396040004433871,0.3787374977418896,-0.7505626666390753,-0.15241809593414637,0.8776355597473045,-0.31176013249992385,0.4356144602782842,0.7044723661325092,0.9040563236327361,0.937128935199784,0.5679479440506294,-0.7377392732102882,0.556811266714699,0.23165083067890238,-0.2103423800556534,0.5119596963928963,0.3411502523275024,0.5855124300462883,-0.3800574881228515,-0.10848646107028319,-0.031117546505730155,-0.8778068749028689,0.24791994286776645,-0.28133222802402946,0.6793303538201743,0.5071534218891107,0.17673787592131487,0.6876427538487123,0.03419306737889558,0.9730918875048801,-0.42336128797127853,0.5658120917786623,-0.41669956639438605,-0.9925960624919794,0.5965093063883383,0.5026034717116739,-0.6458323088136437,-0.41525388641078353,-0.7505834838222489,-0.8333598470866895,-0.9643065656301641,-0.8796756257548267,0.6951340285190849,-0.43114158352020093,0.16791473038888793,0.6350400143670463,-0.02685967988197156,-0.7227593459388261,0.8919278493596052,-0.6491707245287809,0.6979144674340811,-0.652362174741896,0.37416226111116824,-0.3766537084737316,-0.2756993752086122,-0.4329949271791687,0.29152394802188597,0.456443121552622,-0.9162729394548835,0.04157157305031508,-0.48891801299421156,0.08525842730280742,-0.631740786981581,-0.17435908578042436,-0.5852950682267184,0.18195686807487285,0.9390262413572057,-0.4426277397455708,-0.6152623870677585,0.1671260123859692,-0.38032978290217545,0.1875813538113222,0.21083350161243117,-0.2599883491562569,0.577586943307213,0.06793102641486863,0.36695351422270833,-0.07549451191293885,-0.43910737836454394,-0.17301042850237217,-0.3354186796486239,-0.9128481322742745,-0.9225813663596186,-0.8908587976501563,0.9431882630913087,0.12751644366717266,-0.6775707274218774,0.15408529334003834,-0.8217370796931476,-0.2609600688057139,-0.5041323370112473,0.28045931395008966,0.6129259656771817,0.1314046743570541,0.2544437211398748,0.04783273729178322,0.5461153248225697,0.9752455429095529,-0.692946804905782,-0.557633099911926,0.5834976920002996,0.4081892806329221,0.10797449972426695,-0.9748639323955194,-0.7261274149891728,-0.4579176124610193,0.014454443166293738,0.6009572468218448,-0.4348549425718699,0.5269678381013384,-0.3562050921204507,-0.9556901136362866,0.5923257149508032,-0.6043609761077035,0.2997344081309269,0.25375735941810496,-0.019579899758559276,-0.9338840926945283,-0.8543112736393477,-0.25714688449271134,-0.0033484552282057943,0.7798673746193052,-0.21804142645633015,-0.5065360900556997,0.8403884904681762,-0.9132475547194985,0.1722916127540111,0.7658943529438346,0.5226698629488845,0.004055935322893153,0.659214947829633,-0.4945265067719141,-0.24477561165869513,0.9865312179279816,0.2204378864856968,-0.8721430527726745,-0.19643457886812943,0.4365650083014164,-0.6013815100591451,0.9192307453764638,-0.7891655934933598,-0.9456940795644296,0.4114614594911812,0.10543496865706627,-0.03652708762548111,0.9540015623487571,0.6983920064927817,-0.43761538779364045,0.680588224939043,0.7652010922806005,-0.9408687153813048,0.7588449126630092,0.390576724133723,-0.7497125624090661,0.8137317141365241,0.0026301552185873517,0.5143144241825514,-0.07982652186474595,0.08219323277171499,-0.597568758834593,-0.4589591434537362,-0.4737454473909104,-0.33368093240353275,0.6186065962200563,0.4484933874460215,-0.08522514637584978,0.24677033839751936,-0.7031176096606717,0.7223358538389609,0.676011974530785,-0.407611374855296,0.3848879569585498,-0.5203870358888004,-0.8974277984965989,-0.8449743712138594,0.8240386972155124,-0.8681699131699193,-0.2657170486413347,-0.6532941733611245,0.2720199093032806,0.9468251790160486,-0.5650909013266929,0.8456519393515163,-0.7180404900012256,-0.14180925183473808,-0.5513727728876469,0.07637006097733691,0.2985565092904652,0.6888160422471828,-0.3885354068889978,0.17250880300125457,-0.1959079050111102,-0.5665201368878724,-2.417788267037685E-4,0.9837139548152064,0.2750506001670138,-0.9957190727782577,0.6607150596443022,-0.415258934408528,-0.6578744690703027,-0.5580049420193964,0.6061923028160805,0.37127817724344814,0.24840535137970374,-0.582326261202845,0.4117505937577678,0.6435331134005412,0.34107552681513,-0.2314990590469461,-0.07321956469455436,0.658420191251326,-0.4814622475705464,-0.29007585782501116,-0.5061036847910146,0.7491554316824222,0.9098609189518151,-0.9041954026278953,0.24961365739266683,0.3077297332668118,-0.4830527923768646,-0.4227711473625385,0.6505711051982176,0.5726666966060802,-0.726755822154986,-0.852708843125144,-0.8626803255585566,0.007106232806244073,0.18056345993625525,-0.8695223158319538,0.8231947120553994,-0.3996347235258,0.2680671950179001,-0.5794187044704014,0.744299338848304,-0.772583564101357,0.2704744158832387,-0.3797839452066173,0.7007947105847565,0.1497030819762125,0.49258065686549973,-0.3875939066485008,-0.8045846208218816,-0.6438294769979224,0.12114374355943257,-0.3091672537146809,0.44351060155962413,0.5466134274373046,-0.8250708202159158,-0.13713603288392537,-0.4591260716799435,0.648561886306607,0.4009637932766674,-0.5345980989686252,-0.9700348225171617,0.5470800533366015,0.10172535957422664,0.7644255164282571,-0.4814184885596858,0.17232198157803544,0.3735580505384337,0.9026441865040794,-0.8427972479566562,0.8809107677408812,0.854165434354703,0.29307141423593397,0.5640655863389421,0.8471418169169431,0.04234529076913201,-0.5588543323297325,-0.1061917128592969,0.8801279244930469,-0.44800152382402153,0.6840511604093464,0.5016518668175949,-0.0057962932095600205,0.9510386125061298,0.7213013212276616,0.25649106891588086,-0.8533102878826437,0.4501668895780929,-0.6574358943930155,-0.835229966116422,0.2856229551990758,0.7900340268909968,0.17693417762778366,0.7925174697414217,0.2340232817120057,-0.3699188523383892,-0.05525769376860065,0.5736406247610001,0.66319734079761,-0.24008468153372667,0.33758804626689587,-0.7010800092505542,-0.8410901239193657,0.9145528057945586,0.5193740419153796,-0.34126522681602495,0.9689204109514602,0.6533159412193339,0.6291937199725789,0.8622202699661309,-0.07902309923083493,0.5226987105683717,0.034401120617640266,0.423514628591807,0.9873895156153416,-0.23301935759007955,-0.47183012699464655,-0.7573190666759803,0.6583371953618529,-0.6347731826408747,-0.9732135940325914,0.3798696940921346,0.6063889803670697,-0.4051816890223723,0.9463529508049626,0.9595223210365595,0.7843722799826367,0.7099999296817778,0.9167261146430795,-0.7912577570627666,0.7373919503656897,-0.7183916242275895,-0.5401085855966731,-0.14830955511127875,-0.4144930311058897,0.8861161111728685,0.44789657855708387,-0.5864801492726102,0.765588546141615,0.9192540500251549,-0.4891928373663782,0.678078116109576,0.697384970461483,-0.09441739897056232,0.9569256653148569,-0.05229303897994858,-0.8914913208427424,0.5573539803949715,0.04823749777717964,0.4464197671039646,0.9829507797069581,0.7209671211850682,0.0425199808869114,-0.24029249135369565,-0.19788707075814602,-0.7841236844901103,0.8512403527856524,-0.9159103023794345,-0.8653002449893892,0.821337816108957,0.003276632021473181,0.8608465432802165,0.46969898661124676,-0.5301685532438698,0.8260806079567377,-0.9845795892054744,-0.42574532168584567,0.01629187098755581,-0.04473462399954194,-0.7852095491560067,-0.23721601528991784,0.11445180723014522,-0.327755685415354,0.37723766041961054,-0.05384317797338337,-0.9859576035352764,0.7817014297674858,-0.15729856184200874,0.547319730693187,-0.5714587972980666,0.23460700234454476,0.5179795222623166,0.882532754760119,-0.1337780465534292,-0.9805461366889402,-0.3490109434774794,0.053028970527600035,0.582489816392755,-0.22785077971136225,-0.7507858688836999,-0.8201574786497046,-0.44355462729423184,-0.4289200908634264,-0.9509022054312556,0.016519506674430334,0.5486561224677494,0.5782528110174355,-0.2923625919073733,0.12510732146094253,0.99464975066172,0.5206179774897801,-0.8994435139743424,-0.8129466630410183,-0.843321164365816,-0.8831822321082136,-0.8055528718285238,-0.8636590476555046,-0.2666266593820492,-0.9482803710909115,0.41735602784341597,0.38409916410769496,0.8835954440107804,-0.6930404630247221,-0.9483500381180082,-0.44292634278455756],[0.47485623520548775,-0.8730506957401563,-0.846685465939425,0.5847687846236308,-0.21824803585844957,0.5530546395255944,-0.5229370420652251,0.6602381770308732,0.5227852393808713,-0.5642097979360359,-0.6193933068892946,-0.9804596578256681,-0.01545068670922296,-0.8106032207659403,-0.3459107945279284,-0.864806006645939,-0.10499225272025323,-0.977892709244743,-0.0780862512289889,0.3995768596862891,-0.022147428746986216,-0.6380953841798093,0.47698951900938813,0.8149516775987847,0.2773206003643518,-0.1667503332454439,0.6194771761886209,0.7096483312411617,-0.39224019629447576,0.5218650232979405,0.7414413748383395,-0.2455893593320978,-0.34453848663020836,-0.5906068953005312,0.6522186488830172,0.052190168338411294,-0.9196387008445701,0.1197027130544188,-0.5402820732694993,0.5735299386321238,-0.7015843812529061,0.4170308807974359,0.7048664102393511,0.7992515937792518,-0.4693470989215164,-0.7634903560212385,0.36437265860518236,0.061193032548322236,-0.8179111067107085,0.48151938990496734,0.8664719447977908,-0.2109791045459789,0.639427683560712,-0.7209100853178197,-0.6906191783178508,0.6432486395911434,-0.813361912520489,0.9611915777087598,0.7068399746797129,-0.6803754691984505,0.8715887621213444,0.6242493624985158,-0.7289781366893201,0.7332759684447216,-0.09797294910875569,-0.18806814450520304,0.4983656729901197,0.22482772256078634,0.4201449874822868,0.6029866410160475,0.1411811767858147,-0.5398055656854005,-0.6525865203883945,0.15979298076433698,-0.9915620825673315,0.7656054043674322,-0.5878588060768319,0.6983870739913431,-0.9927302624853556,-0.2096182465051673,0.42823504890694064,0.7150273477652991,-0.19155682418452433,-0.4016785214567387,0.4432083955019812,-0.6647029984453502,-0.8936549480362843,0.5372176589544516,0.44944431006533697,0.6657265051281903,0.5556912582070981,-0.40988120275722034,-0.9714453961184742,-0.8401401826779885,0.16591183210581995,0.2879144950769807,0.5138097209068007,0.18444747055175476,0.18641622369088295,-0.27399746807749487,0.027382907203815643,0.18301838203011533,-0.6847075368445978,0.7394249238539113,-0.8809604956999606,0.17856159339605918,-0.5316184092301236,0.8752558925711837,0.6124032557358794,0.6649470896253374,0.2576536573812323,-0.5504200059549677,0.765638860992594,-0.59110256236181,0.8474680677810663,-0.3390389297123164,0.8555355123173103,0.1334941457563583,0.9123750224644329,0.525458048331,0.9154030637841792,-0.37451641401312935,0.05285093952648929,-0.7895471185524027,-0.4938146648054681,-0.5829952023883489,0.21359685176354276,0.24370103625290834,-0.8932680839491141,-0.15468615549638406,0.39350459014738903,0.030138310368195594,-0.9731248100308697,-0.9273007893441835,-0.7351908486361607,-0.8813381116719016,0.5478316128884471,-0.6032845975278025,-0.8137426730225157,0.760933596521833,0.4495815420802149,0.08715106042489797,0.5332784027546866,0.4151551616632554,-0.9885799736177314,-0.12241450587895651,0.2762364607060864,-0.9151288456645134,-0.8606416610064112,-0.7552717528272704,-0.7000221641399302,-0.36884097569410734,0.3543041331347346,0.65317322342532,-0.9168703644667372,-0.47048814074350215,-0.9752480352916355,0.04117941805328609,0.04564450366381125,-0.05548186945551341,0.47762658276835224,-0.9728128077723903,-0.8745198227748979,-0.5667977688317755,-0.6360296974702482,0.5160501768446234,0.9658619034024074,-0.8689188299743167,0.04336978734662737,0.7139228846285695,-0.5438311111372565,0.8230723871613442,0.6223375787062236,-0.0980416255162265,0.3241219164876435,-0.027152138171135973,0.7793019399150354,0.7535503702134922,0.973982122146158,0.474086196868363,0.5314815721687405,0.4641281530908926,0.8257862690582085,0.6537871546853512,0.6857529034574519,-0.4988000332400904,0.0424281622218259,0.8995703208894312,-0.10109488780957276,-0.5830246255312509,0.7175244246893897,0.15732406797565227,-0.03884160024026738,0.811455732412138,0.35830268862481923,-0.47361080193599364,0.23179698103769267,0.2931566011832709,0.7933541713751416,0.16480898996550222,-0.026856364691020037,0.06800183078407407,0.5305588205141367,-0.17375103033434364,-0.24100332291821247,-0.3405147317428552,-0.9765445170376988,-0.5228381613176621,0.09441798937789901,0.1801978866944421,-0.6997376609153915,0.6487495746871045,0.9117583800017143,-0.4424217602155999,0.9852116594774052,-0.5450472559068403,-0.27786025164482353,0.18350378039737492,0.8564867161202635,0.5212397960827937,0.8335285655067359,0.5426215518789285,0.7917682720073693,-0.5136636205940933,-0.7035116619565158,-0.42856161750759514,-0.8182743224251742,0.16441984308225044,0.9925692388753313,0.7203406680440969,-0.27493980911107807,-0.0025455336967105334,0.6500239067972989,2.2708884877987377E-4,0.889569608997608,0.9958987064153907,0.46849410057411117,0.6520888739025141,0.2575813250856015,-0.9928065445179846,-0.5007489264054683,0.49554492842860026,0.48602509777772623,-0.1331380491324002,-0.01907375437241224,0.5172293087915327,-0.33489110096196384,0.7369931803994694,-0.6007335945241674,0.7856928183844664,0.5004178463713033,0.7921611095571475,0.22587708514527932,0.4083204662109801,-0.08399682109360586,-0.7229614284917346,0.9851007962585283,-0.09031933566198845,-0.5599420653733795,0.9365441125459686,0.6014180060671268,-0.8477039150765384,-0.9523837842968167,0.8294040360106335,0.819635579173441,-0.2793286631128277,-0.9930232275249941,0.6119231193056085,0.8850597110109236,-0.4632989957570359,-0.2844420213494689,0.5275086064163479,0.6694439042966848,-0.5738576408942863,0.5251862284046444,-0.45782899125004084,0.9307173052298571,0.31190321645035246,-0.8974222411974268,0.3309635288317336,0.5171700253800806,-0.21823476935292888,-0.9852943860937944,0.15035913167728138,-0.037759100505027995,-0.1277036699903786,0.9029268691930419,-0.9743429590454747,-0.8470851248955301,0.09852081688414799,-0.12259677821708757,-0.8604930801765677,-0.46583288008256535,0.9877339392513522,0.5638092382886934,-0.1809683062056047,0.6457958071108856,-0.3279891663307613,-0.3796096436411891,-0.8916406283927464,0.7224939429536369,0.46767864989493635,-0.5199124921838962,-0.4559888221100261,-0.4774939823953151,-0.2249127145849781,0.5702641793778547,0.46877100416219836,0.6217250137017026,0.1404369087343409,0.338559970286788,-0.022397988938472047,-0.02569183203472946,0.8477353308642047,0.022830908046627175,0.42070371613527036,-0.28293746923405344,0.03818360612428915,0.3115508559118898,0.2879867878738247,0.9134243687613448,0.019733728136449257,0.7773838938926276,0.24380254441038848,0.2030319302537161,-0.8368719836798141,-0.7092959273335406,0.1101541089458401,-0.8047522041158366,0.5920746524077082,0.4942651103032149,0.6626233704644461,-0.18366192970477965,-0.2825921543948008,0.8551549667138092,-0.7374513500254093,-0.1697184608226306,-0.38873531582399595,-0.1771731218245404,-0.4606755620713337,0.25445437255499753,-0.8178598195072205,0.17185099228968637,0.6104780361258795,0.5034920680831236,0.17562189368739944,-0.25088013905867623,0.6605158113012738,-0.24682896545274727,-0.8677998933323793,-0.4742249328592035,-0.914842374895518,0.22396916947876583,-0.3986082752293965,-0.8932262451218634,0.8687219099110924,-0.1107764930564187,0.1628557370701441,0.6723351645602067,0.37078406109914863,0.4260420978537465,-0.9196734067460712,-0.3089384323440669,-0.703046705781329,-0.821377527414958,0.8084903495213803,-0.3001518471508914,-0.7509466571237101,-0.6693953112039548,0.9591623529368135,0.9263216094825598,0.9662895874026327,0.5437581890948668,0.8498863191738546,0.6161646959955982,0.14013327213831664,0.9107122893819206,0.2902188680163452,0.537547836897183,-0.4942431806187544,0.21821670639404722,-0.1200914815657162,0.3369308740774763,0.8175459063943266,0.25597211869136915,-0.23689851951231425,0.16067443007154394,0.251489576842485,0.16146219780857446,0.516602523036822,0.2805161863139113,0.824414476497908,-0.3260851343576716,-0.3370299398729535,-0.6610828245662418,-0.5274483433021581,0.5444171820813825,0.13835430480634792,0.25577522689056653,0.5854992118617018,0.33746384027029164,0.9885377183706551,-0.14055827129339185,0.0027179386496167224,-0.6067741965551832,-0.45924735606533335,0.8524372479651746,-0.265652640548914,0.8058231894548876,0.35828642758172313,0.8653114128375536,0.015766661280617628,0.9458342119076714,-0.6175246903553818,-0.9796526527268296,-0.33559392809077915,0.24507058864511386,-0.15338109713870857,-0.30122328733532017,0.2158723823937896,0.8006793007342952,-0.19734154106377552,0.021371757170305573,-0.21671920562747857,0.637888145190932,-0.644371660924748,-0.10275756496350867,-0.8160683173296988,0.41988833343224735,-0.8930597939180375,-0.5215228473930971,-0.4706333907306002,0.853415927732936,-0.2967887782153487,0.327649369953,-0.8371786321343503,0.0680407142157812,-0.10917561811989357,-0.31089695477281054,0.6099936886529433,-0.14986099456441188,-0.9873658752601969,-0.13172613195544922,-0.9789450482681948,-0.24663502031954543,-0.5057339179291819,0.9176838710061316,0.4990913712845073,0.8614176274594484,-0.43606235676198923,0.5950931585089558,-0.35312658463849295,0.22572458230195724,0.15007260415195287,0.8398484775227567,0.6809889849790656,0.8663199148482155,0.729182491396671,0.9258521976957327,-0.44417129980574477,0.6319403788369699,0.7420359715547953,-0.13425570690020058,-0.3295476568788611,0.17922966303793708,0.13032221955126336,0.6566319648385236,0.944196678485065,-0.12870854771289783,0.523730781815514,0.5108856496162266,-0.6973120198351693,-0.5228625225497785,-0.34707961606708126,0.3466403992624008,0.9638873743157363,-0.7607796748089594,-0.3005758629806612,-0.4830215359101676,-0.7054540805482203,0.06718719291906827,-0.5682764878333754,-0.02436518343189397,-0.5419178387267015,0.4149194155886409,0.24062486663735924,-0.0746403452089234,-0.39355970862366046,-0.2565930314488789,-0.5275281826481364,0.35114812449820265,0.9379629485254061,-0.6235563773682312,0.8281578049037381,0.790179618599494,0.5922222191491046,-0.9706478079048954,-0.9870331348337439,-0.8141075059381464,-0.9542250768085652,-0.68656653847916,0.3031456404924447,0.7360304115605355,-0.5398526071128879,-0.8587692503844386,0.272146365542159,0.2941575542526299,0.25076192162583594,0.08517774145844603,0.48978454266055926,0.03224993855606906,0.03187699002129671,-0.5217650654702953,-0.2869657595636085,0.8633237350374497,0.06390121063276086,0.33075166163189085,-0.1904721907850469,0.4158134576183978,-0.6636574387037621,0.9757292356703259,0.45853485087947377,0.2356478460286966,-0.4962944784504069,0.7705067495658571,-0.46492106338306394,0.3292933380563303,-0.9730899718487879,0.13776002598974046,-0.006379476079229991,0.15683974213971422,0.08947860826315468,-0.2104135310875769,-0.9131660645206479,-0.22590547737098313,0.12304116647547125,-0.9502641392770199,-0.2342475897650481,0.9093750653308074,0.09360472319553866,0.8521682851505679,-0.7590158682535311,-0.5165936415982822,0.10797200261980269,-0.7744529916521528,-0.14498621558276925,0.3192898525327001,-0.6501276584907857,-0.15595485332023226,0.6488930884006423,-0.3952812563718281,-0.12869775133521166,-0.41874308898151635,0.3107675737587159,-0.9539178944966724,0.3424619624704042,0.8958644068592693,-0.46073790296824507,-0.4091060858380583,0.5134811799893951,-0.627759763107493,-0.6914760618373541,0.11071272404725992,-0.15786112216110937,-0.24711210929884325,0.9772319803438229,-0.5219418279939265,0.5070706967714554,-0.6014854005755494,0.7468281171699523,-0.8853433740358922,-0.1431956457762048,0.2804345781134794,0.5892289929799297,-0.7235179435096578,0.2445256232897143,-0.683719342678021,0.4289911159549159,0.08681628296719383,-0.8556115977693376,0.1586458381430198,0.11041615810977695,-0.3550190546692081,-0.5360226386815067,-0.6307296737638987,0.4606960965445624,0.4147841698959242,-0.9457604521746582,0.3493855557056309,0.6543102913412652,-0.4520037612090417,-0.4425157063951377,-0.654112480611135,-0.02437991707878402,0.778478889145529,-0.06445561916558847,-0.6130615537741204,0.07347825175613842,-0.8997173774720987,-0.7134406871321234,0.109555203693867,0.8601384497577574,0.5733988354434199,0.9024078602151855,0.08708235459317457,-0.692036168752201,0.28458040945500074,0.8970851259426823,-0.5020476319443107,-0.42671380032542716,-0.2654771590837538,0.1887483182590318,0.7334179148780662,-0.8956773142811898,0.7523395278264949,0.15579771230777908,0.9317854576918685,0.7186826773772377,0.41473542287220194,-0.1508786287569787,-0.7051514855243983,0.9596315678136506,0.3684963532010786,0.29005812507376855,-0.47238545819861893,0.48415055346033964,0.47384283881961065,-0.9136894964107188,-0.21897499216832395,0.722747062180051,0.7470158704495528,0.37757282772135703,-0.9341810063577368,0.5973008344247669,-0.7898555735719655,0.9389164168473523,0.2699760373076938,-0.3105025122213655,0.42872849753045583,-0.8380683057838748,-0.3846175720765825,-0.07389990201509197,0.29443384498554825,-0.39437647826392436,0.7053350738422346,0.6026291709128987,0.9125827948503941,-0.19148638855246092,0.1288265037016459,-0.6629014836112513,-0.6756563009852002,0.1423298777837374,-0.9911883428238831,0.42437860873379935,-0.7565867142612335,-0.37641629487536,0.8536372741055944,-0.017300931856000356,-0.015251780209504368,0.817160937664977,0.6021116121301896,0.2734851035226755,-0.6635245651139032,-0.776378672339551,0.8520612851809235,-0.38671247204997755,-0.7749631443212572,0.8615108437947758,0.8980182626153722,-0.5875572266504202,0.7520905428302296,0.18216640298684417,0.4728688435425925,0.06864577613836934,0.4088086272472115,0.8723474826024,0.8163000579255199,0.6427926786864275,0.08674790950942125,0.6397768840382955,-0.9256711659551918,-0.42650172303492073,-0.10566140470940032,-0.3526707465798734,-0.0698790541739648,-0.9653630474940138,0.7166676611171807,0.9112037679846625,0.8387022820510096,-0.027993812906137793,0.9708139318926859,-0.31917822903969234,0.2747727213929517,0.32954634275309796,-0.9495290072980881,-0.425569139504662,-0.015935626014569774,-0.46529050060888444,-0.38967150343178747,0.10070057359236792,0.4156745443208299,-0.07351183005832236,0.007097436336774736,-0.9400743990593327,-0.8015031673429928,0.46618071084926677,0.9727779695126935,0.2927050275559573,-0.16441286756648546,-0.17143947585788236,0.9160065674686476,0.25400389329585993,-0.3771912778091342,0.7556253731416384,0.11590448746476814,-0.0258623583840917,0.20942103544139076,-0.5767073810959028,-0.4807056444566259,0.1069169012395233,-0.8106646684350949,0.491179621429279,0.8476305745507011,-0.027506806806268328,0.6429099707915601,0.4930241725002498,0.2875325629740384,0.7705257192390107,0.6492107193700691,-0.7201033785374752,-0.8280782351061228,0.468644627801305,0.4413299305215042,-0.672675959189437,-0.26740595014341934,-0.7368594270243564,-0.8973002748139127,-0.09553522232208017,0.2747843875163945,-0.035972958042937035,-0.5173560903223721,-0.6692200280778853,-0.07469013781328437,-0.8236558507390599,-0.6446823176766933,-0.15325121845399708,0.4894161483614749,0.7246604913064464,0.7582219129041184,-0.005931853289076064,-0.10566861071161249,0.4195581977728354,-0.08883485066569874,0.8075660521975271,0.18583556756386985,0.9592041309335169,0.15613184135308897,0.6278141217626936,-0.8751750777646755,-0.47059373830461587,0.9435613766463536,0.8721685382580295,0.04515595562934289,0.5046812592389665,-0.9345072388071822,-0.26657955854341525,-0.16529957517795907,-0.4664564194111299,0.04179378873038242,0.4318370391452272,-0.3588007161460109,-0.7484021039914639,-0.1471706077724169,-0.6095433156787147,-0.7708121102484777,0.885353754501585,0.06535858435100692,-0.49240674646307975,-0.21169619814356228,0.08485958702471272,0.7940160821772021,0.5470684977505623,-0.5722115970325344,-0.526325100458852],[0.6079414074988685,0.6020130864877157,0.5961084850321832,-0.46313431555275203,-0.39523993183730105,-0.7316806556582264,0.22633570309256718,-0.39304844683745577,-0.24599729151334157,-0.28720820220480164,0.32020958741470895,0.6497647495082981,-0.8371440574251581,0.6656999955365701,-0.7054044152740496,-0.7238145494423401,0.7951137433518124,-0.4239371772079754,0.7555856666138022,-0.6616135929771869,0.320579857091821,0.7378003439891162,0.3467607565600118,0.7458474887038959,0.6635703510665631,-0.6684676595425718,-0.07310519285527806,-0.10428831713185835,0.41148126291677084,-0.6170038103107076,0.9685666827755903,0.16997146275280203,-0.31316903053965717,-0.8492040751868525,-0.251724884091217,-0.04453056847795011,0.5542935230055156,0.5077613333458152,-0.32410916030108305,-0.7429454145696779,-0.40059117102742237,-0.4794425352826774,0.9446827297743136,0.12452899879854408,-0.09064395973776254,-0.3957374096289298,0.5586121103046531,0.834054018317199,0.3827659377657731,0.40665712450867,0.7854137923829843,-0.9430577321690893,0.009355205729589498,0.8620482338634999,-0.9516703208464912,-0.922986789731489,-0.4309680593040413,-0.2513704831449083,-0.6002282439456388,0.5471716410132845,-0.9327968586938917,-0.47392149669077893,0.8343843596545999,-0.7707499673189242,0.1352835863882036,-0.7830668014986962,0.9105447859523494,-0.29574987586174006,0.6211599550915903,-0.3248452655328296,0.4203845698047472,0.1304279546541095,-0.36832942950645225,-0.303621806171913,0.16902184106348003,-0.21167218364317877,-0.580037362040892,0.13559495181803427,0.33788555307993506,-0.6271704957541048,-0.33761702226397255,-0.575012989332042,0.32794561686395396,-0.23012077082641272,-0.0809004865728612,-0.28350782649893735,0.5294467519532947,-0.5906426935688766,-0.6304881346994934,0.2468118754277779,-0.9735857178407766,-0.8125445835667852,-0.7267341484080598,-0.5428012356097288,-0.10880107498791176,-0.5731588778788582,-0.9672182057155259,-0.08999817113793689,-0.5694394728589709,-0.6282345418428658,-0.7877836677956028,0.09484891930821295,0.5054543102174863,0.31461273285872915,0.43571156967661673,0.869009715466909,0.8971145889661801,0.6087458799900529,-0.32621358175048176,-0.5659436566983601,-0.4488280765207667,0.5391332214032919,-0.879337920170434,0.5297603019888238,0.5193524532403034,-0.6898771722542549,-0.40929287708261275,0.8265810251469989,0.4168468236263618,-0.7480084520193726,0.16757951280061018,0.3790338631916597,-0.7002267629733524,-0.2395868008855651,0.696972673256289,0.4429779362028728,-0.9914644844521212,-0.5536736412712819,-0.367161162647585,-0.046448585964303624,-0.7749257355008654,-0.4842749682395007,0.7520571730727199,-0.4562727262777605,-0.2286406493272071,0.48712814416996003,0.2737465948947812,0.0843082278110369,-0.013490683335804506,0.01853336925624608,-0.9434160035301654,0.4395281670892697,0.4314996860525765,-0.1687667312335642,0.7024368176081848,0.3695843224555626,0.6152814314265922,0.5039870823074551,-0.3554782977897704,-0.6675039370756122,0.9572303455688315,0.2591792297271988,-0.4113914145543503,0.3130621266658431,-0.2211445701090558,-0.23717720349945012,0.03652019185087545,-0.2580443063934719,0.7596652481624483,-0.5594996964126558,-0.9438543004310975,0.08144063216069586,-0.9942185220095294,0.8373991730328249,-0.06691971607668894,0.7030550690926595,0.6307919344158481,-0.8497264839347545,-0.10107032333377759,-0.6775858167716194,-0.40455682837608586,0.21581452738947246,0.7380223473621843,0.43925667107096716,0.43476582405602554,-0.04070431206889975,-0.24958231203246198,0.9851807957137947,0.46195734527097265,-0.40372862852816177,-0.7163620084423787,0.6956848786241199,0.05084410138805492,-0.2842152319396743,-0.15808190599101382,-0.4040031411308942,0.6822445919284215,0.7934770558060306,-0.3478664718070327,-0.5604686500698592,-0.4152192277204848,0.6429353176320778,0.47809922433190943,-0.07199039303318167,0.9969450064540133,0.8554833363227498,-0.531595245424715,0.11468341759849482,-0.6459667747652107,0.36849470137259693,-0.13038516247866452,0.515945162103057,-0.9714055987329046,0.9619334257349541,-0.4506376238436153,0.14763863127682256,0.6483802811455415,0.7080369699316901,-0.554645908414575,0.9528692132231096,-0.5330528227831776,-0.8270915795896866,0.2935235047421434,-0.09806817779499917,0.7831016168957039,0.5242472314259421,-0.7117329072501357,0.4249472077681494,0.9870581123175369,-0.3981862106769801,0.6909645707698764,-0.22480226411205398,0.44613631746403415,-0.5207939160849562,-0.18116651191426397,-0.5786022735846097,0.1566797549790905,-0.9201137912205505,0.34252597686554453,-0.3644849757422173,-0.14871134679364306,0.0033649789930573744,0.3643807789182593,-0.9326067769910572,-0.9167170674108699,0.8816031213158615,-0.6395479861208642,-0.7131812914426734,0.6991252063204891,-0.702974078144579,-0.2558252943272983,-0.9743056560456769,0.06864728950652725,-0.41438790080384835,-0.4543217348698445,-0.83203819233048,-0.5398812042892088,-0.3096414077145257,0.5031954291781392,-0.5869760679632771,-0.9773219730596676,-0.363032825336253,0.7145928116836429,0.9735199652142565,-0.01296140345486401,0.17860886134026832,0.9321986710143279,0.6759203683916408,-0.10240319359485806,0.6848342697338576,0.5645084540929011,0.39330795330831336,-0.04269774835506811,0.4518627376927143,-0.503331946406344,-0.1330975781213697,0.8946050720966262,-0.7392009777501485,0.9564184365806514,0.6661741196926504,0.16076557623595694,-0.7577070011647219,0.8197256108646438,0.2770210675253281,-0.29095475394553466,0.8753888713693506,-2.56732684207982E-4,0.14637383110231128,0.14057622595931762,-0.6898639524289473,0.8415439369474125,-0.14280357570986332,-0.43343019932882154,-0.9032745083561556,-0.17465592800515725,-0.426349259754345,0.18956156164447086,-0.11569167357014924,-0.7042471025002913,0.3845303949593785,0.30764391846571637,0.6835965237368975,0.41901075880848687,-0.7593918178893585,0.21239345511826493,-0.11972066109244131,0.1288673826428976,-0.18953345069929628,-0.7189032095663478,0.34563931183553875,0.41326099216459594,0.7619495071778365,0.46340509775636857,-0.28233438266850513,-0.9986588997611919,0.7431824779685088,-0.6969685691825901,-0.8035440355897848,0.20467354360844534,0.6301396030588803,-0.33102768759188117,0.056075865307432575,-0.4985871090679735,0.5056028072612115,-0.5599217336988632,-0.5245039232994871,-0.7059023608967091,-0.7401503319190413,0.5334570166199868,0.2660222871863357,0.19927771195849178,0.7117138855808552,0.8714797939919272,0.6027347436686249,0.22039206344147313,-0.2875861394580056,-0.8521525872774935,-0.03697241065470483,-0.81428120012274,0.8151613064532097,0.5910452514571003,0.14165092813416627,-0.021943229364274702,0.7992894092460716,-0.6985143955057543,-0.5833312043096547,-0.7865090390203348,0.5656312142938374,0.2094144645033007,-0.2598351047197227,0.3005780507288661,-0.24214564779587058,-0.7912178177319152,-0.8373304570346836,-0.9105472358225589,0.8255050978435771,-0.39544004803600025,0.6142411459615823,0.6860232015856979,0.19112804801289687,0.6541040372220099,-0.36903541331920264,-0.563108772223774,0.6866521792262656,-0.31100993554749057,-0.3463628297756827,0.5599423515508688,-0.5226809148071656,-0.9315819824655143,0.11753490252645832,-0.528475977830175,-0.6598331562989669,-0.9520757873543425,-0.28750683284753936,-0.5569893592560398,0.3300409728171595,-0.45898342969251255,0.9129674667244613,-0.08530615970113269,-0.3665085616512951,-0.2986002881496416,0.15812368687155665,0.5212683101197905,-0.28136811185940286,0.27586723793807816,0.9136668502657878,-0.3160166431372551,0.7701466497133493,-0.24350679578717552,0.24890821672876717,-0.5095288779279891,0.8332602329100651,-0.4996234825811187,-0.4653860768658314,0.4922244805887354,0.09446137678283041,-0.8001399013661632,0.4098259270773459,-0.9361247692609285,0.29659478391026584,0.33496753128616835,0.24066271954284876,-0.018067695494513304,0.40150276783866246,-0.40446517191350234,0.9784192919982679,0.023216900155291945,-0.6859205367425995,0.6286314323843164,-0.4782181469041717,0.5381601166184254,-0.2736723392715398,0.9379335781393864,0.48721613764889576,0.19536945276864587,-0.04238941598710488,-0.7282876206821348,-0.3716474440455074,-0.5978047105031336,-0.9517381381661053,-0.5770595070775093,0.05808171821826924,-0.7573354464813401,0.28508073080664353,0.9938913547008102,-0.10713494886174166,0.2316587325743247,-0.13047643019172983,0.4000287335045613,0.9774544775271483,-0.3592728394294589,0.47637278545147055,0.1479416155267846,-0.05464029905828504,0.7193878160925823,0.09093631059978538,-0.755619365363466,-0.9849110580720462,0.7341871181723557,0.6985214573895457,0.49928667795057363,0.6616485575833979,-0.5707162782073544,-0.8441485118277906,-0.5671302435468641,-0.42770444619050313,-0.7494736410127306,-0.11794102898975779,0.5170299323254759,-0.8521968484735788,-0.5384199288523486,-0.11006121592427313,-0.4396261596855885,0.21566606508788946,0.15707723203965496,-0.887450566028883,0.18552753644167622,0.5922831323560467,-0.9082981844304048,0.9880870236395957,-0.43490571649844845,-0.3287327189295262,0.23512569252946608,-0.1758239821668041,-0.16918987805699792,0.2966116790167105,0.008059149491351671,0.5928825393553944,0.9171461051479781,0.8530461057407788,-0.7325005351449106,-0.5009582347931041,-0.015005457225351685,-0.2842030914959612,0.28821278427166863,-0.08913512798447586,0.028086516275827207,-0.009050112225668039,0.2118205432643592,0.06339495962558522,-0.21578597885759854,0.8205920971846598,-0.25447771000048236,0.31350543294326044,0.6443234014685842,0.4335248837048197,0.24856868215710892,0.6759642670242337,-0.08490951298491094,-0.3971700187364018,-0.23068150926361256,-0.1391277082620141,-0.5297563454342376,0.18743840911905535,-0.9200924400169159,-0.8968755788995199,0.6130916025802048,0.04830982436408343,0.30674073791490325,-0.29719263874126767,-0.20579964368431378,0.7757166919394726,-0.6304142230971378,0.37865660419156066,-0.2778847355642905,0.3929954802619676,-0.8931951852561089,-0.7022566234329558,0.3631864462427973,-0.5226612295586521,0.7068090953663961,-0.05475069782681832,0.33014212578592944,-0.010880541644567672,0.8678737343132636,-0.10485511382526722,-0.7293532907460353,-0.4840426669447445,0.9630863913926621,0.9617414743743165,-0.03094721747503026,-0.4120728217488972,0.4113488613998777,0.22499917850793155,-0.8892421087282096,-0.7222199093143566,-0.553448336054483,-0.012145903127881998,-0.08676560609651092,0.3786683107202896,0.5250730285449468,0.8433084710786283,0.15853917709827892,0.11893417702443217,0.717973486116398,-0.2702650940777686,-0.437367870543221,-0.40955915818446764,-0.39104116620547347,0.08315188848445298,0.8442431597419755,0.8440306832809807,0.4653206538338829,0.04699975658584256,-0.5690409568479785,0.9774075534325827,0.7377570040698973,-0.9645978369924628,-0.7512903485235407,-0.5945982967035371,-0.6966442912373187,0.9111122187118748,0.7381966976949094,-0.9837655667181816,0.30256087217983296,-0.4626032567071742,-0.07736109308774684,0.9232188121261407,0.8990622038411895,-0.48139682440610554,0.12164332077541448,0.12810902407712593,0.8386018885909486,-0.414022423835254,0.7468572114915621,-0.4289356225983213,-0.7023656973568346,0.2513786880446772,0.47654313163280576,0.751190105605869,-0.8111209009230458,-0.8630180264414603,-0.8826390174234022,0.40894527289184723,0.8232881383958858,0.6697807105045983,-0.5857442345602002,0.5756916768344084,-0.3763694320807538,-0.27346350296592437,-0.802585404101285,-0.2673952586553704,0.4551287652841805,-0.7481033633463776,-0.6231745211367385,-0.22646897462008375,0.05741569723568322,-0.1336043357545628,0.5029471595970528,-0.9918512172938428,-0.9541765536517884,-0.9409530940526133,-0.11199963929977945,-0.46518870460349654,-2.2673104371456724E-4,0.6614782292155897,0.5844734114605754,-0.03347874739586393,0.27708854421858375,0.030975403977359903,0.9654335209582766,-0.2696092312391777,-0.6469626817306624,0.5756908551008562,-0.9618495975536092,0.9168343736945406,0.7235315887297606,-0.899576027236717,-0.8078666374559416,0.027731133863247992,-0.28340257720826184,0.8205122187033786,0.6405042247293711,0.8640414718738494,0.9147567117927623,-0.17421290096593928,0.45911365918409675,-0.7267915557420508,0.3093044844545886,-0.71202253639792,-0.16467746918218165,0.49524449793838904,-0.21024491581655566,-0.25358193396985684,-0.10440078175136058,0.4690451096540317,-0.845006130508037,-0.5164207049229415,-0.6585840388969298,-0.4084593354171898,-0.611572262518898,0.12499659696856631,-0.03149478678514152,-0.8467736131599574,0.6574024133959449,-0.5967672048034196,0.14173779556831767,0.9637286603951528,-0.7836454216937164,-0.6828397354500518,0.2941953763474978,-0.48383836485900383,-0.8030735395206432,-0.2036996907591962,0.6036782448636863,-0.5455799265199159,0.12007245483439269,-0.5749516214905449,-0.8574275059554456,-0.931359412235958,0.896787725624662,-0.2291892748295873,-0.9998426694324983,-0.9048584696184702,0.08093057141833848,0.4507130821106332,-0.8468983128630917,-0.8268365695607405,0.15976881710314628,0.16473997337128685,0.17341010172602464,-0.021381924140913517,0.8016532274992387,0.6376275872288816,0.2706690336691722,-0.7223392810427653,0.1466938059952485,-0.34500232114651774,-0.38556601550479147,0.9209311735797895,0.46501426673806273,0.19493326136221908,-0.597474311748528,-0.8481091824850954,0.7994333867571648,-0.9702557131505217,0.7096916423525155,0.48953807523375137,0.5675980158145707,0.11151497772309096,0.8170335690207011,-0.03776559145459218,0.5565630460542813,-0.42377557768503926,-0.594146968438347,-0.5543778874291289,-0.8296539274205358,0.22870156340975908,-0.2261130285415385,-0.5046902153223355,0.39075112697832226,0.0326515701687404,-0.9323926587660832,0.20636243900487886,-0.49922391632240926,-0.6996142929191516,0.40960190549590564,-0.6458209571356335,-0.7037264467479469,-0.9593689293901506,0.7661964443988623,-0.6381255539643181,-0.7521074539011853,0.2123721636612019,-0.6167689886897557,0.45498478104010476,0.8720666109025816,0.5553705220008808,0.7718862994617599,-0.16038290203080824,0.44897689161229976,0.05674296531429416,-0.7284886017652428,-0.38014976143780344,-0.8879522857471129,0.14741568093882146,-0.49582033104626083,-0.2179624070377196,0.3590275195325393,-0.7218526916049237,0.25928606996436965,0.626562759784388,0.061828135940481165,0.6485538625935371,0.6889829014399653,-0.3010509586685065,0.16623015665708207,0.5575827933169453,-0.9087716803590458,-0.5067004534421294,0.4513417035957775,0.08499964192535107,-0.0048711656672879135,-0.02326327515135299,0.9519788144359987,0.6501432592525643,0.8187217140613464,0.3455723045437983,0.9470876902547671,-0.6597374111026015,0.8935507174711617,-0.6925756848615018,0.7740246441146472,0.8675818534630981,-0.6519606294397824,0.679838804497048,0.16103921193582194,-0.4982953035168942,0.01135601985693165,-0.888275397520206,-0.7478546479144804,0.3935957374160903,-0.7169914764435876,-0.6618113426455741,0.03991758614916651,-0.6722104672649676,0.7290981188819529,-0.47447829709727996,0.5448432127081144,-0.8636713571868089,0.0831505250818145,-0.9857381463050929,-0.2390575985300723,-0.22810038794435727,0.26636292315805243,-0.9921936837720533,0.08652907902056282,-0.6955086969747017,0.04385775343762093,-0.3711188913130635,-0.19770590963472917,-0.9517755740141823,0.060949181708497904,0.17594951643219722,0.9970461120029279,-0.5835053738200784,0.10056601460433123,-0.6345295138920009,0.26941884065176946,0.1267716682845624,-0.36646584232656537,0.8916658885406608,0.5126894976568989,0.9237486863162894,-0.025976065952300814,0.7148020508162548,0.153376450804011,-0.8519276778454643,0.7413936312142178,0.19399870189580706,-0.6704501114357653,0.13582583963495173,-0.36136031630407545,-0.6802405112499617],[-0.31303304364651685,-0.9229043686669354,-0.8340570354709035,-0.721913342107486,0.6878450877606005,-0.32231520524945523,-0.01718348634488024,0.028120113624696103,0.31009039866808513,-0.7568172189412135,-0.7380442483920813,-0.8468555503409197,0.1807150084177082,0.46297651071826573,0.6033574383150224,0.6608634299319688,-0.6286319830389231,-0.7194802217149198,-0.805032293123328,-0.8932562324717331,-0.7798072970887387,0.6980822917824993,-0.6041691348402176,0.016121796984431818,-0.518893781938638,-0.4974062752671946,-0.04091216898298349,0.5394677125614914,-0.39609894544861396,0.3959034398889882,-0.7499406022309537,-0.3693285839317106,0.659877718352196,0.9295109619749509,0.0572562908789562,0.7733810176518902,0.7303760263348152,-0.3489807526495353,-0.5660164962253738,-0.9193695989877315,-0.5170890088084864,0.9738996125769454,-0.5535877850816869,0.45035089329424555,0.03597466811323561,-0.6321341198504317,-0.3983994381369704,-0.6174262929381297,0.31974442641213585,0.7779094634276511,-0.6186204827344496,0.05602212998702541,-0.4054904630652387,0.34002085652993125,-0.6956633885299466,0.3315398378978295,0.9968348342949042,0.8451456667354477,-0.38707946073909244,0.3926532630022132,-0.38295357026464294,-0.21172959909057093,0.9458233656949814,0.988529582853964,-0.09701159922590619,0.2973718395760499,-0.8989767126019824,0.441307028839383,-0.0014574950440629018,0.7574812894119224,0.36966716364312013,0.8694059664541628,-0.06660632006902639,-0.526085817214717,0.7603628525887398,0.46149572495567653,-0.34779366801240247,0.47272837270936346,0.019670636395695967,0.04420565076336918,-0.7715440281385675,0.12219768933336023,-0.7043650788632561,0.7056400020619772,-0.21566417192576584,0.09642017843602634,-0.10560383162793081,0.7176425505267859,-0.8093614991765377,0.009110329069934102,-0.21264809822569491,0.6826004765841529,-0.1438563545238446,0.949357185860561,0.2054604049037995,-0.5232364150030008,0.6669459550505495,-0.8902554245141988,0.9702477269562583,0.2783089120146811,-0.6190273404650646,0.6615258589575993,-0.00563727533288464,-0.1997069794461222,-0.21035915422768206,-0.7827547356206682,-0.10968173643032823,0.6830216550847305,-0.7399519745958703,-0.7424250981263307,0.5289982812733723,0.9625728007510167,-0.6238450943448725,-0.8353195524154039,0.9129788356259024,-0.5438044170790212,0.8931025322567866,-0.2541598077655821,0.8764431404457512,0.010560382201967764,0.3912108228275371,0.4835309814940686,0.74909439812601,0.6600418156130193,-0.2977648701496868,0.13418316022421967,-0.6387286630091906,-0.11953149135887851,0.36420983132239765,0.7026686318963777,-0.5053186929906178,-0.5929476828168997,0.30907512361221495,0.44982003550637906,-0.671138194223935,-0.6559003871111438,0.2151729956540725,0.045926345474818664,0.2588593401907341,0.7043112516978494,-0.983644535946635,0.7125375490039203,-0.05346324011618254,0.8709765172374236,-0.5252389337856237,-0.15257606114725764,0.5247693216779097,-0.978499576010555,-0.1522683673615681,0.43557986389394926,-0.5444278277016417,-0.9119851097389556,0.29483724471172984,-0.6353842165860315,0.7118538016114566,-0.5938773808086505,0.7938586120238155,0.6075145903381122,0.621203428606012,0.9295439992511748,-0.7731240584028993,0.30256497739647464,0.09191982379262456,-0.4266354431578914,-0.5473090508303596,-0.3422033754140881,0.7022757493376092,-0.8899765237109646,0.18006443205923714,0.760695917004717,0.5603019244995613,0.8204478807059394,-0.1778825380810967,-0.5132782678769665,0.8402007890309939,-0.8989987721678362,0.5553039521610449,0.9210112411731655,-0.5900199635570235,0.18755726193896569,0.370480154185616,-0.021688600555290448,0.08129316908573521,0.17964143360489931,0.9607146342039323,-0.818354315943363,0.6157788182083004,0.7121294861939177,0.12436699382355522,-0.9349350985547512,-0.06305373462840796,-0.267923107855548,-0.5597478081415834,-0.006637049533221782,0.6987603023958434,-0.8404144025719827,-0.06697402235509672,-0.19338065399984586,-0.2680718473048651,0.403820479871622,-0.27740170013600357,-0.7859438018875438,-0.18974722333438568,-0.8430585079568669,0.6514495275096154,0.5470685216954247,-0.3602538070806161,0.280352010412782,-0.6239514256976689,-0.8243269286143613,-0.9810740331935518,0.05597213964804341,0.40595905527417964,0.6112817780018288,0.6628346356512976,0.6842008057312499,0.3460679954264465,0.2571942756725329,-0.5647165409204685,0.447511147567589,-0.38654763594153196,0.5390864965862648,-0.6270933232125535,0.7265623391785467,0.7926847525495618,0.18981295103266266,-0.8118402348175002,-0.32056282775088396,-0.9788619274694081,0.4315097111955178,-0.19105214105427057,0.28923199437676006,-0.2837937194324077,0.906099488178467,0.8938492298478738,-0.6941530110273656,0.397364251338947,0.34793638619717576,-0.740691624581174,-0.48515149103826,0.2897486332039358,-0.8568400267264935,0.6307546528507909,0.8038589076229975,0.10028124648972049,-0.7018621137710137,-0.684527873603073,-0.5260658328657255,0.3141843615940544,-0.4531281176872805,-0.01787837835962245,0.45092407184287453,0.19309283970003124,-0.19232349675277227,-0.03948652774570535,-0.8870940704632079,0.8127052492092902,-0.39537193290003464,-0.7062607746740651,0.7788329315524042,0.3436395684546645,-0.38419489126905015,-0.9159179012426903,0.1594019691693612,0.14903224452793895,0.08876750101110564,0.6229107450648473,0.43983199756812097,0.17140325630808037,0.46509743482942817,0.18803623388983437,0.0829429284010133,-0.3423006404217493,-0.6688959684561836,-0.4656817972228416,0.9228971619775371,0.2426186321975429,0.5042809030226064,-0.39804728895425184,-0.27497650768358334,-0.8418745760803606,-0.010207146444909857,-0.8005150369815704,0.8979002630863245,0.3827566607730423,-0.6998026632283629,-0.9399619066069719,0.7909982498285636,-0.5899859781130059,-0.28255958599059516,-0.968899069433599,-0.2583949572050462,0.5958792910904304,-0.9684249607710695,-0.034543934704398656,0.8001474489312299,0.8771440001890823,-0.6460831835571618,0.278877307067701,-0.03605587699754733,0.17584488975342763,-0.21220021815416668,0.12484644173625836,-0.3777405883304703,0.7333908964172621,0.9400801677206752,-0.2919768745923783,0.98677069801179,-0.7729257402212839,-0.5159678537072817,0.2615132412857383,0.22081374198575904,0.6139879820535484,0.3492959295657251,0.960988662395678,-0.8216007390146993,-0.6307524973688708,-0.4948407215039737,0.22201216889952666,0.8068045916500935,0.03135164785128772,-0.2430342346460411,-0.36815270703006214,-0.5086082534548398,0.7381678154990634,-0.533977288792426,-0.910312745669478,-0.04923759705950381,0.8956405648970579,-0.2784806936158714,0.6490360843470846,0.6001904423057005,0.983191855936312,-0.8658566354886909,0.06320776922976419,0.8149356251416608,-0.9469028348179448,-0.9157974020337981,0.9857633421819236,-0.10622161024284646,0.5045037149202835,0.06115081943215269,-0.5506043833251801,-0.8310593084610364,-0.621595040508595,-0.44188008187550026,-0.6338431034379015,-0.7256424347657997,0.5943717292853241,-0.11665942027989992,-0.4494843288843129,0.28320303115142753,-0.7163410181474756,0.158356269386859,0.9574410479803668,-0.9063781693866885,-0.29955006901171094,0.8475869371089272,-0.1910791950866864,0.3635856542361244,0.10729163790096612,-0.7515467014412959,-0.4028981883777481,0.055194986251836886,-0.5900947853069914,0.44974175711657793,0.9280800710384324,0.5875858311896394,0.3345928833457802,0.5124864731628773,0.7345917351352229,-0.37995015198808735,0.5372811637328009,0.9111722508928548,-0.5298199806997936,0.5174690530157349,-0.8658496085967892,-0.423237939684713,0.5583569596804682,-0.3489069532305316,-0.166031781404662,0.2822287978365512,0.5737574294479926,-0.12312114795102981,-0.906006997573764,0.5391387853864261,-0.577406195278635,0.7492800072892091,0.590587361850197,0.7917759610132055,-0.8114300965647168,0.38125432810684495,-0.405538163447659,0.12181964843996648,0.10088242213690858,-0.8714533097362571,0.825497179376933,0.4446478724825503,0.6738898964433324,-0.2072695612244467,0.8654667552343616,-0.17288229416678239,0.02497177258908644,0.4733597764663619,-0.7421480255283206,0.3483180624292772,0.020344612860455698,0.7690242710777864,-0.9412214412303715,0.7222705673724709,0.9925942534631983,-0.39721058540799975,-0.24277589687666476,0.8104300650617409,-0.4293074088263341,-0.31770129111621315,-0.6684687334353737,0.16430266081662898,0.42170371957179154,-0.6934098308001824,-0.5987128083323061,-0.36826019295443335,-0.5129896730861894,0.9942258538355258,0.38215210112428133,0.2516942380054622,0.8032674264605308,0.3425581621737468,-0.012723835984330372,0.7552266099897874,-0.10312347273348887,-0.5985504585999621,0.3987372110122835,0.21053170128194743,0.3147834644809422,0.8493713635669199,-0.9724196333128323,-0.3869007379274696,-0.07742338375030344,0.2962500496861459,0.8396696758768591,-0.48619287951231793,0.24965005821416597,0.1503807203555911,-0.9686318577524766,0.2862770153747653,-0.5253714750533343,-0.29067378432955593,0.9734122320312809,0.9301887008897846,-0.7426147684666159,0.2620766223403702,0.21325373246013174,-0.05106434342575664,0.14292797630234114,-0.5947586317857717,0.7070609841024603,-0.6340353163464919,-0.9418726600860857,-0.9316400596712313,0.36682855148787025,0.6020930188092791,-0.05153885117319333,-0.808710784513608,-0.4548821512286655,0.640744207996389,0.609806211174837,-0.5284855910609779,0.0709224698007757,0.6314632662829162,-0.6544722183385763,-0.8568708905714675,0.19774908222792714,-0.9665996089716166,0.3445158524683053,-0.5772292686360937,-0.10335195793529244,-0.870099319341958,0.21335039788699084,0.8055608267758717,-0.26496984148234887,0.826433996367493,0.560365919196632,0.2594995730805732,0.9003900732190531,0.604801290408807,0.25862318510038584,-0.9069360624388775,-0.21917074437321746,-0.3933729364726454,0.48279700047579044,-0.8440345561540915,-0.007516753349661231,-0.041667761315180823,-0.447578868333938,0.9410805129210732,-0.34103222448409204,-0.3946245663791013,-0.8635704738788926,0.14675547750220883,0.45358361855717594,0.3287386908580902,0.5701551392017926,-0.6375568383656133,0.908496601873115,-0.2364695333086528,-0.48734276392452724,0.5241627096255066,0.2407137062985103,0.7699534766826339,-0.4263156146496572,0.09532937844607463,0.21409951844786568,-0.0953311157971551,0.20990007868282937,0.09098653600465723,-0.6694469859711226,-0.7250219709811813,-0.4094765526812347,0.3810550434027307,0.07208268211724612,0.6366469403417501,-0.9879696573799904,-0.9375890926067453,-0.24042998020785564,-0.8161512887259115,-0.10641943391132021,0.10252376778745459,-0.7644271418128563,-0.664046236226637,-0.4665386597153651,-0.9716612173370849,0.5302376749235443,-0.6026311815858035,-0.7953548072176648,-0.18446612647002858,-0.687254760661811,0.9321530873801088,0.5131998269782501,-0.08800824707388173,0.1818310443459126,-0.44923878837732434,0.5595371803193074,0.9198796376918098,0.5288538189210079,0.7515951963473597,-0.2375991958889228,0.2031817267881455,0.08524431375630048,-0.5054937209439168,0.03939046207259637,-0.4994276062725002,0.05123575053498789,-0.7916619213946476,-0.5771938757774532,0.4604460854321465,0.2701280930723112,-0.7942659864244647,0.2590949734423692,0.014423469963775686,0.8094144448293409,0.5238769643500567,-0.4888569979209302,0.3590730104739666,-0.10213234658459987,-0.4175069175175588,-0.07192505848176138,-0.5121238624683143,-0.662335344512528,0.3570694442354767,-0.5756049184002515,0.27521606341588717,-0.855856777564999,-0.8563527030236375,-0.7407441716179737,-0.7182849414898586,-0.523132574186786,-0.5289190794791048,-0.6192141347321234,0.7007937034305332,-0.35561354189484,0.16397946649634335,-0.3826984985571514,0.1428066422152433,-0.5272676515894633,-0.7128396727921205,0.41787419741302007,-0.6033211831057708,-0.8269657459391391,0.17293550076165504,0.13364933388058037,0.5798853510903237,0.33961502752534134,-0.46150953987429943,0.02880900444577439,0.7212365627183229,0.852455437383307,-0.5369116585540717,0.7227502698918282,-0.6946560515806096,0.008048906502817888,0.7927370641861586,0.9467775743667869,-0.08623430775805166,-0.5472433543311681,-0.5353899436288259,-0.7895815200191854,0.7835407806512039,0.15633049325305676,-0.8715953741315633,-0.764816634176651,-0.17037059906035085,0.09901024550677451,-0.39463748706245083,0.9587898619709629,-0.45604338415755485,-0.8554760212166328,0.6360195737769396,0.15111711436192976,-0.10263985872753367,0.9791429556366862,0.6059834514675203,-0.18940106328255768,-0.548948049193615,-0.8965140761525233,0.1463624983425499,0.9650705889732796,-0.209092542198814,0.3370274987365309,0.7350740189255708,-0.3858270389209672,0.45090245212149377,-0.5203653741251082,0.7867522140250233,0.20448834443794156,0.6141758794565078,0.3924920346924846,0.05505239881302905,0.23703322073406632,0.04826650728425244,0.11366968659132885,-0.25779574666669314,-0.5442433806985506,-0.9925634195950288,-0.632512592338665,0.0929607224827646,0.294989116126129,-0.9603517532843348,-0.8105104066627988,-0.08997934535439804,0.2828276557917618,0.09740977128167755,-0.6017187732061887,-0.9396440845805312,-0.4945573361379904,-0.27357863928411014,0.08749242759216495,-0.26406369744429886,-0.7006991204357198,-0.4045578788705775,0.41603688656383153,-0.9920321134856771,-0.08809302498453715,-0.8214224323798981,-0.4616548001388376,0.002048100076886457,-0.9710926299546887,0.016359644528236114,0.7982121983382721,0.018242216219082737,-0.15341343779514074,0.6934320220816854,0.003948071425810949,0.7558799755369571,0.5423570647963191,0.3098135482555988,-0.1116273592230428,0.8796580583311437,0.9402990055109091,-0.8738610002623906,-0.18511914739898175,0.25315463928938997,0.5278905251918437,0.8728274482966539,0.1664390531897851,0.2843741737682038,0.9701931658161812,0.14097846355805982,0.8925063120326339,0.04515308492456791,-0.21705062267161457,0.2588378061629388,-0.7929036725139647,-0.9377402754384837,-0.07126655491908053,0.11584981224484536,0.6214820993408818,-0.9188162527751325,0.7775411634731246,0.5094825860247953,0.14196844577038703,0.4166546839515493,-0.9333335517833381,-0.2551480315501032,0.7129682152073672,-0.0036700524933127037,0.286590929267735,0.4691869072438873,-0.17383255993342944,-0.27143939794394956,-0.7254217678495741,-0.9742973079056144,0.5739614841991421,-0.609577549440329,-0.2982013355491899,0.9614969533214016,0.3785895934802963,-0.12128607354669597,-0.40268391807293996,-0.2553531819612214,-0.8982052771635312,0.3588139073274873,0.10342308630017327,0.24866000224372778,0.3446078250577429,0.6520184720947696,-0.7623821665013278,0.09951083038323773,-0.6508257308480445,-0.00888355864086213,-0.377829165161768,0.5970276763686568,0.10374660416609757,-0.8209123471780901,0.8144329395537985,0.5832674013900246,-0.9903936467558905,-0.8474062852359812,-0.7992840849110683,-0.6132457346819906,0.7822450847976196,0.9580653944716317,-0.7564468676391795,0.7626330472158778,0.1514817760028124,0.24013553537072152,-0.7184163639434543,0.600601582481812,0.32079336736982433,-0.5470916181526451,-0.9562612673118582,-0.8919900123180932,0.19872950228361946,-0.7444447281531807,0.5740619377590626,-0.8563549734135424,0.9446882463647532,0.7871938598581997,-0.602409841627447,0.47575500718232017,0.5281687602978198,0.8618658414195746,0.34826894941972764,0.7740586004076743,0.6530690463787232,0.508226186506053,0.7535246139726614,0.38114985671659984,-0.32106717430538506,-0.2619221006434989,0.43302670457008935,-0.8782511667858959,-0.00941919741167807,-0.04206365198711626,-0.6763592985581053,-0.29493534672679617,0.6052642633501849,-0.019083794259464684,-0.5616701596082997,-0.35918815299946816,-0.20785912521580763,0.28111705815360033,0.3257706120703582,-0.002810239002650223],[0.8149371508383239,0.29757622907147274,0.8729699859934885,0.047723201499432925,0.5085790219350852,-0.8108825550818318,-0.08468207744009128,-0.3288623187198869,-0.6677039791649803,0.6505440651732444,-0.09786551565987298,0.6246410251421405,0.7873431032250772,0.6563966204621475,0.045067231136382495,0.17844208141514284,-0.42512307512417224,0.20514037932381068,-0.5904140244733083,-0.962439958951486,0.24208766213693914,0.03709076427872289,-0.34059396857138863,0.16099555255586115,-0.32348998277785895,-0.40336437578989814,0.18061365898860013,0.9428507730621055,-0.5335862099940712,-0.5558812867488289,-0.42725655441373533,-0.7250313147256074,-0.6599428003414283,-0.15814430630395374,-0.5281042575302324,-0.42151209727618594,0.1763848628669538,0.3542403337078146,-0.2664286357097256,0.02080342971557575,0.40547796562956945,-0.05483423710493929,0.10074589010796442,0.8176592542818547,-0.9959064570791034,0.28066660335800325,0.6639457835734006,-0.2223462624023871,-0.24158973831205305,0.7317372242212044,-0.34586915822041936,-0.9454435057871906,0.9660437685965713,-0.09178593552050011,0.40449356823964716,0.45643841631922955,0.35125921643677205,-0.5209328654601788,-0.30781129183255723,-0.399349390683266,0.593821530679657,-0.5121155300207725,-0.9258079245500783,-0.3052247752492258,0.5790539312020477,0.41462185371026405,-0.6658899609929516,-0.199363001735374,-0.7478179651211873,-0.16903723059605424,-0.3000915133513954,0.05991712322940788,0.7815696464795917,0.6515481854977349,0.10402535251064196,-0.4494866874498282,-0.3643130787466651,-0.2941620320176851,0.4303740046871029,-0.8098026424455189,0.12167390934226983,-0.3655854935482857,-0.5724473061752589,0.4261523064264373,0.9670811531692017,-0.030388802857036473,-0.2232682470151276,0.3238507811012415,-0.40404323150688387,0.6569303787137294,0.6477167784387756,-0.8983470270789307,0.8905893520018412,-0.7515561956427598,-0.9885657187258465,-0.8332312784729196,-0.5541725095807477,-0.4630828524178784,-0.03701346551711538,-0.7286276778546574,0.5812773392735203,0.4898732834898231,0.35486439856312396,-0.46583179802347374,-0.28687531061213545,0.0028474209402058284,-0.8482770901245861,0.7565157714843651,0.07090365596319488,0.20910046955623188,0.09050316892856029,0.7241970756919729,-0.7881194151493636,-0.1257757476134459,-0.5237753160747372,0.9958515122599758,-0.704219132838584,0.7406328387988926,0.22587121627359133,0.05146655807592047,0.6595787816252743,0.5979155217384935,0.6462675721052473,0.6200506363747331,0.8838582103030388,0.32984845751807657,0.8532998674569544,0.5059558412312721,0.2398676099845122,-0.7831708385300666,-0.775682411214079,-0.7020330866931314,-0.8216170909653288,0.37156028615226105,-0.17524696515980714,-0.03261027988196045,0.34602201945488736,0.3394942422472108,-0.6403422019980435,0.55871322202308,0.5148094164946782,-0.3755863950794308,0.8833244369333945,0.9251884248287714,0.7618771380158395,0.17505375093447312,-0.7769759979506644,0.7720908328223564,0.24975295939447473,-0.2844866517613389,-0.11863929311363983,0.15242767373122465,0.046238410906052144,-0.7845586065763764,-0.9590290768557457,-0.0016314772985039092,0.5591208150266155,0.7610320548649253,-0.7817104580926155,0.27373333641218933,-0.6307321154644895,0.624461604029315,-0.901454462512736,0.8914362886847395,-0.4917706652928275,0.42109102843157936,-0.8664518183317187,-0.32119604048940437,-0.4339640134491828,-0.09024082517208365,0.5996987880856375,0.3519017637856781,0.398224384291659,0.20365464844149045,0.9789641025385665,-0.28272787458859394,0.6587038704826751,-0.054535671912830985,0.7676503910265318,-0.8680552011448613,0.9066621378771419,-0.6504485638356823,0.1166980720979353,0.6320304896250967,-0.3894397609334365,-0.0823903691759015,0.06645702290295313,-0.9211428671373262,0.01932694979427984,-0.8927087959364817,0.5633464477455009,0.1678665741315187,0.568449410926527,-0.7365109529267568,-0.06956432785634345,0.22118230480303486,-0.730726174506571,0.7251642332530007,0.019889621354069287,-0.6980723565656337,0.3459116817757508,0.16884075504371127,-0.12417144453295671,0.3820136293490466,-0.715380548487323,0.9772188596147382,0.4177304051604412,0.045404692237407125,0.4148416813501576,0.7032447774339333,-0.610892837394368,0.5264245031023677,-0.8427149326627614,-0.45445996817958384,-0.3858333764870741,0.7566582634669036,-0.8454523304799386,-0.8436400535157205,0.46549329714772675,-0.4687515030127876,0.6408863910533247,-0.9202498543050013,0.37207167042207706,0.9160846189568377,0.6204349374733144,0.6466923135816051,-0.8164639273532981,0.5715551942358656,-0.32163521732477174,-0.7506980367645893,-0.7490193613245303,-0.19812832263226068,0.5895990061845233,-0.42321010662896613,-0.7993181297683236,-0.17428319996813874,0.27858991187170434,0.6156067840927042,0.5497972534709695,0.018241538339108763,-0.8607908384941974,-7.242549564265462E-5,0.5483619311363576,0.6871971812938777,0.24011333689783373,0.6404163965400554,0.9293457771808105,-0.6806558364180949,-0.4792021047838971,0.47469256107252167,-0.38519981686307364,-0.8159030563097879,0.7336037060104137,0.6486345771669089,0.8460616683074738,0.6690055838447919,-0.42219411192268996,0.4696252479872697,0.6913413448065453,0.7963784122300067,0.25244092613956165,-0.9271464382705835,-0.5638123685605121,0.9920052489405816,0.4782313996047906,-0.1026095167856069,-0.02745931301702569,-0.6292140319488944,-0.06528949255914811,0.7917895080894438,-0.024337072629908398,-0.4478413314614655,0.0085881338096628,-0.15628026579989207,-0.6104804133462025,-0.6709191989749925,-0.22834001675498358,0.8903355862776874,-0.4456113913758657,-0.5915368784698293,0.1904997545272281,-0.9426233062566663,0.15386252392580083,0.855000590762732,-0.3013043663419946,-0.34597035887364785,-0.9063278439435902,-0.10731515642723963,-0.517266216065954,-0.7161048990114787,0.4086866276742011,0.2733509670948863,0.09195678545631068,0.12574193113341556,0.3421620664885874,0.5524087259913614,0.3168945767527937,0.9989642730426936,-0.14584951645632263,0.2980732888876898,0.6658481201363539,0.04095462451341125,0.9838513631438116,-0.48931220869324893,-0.764487546752127,-0.3770961432315668,0.7411865524479763,-0.643579731406493,-0.7177712989338874,0.4584151268752744,-0.5159487534471165,-0.3247107654143345,-0.6216967181139758,0.7789228822975398,-0.8891054866019393,-0.31947263365502465,0.6864094711567038,-0.08313627134898051,-0.18097838018857124,0.7602544087638848,-0.4125756791853604,-0.3289857206954088,0.6641926932465618,0.3599320249039038,-0.33451228944386796,-0.5737949666630411,0.7081769931239769,-0.4517710567180054,0.8790928017383303,0.14954063804935586,0.1459256875973662,0.056990908805755205,-0.35100093067028937,0.12234267676000135,0.49131228099519997,-0.6501842137415015,-0.45779750021666293,-0.4689402926867012,-0.3799527402821553,0.5686612543582871,0.24830561221893416,-0.09965063035781475,-0.7207902012116008,0.10152987789384904,0.6278333191565187,-0.24768423789002883,-0.4703607534397324,0.9455716549930568,-0.24578826704130172,-0.1497992803517887,0.5118687058121626,-0.9542403207333355,0.07659645458724726,-0.08210183547692979,0.9131879987214808,0.34916792001666785,-0.9089557769796928,-0.18582462382302598,0.5579176918182073,0.4441908954628021,0.25211379985780613,-0.18130924492948658,-0.33377503895296906,0.35026279361723495,0.23666447948735309,0.8811942260941363,-0.5167423889201467,-0.7401621893051255,0.12991804839087,0.49000511428852,0.23152454756242083,-0.13540327999811033,0.6254380164106371,-0.8491924565126706,0.6315309617793742,0.26631054693006634,-0.09274352794050497,0.3778395026387516,0.5968762549606959,0.41478576982379756,-0.47327711683330415,-0.427463721383535,-0.8619383341980794,0.5167675027252043,0.28578974107605104,0.1870938561895781,0.9867526827454782,-0.07837942971274017,0.9193388918030713,-0.810058117429932,0.01647171382845996,-0.3743960492623368,-0.8157304051360563,-0.02473003489530735,-0.8728986601773397,-0.28813970979522857,-0.13636286014094245,-0.3904053570314924,0.9517687600384209,0.8073755135752484,-0.8508495934296932,0.5735244990419712,-0.5278602932864234,-0.05270179126606441,-0.1187286939556739,-0.9906993229316305,-0.5722726802390555,0.11471682001121099,-0.7932357441734045,-0.10636208300172982,0.2697279438204282,-0.8379106551077551,-0.6491730405904964,0.5145330536859195,0.3259136973320904,-0.17533944008000885,-0.5770443355118013,-0.8057206460882508,0.8468799015434049,0.10421331234178575,-0.58101686155089,0.2500856372697341,0.6240389001753841,0.41440398171868786,0.9298405132381884,0.8864637164148268,0.011085996601151693,0.587274222983291,0.45489101227699036,0.9079541623719648,0.3362409994119364,0.07870473740921645,0.6714703232015022,-0.06806805239813674,0.9321152194948842,0.5308560753420611,0.5313206050509055,-0.8703775751933167,-0.6842290342959797,-0.7744773868657229,0.6308792932121112,-0.5801068249037263,0.399928857570551,0.8988816513479488,-0.04408695501004397,-0.4644456963068841,0.05928492652826435,-0.099740176048421,-0.2097241170823415,-0.619734012843049,0.8368427045032367,0.7233244896408503,0.35793208271984317,0.7233024838858432,-0.8501187320724093,0.5866880839376786,-0.4056554346426411,0.4164538735488493,-0.05115983964586595,0.9136660415180751,-0.6657666130472336,-0.9542764542904142,0.46143900502430135,-0.6784492210880836,0.15975104685908734,0.21580153064111468,-0.6039074074924574,0.043093024418849504,0.16671192196276674,0.49908352085596297,-0.23541776073368026,0.5760398884684185,0.9970094644813366,-0.4862856260976913,0.3651847166791472,-0.19212816668523444,0.6125542402057327,-0.4680527663099414,0.8649685851948311,-0.15534808440874726,0.5035521761106092,0.5850371655303152,0.4331209179694909,0.3600428825419399,-0.7130306965658824,0.10703962674368223,-0.09232539032858732,0.3904530399234379,0.9807941565914459,-0.17509295769339173,0.5949015544457398,0.20001376014791172,0.6331930493294182,0.8248133141457258,0.9788023998550106,-0.9111574878278752,0.4375191491745808,0.4973611657346525,-0.1552691935517356,-0.1687657731767716,-0.007250649523194085,0.43302041858598433,0.6347645850858209,0.8140516925551536,0.9305326725148512,0.2135997690628595,-0.8074626934294045,0.8699255047742185,0.7891949663046709,0.5490458920330393,-0.49758195655511583,-0.6778891915424874,-0.28682497641177707,0.22187511665624476,-0.5017423684248535,0.8056043704318104,0.32345261014417614,0.903608696016635,-0.43094138925409653,-0.9363101691448847,-0.0637697221444884,0.06792178077506476,0.006384631180391059,0.10747901699406555,-0.8034086074003692,0.9364311845979055,0.3029583465348373,0.8788720274343058,0.16182581419455902,-0.3013489125747843,0.9595587748655058,0.8692004275074967,-0.140042602355556,0.05609477463579558,-0.7613952175161427,-0.9780404741871543,0.4597752202553156,-0.4100762597422455,0.186709459012244,0.6956583084495883,0.31121504381427206,-0.6070959191181895,-0.8457858656844167,-0.5468179593396753,-0.6744120561200824,-0.04898703156976387,0.03189902778274875,0.01655112377793022,-0.5652750669594707,0.3577046317672725,0.47857191696712564,-0.14944753970446495,0.19364480384677146,0.5915937940045023,-0.4830274022596681,-0.4719111661971504,0.9943644167960295,-0.17171690810136397,0.055409813304665094,0.28176824569166525,0.7933098336932497,-0.4877991121474537,-0.8781644230694082,0.9597987981418578,-0.20310784821726902,0.2900091956313135,-0.0940228542132068,-0.014175694066402187,-0.8877115161037451,0.793665894799161,0.057447580819820106,0.8551742714644246,0.019038620376970634,-0.2592981513641874,0.11372330439887225,0.2062032491746521,0.22306806203699237,0.8538399805439656,0.4224855847224698,-0.4314923876427065,0.21838220583082787,0.6890153342693421,0.4672042155850027,-0.47969484761610265,0.7235410804124396,0.6381232690802296,-0.8818210151054255,0.16735529979878228,0.02743155371111866,0.06139076573102495,1.5508288474045442E-4,0.6182436405611594,0.06577714830589601,-0.1744514552137104,0.9155690308485279,0.4412318693379692,0.04407928999404293,0.3400292774338543,0.04936272203083881,-0.03712608223040136,0.5108401616810926,-0.3948748570346192,0.5459179513860128,-0.29141717922326366,0.9268818572755795,0.7539286142742463,0.9757141423231109,0.2900853522159622,-0.016835622441829845,-0.8957299720658239,0.19973656532044534,0.6131489092435474,0.19076585532650994,-0.1656299935385306,-0.8307342524766077,0.3850458107567344,0.5751485265226458,-0.9610863528341973,-0.6674318832900892,0.6219032141180317,-0.2638712325090969,-0.8267280699967563,-0.515110883291647,-0.9157465435881922,-0.04170133347893978,0.6457530727623518,0.13054308602447662,0.39257746371252805,-0.4123724570483127,0.6812881549193931,0.727500579315249,0.948657531120902,-0.5319580543838935,0.4821051907109761,0.5494607179243917,0.733377379676122,-0.1224710325761743,0.18555638931437854,0.32546102913515923,-0.45132588608576013,-0.8959674147614136,0.14812925814826836,-0.7117529809243262,0.3328359267488573,-0.43411125388472604,0.6791064749305716,0.8340807007971995,0.8158873613004881,0.2233090640970645,0.5156889220133136,-0.4079456819319161,0.9606118834280559,0.909085566014908,-0.9609502415464823,-0.6191483570688978,-0.6064574641079478,-0.8342769162221648,0.5227659308851398,-0.737338367323539,-0.6625525364059682,-0.8093383564570812,0.5440308493423366,-0.2917834061987318,-0.5559651151224156,-0.417751756503226,-0.890397581994495,0.7540946103851819,-0.6397846111064315,-0.2926592105949426,-0.0018683121108561192,0.9295554696002639,-0.14894945166470927,-0.2801308222690028,-0.6291476716697143,-0.24392472923165157,0.8943783698355693,0.5397509747633928,0.7956230851763361,-0.3582779744030208,0.26151468210401396,-0.5848749905737411,0.4793147820648981,-0.8839145697803517,-0.19428203983435174,0.09229499074727501,-0.2663991583062205,0.5213427878202302,0.9190427961930553,0.0675334176784752,-0.5284235201587489,-0.4857603678017703,0.44882625403335824,0.9273311648297107,-0.09886453561030879,-0.9625952355880091,-0.27462677909420785,-0.6644213696191269,-0.5505505405336182,0.7566288829879764,0.29743228310564257,-0.10190380515712483,0.4686514257243383,0.4229957020212771,0.485162377397466,0.8242428229072819,-0.7251098395566177,0.06909668761525714,0.9052403272884456,-0.9256462515514742,0.679141755216454,-0.48221489277121715,0.7661580189000878,-0.4851033566699056,0.328249118262296,0.28538884618587423,-0.09057555759491848,0.49264730355019576,-0.11119170967457304,0.6394276029033868,0.33595661472015753,0.20146701547816726,0.40049583304250647,-0.6967786014399863,-0.7414014149339408,0.2187739482210665,-0.044512183558546685,-0.9002652620040719,-0.3909483145131092,0.6861409669333817,-0.7133370789866997,0.6929151537339716,-0.6362823773617875,-0.2621659129582744,0.8032814377276721,0.5002800535763379,0.050247304151815296,-0.008953857620867192,-0.8472542769429763,-0.15748542681549832,-0.6311275970645799,-0.81992168254588,0.48424481779118445,0.4459704923044509,0.9847623791050107,0.3482009605111341,-0.7536375824106121,0.5219965816898394,0.2385184142509265,-0.606433097718127,-0.4374138562054287,-0.18659025566060117,-0.23379581669949662,0.23243767597922987,-0.9697837207718332,-0.7439034010881059,-0.14416482812618242,0.3612801281370528,0.12298729833426963,-0.816559957778456,0.7204423797095206,0.16587194496200622,0.28044622032103855,-0.6345304077231877,-0.18249486642525575,-0.021028164123704205,0.24723582431870975,0.603479537299207,0.8484452581825328,-0.4077272944246112,-0.7413362775393336,-0.9095249468678335,0.13750308706952033,-0.30107228170186057,-0.738300432535927,-0.7133566071002421,0.7060118641012944,-0.44671384496653216,0.5062174089055409,0.6669098098367658,0.5525578675914642,0.05775420791236145,-0.40704769958863024,0.39942269871196856,-0.5822801965710913],[0.31994238897909455,-0.2848717927414903,-0.4034616493662382,-0.43687126848099855,-0.47829084335272615,0.5457539010252249,-0.739159661271135,0.47480807860503305,0.510625966885983,0.8679282718268275,-0.8141469192121842,0.9947780078560083,-0.30367716412518453,0.11295959904798394,-0.2203824873602576,-0.47503715908711536,-0.5106499182620399,-0.01448477591520818,0.8737248991330725,-0.4095928962307739,0.694915060473948,-0.9129581980017287,-0.13676246153591787,0.418744953663773,0.2604745421646332,-0.14817451140554255,0.4813726490129636,0.13587700483099674,-0.5379066349000182,-0.5257954622438252,0.7290918569536615,-0.39447346824577867,-0.6088417866353558,0.7391908668290458,0.30749348737184057,0.47677005311206466,0.9573187391522778,-0.022428931465978266,-0.7231461169600183,0.5797352640931902,-0.4688579801545994,-0.2818293733898357,0.5995641822260107,-0.5574104136227283,-0.18839470656680055,-0.9613884513925227,-0.26633339184207494,0.42538822744158483,0.5483253462472762,-0.9006020328362936,0.4950510260937528,-0.2923576002494926,-0.667600301898432,0.8955491009226562,0.05494491070987126,0.23410380781794218,0.8463230363364823,0.8814450901632047,-0.8909290590151163,0.5769491420119143,-0.3414864593572188,-0.22554927123099952,0.011854251442394494,0.6507326170844815,0.950608205622292,0.6054126777471039,-0.00910844926096706,0.23199223938991223,-0.5906615092518789,-0.13331963148967055,0.42514168313128126,0.3057062074927473,-0.08632731279142801,0.4779497882409739,0.6173711853150268,-0.5832007807403965,-0.3743416708012007,-0.7947357561967299,-0.5200144867851352,-0.608116277579549,-0.37451108546748507,0.16301958457415414,-0.8619853193374758,-0.9114223942377676,-0.6699597054556677,0.08049311591810947,0.5642748753562649,-0.8638900237496715,0.583735475078399,0.10846876601575554,-0.9477684271605925,-0.9650550146275073,0.5371236382614476,-0.8638225548123077,0.5929994351095523,0.44096855853580746,-0.784726825049857,0.8112216749479311,-0.970364038418083,0.9687491153110689,-0.9818500101201714,0.7638093881639187,0.24361454272834976,-0.563571621830923,-0.7001451587418787,-0.11530312097985775,-0.4418756821234213,0.1074336758179319,-0.3449732313849528,-0.057104811134365274,0.062324013268693815,0.20675005827933385,0.5702953557123446,-0.6833551184476189,0.609726249831983,-0.26454114953268104,-0.3153782886336065,-0.8588653480113816,0.8740476760490475,-0.5481666493590538,0.07232414493454369,-0.18954182563616367,-0.9601430944833631,-0.22257549783299724,-0.3194720735774382,0.43270783421643166,-0.5432443409423257,0.3385813557073484,0.33583042091721654,-0.42298522907851377,0.894202763476689,0.8723014517628879,0.5707022046052971,0.44631935526351535,0.9153017347128857,-0.6953132625851376,0.9469767463461507,-0.5253811532685567,0.33070803653003716,-0.039194319565958695,-0.48616193767081595,0.27906808458446986,-0.3079528972224965,0.05646044487797612,0.5654555113539504,0.8609875759471981,-0.6568843291282488,-0.1024205677005767,-0.030901931387462188,-0.9775064460644568,-0.31551663472895514,-0.45451482048958697,0.9905353774876333,-0.9336280015696414,0.9942488468164372,0.09409007401639809,-0.23739820362958242,0.01736060774204192,0.39003339210665594,-0.8405253313215149,-0.6795150514882364,-0.15199690319651174,-0.6553243507747816,-0.29700639790766026,-0.514531208062255,-0.5194972321877456,0.5370705771124563,0.8920671706645705,0.7802425425842519,0.7138514875528826,-0.23468807098828573,-0.6629862355961235,0.024291358927973697,-0.37378653449848687,-0.8601132739952967,0.7514461010262982,-0.7005299108845383,-0.4909795222285658,-0.1486460159947366,-0.1447810081328238,0.5699433406283345,0.930810014528953,0.43239625826229894,0.1646804012922542,-0.6027449608107563,-0.8648617437649577,-0.3888393464429767,-0.7949646440902123,0.9067465214985911,0.6599976782303918,-0.37917792522098637,0.6396037150637214,-0.5432825107758027,-0.20689312547969468,0.13633640030361077,0.8317106368632718,0.30136542008391826,-0.7099734042773915,0.8888706688705356,-0.5763918835904068,0.9401045319873347,0.6230056292473053,0.44263010871412795,-0.3329591602099265,-0.1734495572006291,0.9706068752379298,-0.3727857404311561,0.4472067908261434,0.6413494342522821,-0.860684592360576,0.6851753207636563,0.20407536902807735,-0.5745280942304956,0.6477246194092176,-0.6919503461431945,-0.7135050502513244,-0.4724550235568989,-0.6683349201110202,0.43872643779253373,-0.3325445848461683,-0.452164257763267,0.9859926667390287,-0.03736702971003785,-0.5910129317320824,0.23859739159174476,-0.1882429188464286,-0.7727769831353372,-0.22645443709906113,-0.33687074813467505,0.7181261010882607,-0.3000001132885266,-0.5373250333882024,-0.16984502093360998,-0.09645271877497297,-0.9772801124043151,-0.8882531763800188,0.4912463913180434,0.5638109138372004,-0.7784807594873003,-0.13372183122970324,0.8161056062901325,0.04678728958321338,0.8862129776959621,0.6371694295929082,-0.7412018430411571,-0.6556633528860161,-0.22844974244638022,-0.5397118536029739,0.09105244677981582,-0.5983685548818896,0.45736335444771603,-0.7148933734958431,-0.204854261259275,-0.5814080830754295,-0.5416413380790663,-0.5379576712522639,-0.21100099360097463,0.03322863382263715,-0.5185532448289594,-0.7807074096188371,-0.19369562269440346,-0.9089546410985274,-0.5845669563207373,0.5070152050192928,0.6669244352172764,-0.4330969206355399,-0.9225481253672246,0.720278184669093,0.13160247093656757,0.11003893592977432,-0.2730385149040963,-0.9821574024053806,-0.924356678701032,0.6954647445188504,0.9419500257801737,-0.7729249096950626,-0.6849778726155897,0.8945330500506508,-0.42919050420450466,-0.3439553423600708,-0.9265038972027138,0.4022638932416748,-0.8380098702679617,-0.4827740250592998,-0.7071386304073026,0.6166563341692057,0.5215639422388121,-0.8732925766678085,-0.2178626697351801,0.31742454359768124,-0.12691509463813408,0.5697142575721799,0.5456062944508056,-0.21381462756176797,0.46723049343413336,-0.9133105836478242,0.5310705764499638,0.06107302037773238,0.42105403295551996,-0.9101185401792247,-0.4857972571744905,-0.5417984550926305,0.07756030371608214,0.4177278584113924,0.873704172394551,-0.03134155559460112,0.24063665113648983,0.21059914665130175,-0.4008135225413556,-0.30780644100696736,0.26092388043517617,-0.3895489360638973,-0.9656553813472564,0.07724958863214991,0.14044864061049067,0.3846242910795562,-0.41967996415312797,0.41316147649051954,-0.4217125592891068,0.5368179744296583,0.8698879615461903,0.7606057460210014,-0.8055157738976727,-0.030655564898316324,-0.23908170329507275,0.29256536236932473,-0.961705241674886,-0.6438676313147514,-0.08937087558178808,0.8943173545746769,0.9349323982655364,-0.4817044140165812,0.6670843329891946,-0.213396308812567,0.22766094354533595,0.8093038990360851,-0.4598824989071079,-0.07676364949574704,-0.9719448434883097,0.27256927885770244,-0.3884948148067494,0.9637328505199299,-0.7799695370953597,0.6698895470124983,0.9043211927354943,0.732785944038631,-0.8471337733527413,-0.12025429741766898,0.9548853518113966,-0.7427135278301543,-0.7882859505630142,-0.3978650582680118,0.6047659756233243,0.6940163381167089,