{"layers":[{"weights":[[-0.32335533900003616,0.6826267555283528,-0.09687398990352039,0.33883339563017556,-0.20080179483206,-0.9511786441263058,0.5720334805836295,0.9997996159824826,0.025850843982899722,0.9531626265203521,0.9074482946731144,0.48383165948715545,0.14785632892435444,-0.07376429332260198,0.47381478889349415,0.5462466802730673,0.1788197092000404,0.5153695206998752,0.9542623731658151,-0.853135212937538,-0.5339120166129457,-0.6474237958742333,0.6437385849020522,-0.5387578194836579,-0.112585382145103,0.2979242450378254,0.008681546906241,0.8713906592828914,-0.32958741907925,-0.9090691582711948,-0.6058458998634882,-0.16270514309568573,0.38517789199731284,-0.5678825443111011,0.05324954053018329,0.3524880851676994,0.27583444195158247,-0.028832667209910116,-0.7122021273483372,-0.49972733453540835,0.24402596244245756,0.2837870511012287,-0.3184669603551915,-0.4756118139939582,0.5227768259913703,-0.4022916044532625,-0.8386670670838213,-0.21551995770858362,0.35784419906805914,0.7541988767467794,0.9230715993321494,-0.028177662661438577,-0.13694644356666713,-0.28946649091409615,0.166410503653999,0.07142571100938098,0.6281879778078637,-0.27210118275325407,-0.017819862298040192,0.6574592671808351,-0.38459093242429215,-0.6743560280098388,-0.23043784714608712,-0.6516015619810002,-0.5715679341790819,0.06774920709157063,0.11010054220897031,-0.5008310055975452,-0.8747113010749491,0.29376443903692073,0.1559151647689282,-0.45827885164353244,-0.5923605977758372,0.0206406686080908,-0.7185285043611164,-0.2199163916349602,0.23677229196474286,0.4075616178533922,-0.013256324585721655,-0.11097096166140809,-0.2877325907639558,0.42912221441091847,-0.11566380030023646,0.9117377226508255,0.3994368589230707,-0.317541925187128,0.9412118188065122,0.09275908835782645,-0.8136402478408239,-0.3752673767413188,0.11486574935549566,-0.44278342185940667,-0.7625660694192989,-0.03826639788774656,-0.9870712899262909,0.5375093150679014,-0.36611566431851933,0.3916603709974283,-0.7279632020080872,-0.38151648371982144,-0.10809034172203391,0.45998668992446873,0.981708622925138,0.3058926913268577,0.7027758867773247,-0.11759588214528409,-0.3469560929189174,0.10276795210628688,0.9647367168724535,0.3896471376055525,-0.9801806400143608,0.2616172567872216,0.4612137506076341,-0.14304862812612382,0.22688121994687993,0.36003053704658555,-0.6255790731310276,0.29677347533154763,0.8746160336282621,0.9579193761189765,0.24603667902806253,-0.8484944774124881,-0.1884356911696495,0.7240328046893906,0.9578012635462588,0.24419925251723812,-0.4284573328792768,-0.3751325113682161,0.8425268585950251,0.7360542557607407,-0.0791708996189277,-0.9579344514924353,0.12712246025017254,-0.5252418407579516,-0.9103192966569903,-0.9995308228594707,-0.42653310038572056,0.2576368459210546,-0.008287716766855427,0.11085582202473304,0.4022284716110623,0.6735542193460423,0.9352697510173389,-0.7525642824344596,0.36024062624176595,-0.5544515304775698,0.18499043027604906,-0.47103749169223325,0.1497449251307723,0.4898589600721201,-0.9080557934020801,0.7394672405547993,-0.6626236081696592,0.2662445501050955,-0.5479774091278778,-0.03294398286458247,0.3362423579360277,0.422832101994741,-0.7403242826376414,-0.050455948521038095,-0.9186605544348402,0.2104279266535527,-0.9302837445019151,0.3713356335011866,-0.3758026804562679,0.7213606734044852,0.8467644213810839,-0.7895570666328742,-0.9770110991876133,-0.4185536657257643,0.32040208534003695,-0.9054906454633227,0.6247624754400108,0.4231252425233471,0.655388747128338,-0.3940087363857102,0.12575724339443634,0.19613651533214116,-0.45630804645589934,0.48336228682347937,-0.36408251029975325,-0.8296874554270984,-0.2952527768192464,0.745152447109571,0.38629365406574395,-0.6486764801703291,0.2237739458378906,0.910442161697711,0.6801274690696038,0.9357952877513745,-0.8566053513233105,-0.315725754483736,0.2365415983191627,-0.5428172091225563,0.325336232486666,0.7664577113022342,-0.8425677566543485,0.2760068255003511,-0.3223837422427581,-0.2586402760794631,-0.5889668164961344,0.211740080021131,-0.4304609714386704,-0.5760443367167271,0.9497700303554234,0.2761813505525494,-0.5071945925169955,0.48227335501964735,-0.6414856197774108,0.7048651575243448,-0.15644425025266906,0.6735129380019415,-0.7199806364406581,-0.213325558495385,0.08147997709765267,0.6154752316194085,-0.23845708125183385,-0.665352427455368,0.4451521420092533,0.6475956354982233,0.15656549904664138,0.10415003068499812,-0.059059077100156135,0.06256209792183433,0.22958876780367374,-0.09694366317188052,0.3399934166760747,0.7269963926935264,-0.2833867882463173,-0.2786297207953301,0.5820390954051828,-0.03518592884870515,0.7529740603588132,0.806225227413548,0.1572397262501071,0.45817873879390547,-0.7025632366885337,0.28360351299007586,-0.2072034285352979,-0.12283166158970735,0.9692638897149427,0.6681654287750127,-0.9114216508137544,-0.03026207168843145,0.5491654684080804,-0.6154064410177148,-0.39221040587105577,-0.08531190658055914,0.8240974642780409,0.3217010373458732,0.4026477815868319,-0.09593782362680921,-0.5953217661611361,0.3199127778226178,0.9118933132595239,0.09635912216831904,-0.31053974370199583,-0.4896477316006789,-0.23331553143395925,-0.6249976619265011,0.24382200349316485,-0.5388947239593673,-0.8476107364205876,-0.3358993997667681,-0.48220909692612673,-0.8010486792985293,-0.9308456820255375,0.9528087558225139,0.054039011195090525,0.3519667432994224,0.07859941767291731,-0.38032187325540245,0.0991313159921741,0.8774115856115675,0.9446032653347248,0.19169080195913057,0.9186736927864377,0.1780164414534874,0.9615206270558777,0.23176934630730134,0.977099533200661,0.7211850463282234,-0.322208228286942,-0.3064932444449392,-0.3539471392492749,0.7351131166162931,-0.7500369604484229,-0.20310162814587826,-0.8731520488383842,-0.9710793333482811,0.7141109963504789,0.23849930596617014,-0.13045295729892528,0.5348409556858845,-0.9067973905276553,-0.6169604388130931,-0.06869526359006664,-0.21858089947040948,-0.5583703608326442,-0.02993378490313945,0.4298347506410486,-0.823604039396905,0.6875999957596264,0.83345493814656,-0.45408680308234856,-0.272481091615885,0.45117919937641515,-0.8539096754871301,0.3585511459470204,-0.3887466002605563,-0.12303961935718415,-0.22652865123078417,-0.7863206276450346,0.8714121392741868,0.9774017277995153,0.4759236871315606,-0.703813962570588,0.45115861118051226,-0.024622639241540116,-0.10441654935006961,0.607812357689507,0.7485425678129148,0.7032905923797068,-0.46412745647931614,0.6503388973895279,0.9332057309255791,0.23642539917120892,-0.7339733997238679,-0.2334993809924954,-0.6292899133334465,0.6344757788119051,0.282206707936197,-0.6775512009267755,-0.3143388361492284,-0.0797205920238724,-0.08769825659648897,-0.3122887243984602,0.2166114509530198,0.2237397000420952,-0.8422821833550214,0.3193645857764851,0.9233628815726688,-0.5872927989680067,0.460302265751138,0.16593776535630278,-0.8328100353293115,0.4633393753881884,-0.184199046516239,-0.9243559472979501,0.20867198386560615,0.3288880946599413,0.06561912108272783,-0.07126914142583017,-0.24846515918130074,-0.8788542523981173,0.9572681710124434,0.8025499432016058,0.4097640244649453,-0.941662096806182,0.40722153320533794,0.6500149528391861,-0.4053871474185192,0.8185341420661192,0.28522978808346366,0.6785933635453738,0.9801040160875104,0.6801862011678615,0.9884121603483086,0.9063497936806213,-0.5521443372638537,-0.8412516803866751,0.10274152353403351,-0.7815338707681156,0.2123874600141404,0.7190840898985001,-0.47758997152822813,0.6539489320797309,0.6877874448786124,0.5847949114786333,0.5422299441688283,-0.3770033125110807,0.5780627370549938,0.6634209248969601,-0.35814622021554227,-0.7117968830220519,-0.33753236844547596,0.17432488193562487,0.947544098821919,0.4403908928814326,-0.20234363828708016,-0.2999916566095321,0.6966686839542495,0.8579113021271547,-0.23457836516485284,0.05235354511436165,0.4041405669000138,-0.6454153513461199,0.7706520665807508,-0.3835397794299163,0.9033879847225131,0.5111099999386902,0.6311123261559025,-0.3613667896263598,0.9419818853204942,0.4265136280935409,5.063044440413926E-4,0.30680516984608924,-0.404553131997202,0.7345445193278389,0.32293809911761856,-0.5943660621979502,-0.5958495887476453,-0.3970817043269925,0.6456451127719279,-0.16557652617293855,0.8398034702350367,0.4616132661695687,0.9018349832134537,0.3473316914348239,0.4917069149074334,-0.18751209599978416,0.8240315715353319,-0.5166563520239592,-0.8351306874625838,0.6149420421085772,0.2571175225839855,-0.1373705926627923,0.001740252173023947,-0.5221572186356156,0.3182602265884461,0.7667081955129242,0.6792951004989392,0.1631618451338141,-0.41385867432788054,-0.76164016657635,-0.24514424525752,0.7540067009435698,-0.7014069062237505,-0.18573123138111944,-0.6827498514215415,-0.7495243654212854,0.40004108967252794,0.4345205177371285,0.2292308179727086,0.3199131017986869,-0.7938438895139641,-0.9035859840833437,0.4797219189733527,0.4759383465325948,-0.5619480356412601,0.3557890478702933,-0.6035292775279091,0.03749810519775165,0.42379406979683587,0.9284923414613192,0.8285579358753368,-0.10682757020325549,0.3820644772023246,-0.6756637718078313,0.7869106598655091,-0.6916823429682691,-0.12624742512261972,-0.3006355352341823,-0.5114537051414578,-0.20182264972647285,-0.2567909828616885,0.9290803867995825,0.2723279671824282,-0.562647460775296,0.16925825475714448,0.272344611581158,0.4195596163634961,-0.12250992285338941,0.810494612503671,0.9572201716997294,-0.41591474029374526,0.829576181111493,0.45143212204599403,0.49335315882028996,0.20529623372367367,-0.21736150344605187,0.039094049006923405,-0.39808624983001084,-0.9261494144992602,0.34066828220174744,-0.4459791716442128,0.2716523198069039,0.03667886041854987,0.7110201938198242,0.7683878391506795,-0.35927765307666854,0.7222705907318265,0.5994483350691936,0.6174178430236432,0.15794723237002503,-0.8727706923398971,0.05217939746433186,-0.3542804592394187,-0.21794374597432686,0.9076673640748474,-0.3757417754917068,0.7922414728289002,0.8760009899198433,-0.6712665506197407,-0.32432769917161874,-0.3619030636920476,0.8652928113541519,0.9307475865120424,-0.4508583749578279,0.15960648968571198,-0.24851410159534126,-0.7954053472273295,0.9316787858839507,0.024109819041101672,-0.8705418761809959,-0.1755509836008309,-0.20978533760113802,0.5088696913736659,0.4825677639568141,0.3154564532392021,-0.06827358663409457,0.23718777571819108,-0.7749374056899262,0.43493676501990197,0.4607694808615435,-0.9021078389422695,-0.8003845652980792,0.980626602436855,-0.8175417359615329,0.9513452155299564,0.17645971552436435,0.29351115941639155,0.3619271546207225,-0.9705068608801848,0.2500033470931909,-0.7410900285194231,0.13688415321275776,0.28504785406530536,-0.013741079063701029,-0.7148308679711197,0.36926375864871064,0.3845366671283172,-0.32789151965527885,-0.5689402659812322,-0.25456359983340465,-0.48422035526457907,-0.9214332185399302,0.6199754499294687,-0.46664673905274706,0.733984151041589,0.783529207985941,0.7169000980234564,0.5635861724143837,-0.8211261801774732,-0.7233792904584458,0.11929490428546352,-0.2834359248822898,0.17102651783333758,0.8416344859658401,-0.5009199399205344,0.4941684672177195,0.9355285172891473,-0.4968219054473166,-0.6869493523613243,-0.9177507772454159,0.48878722066873603,0.21638420332296007,0.8077923521123521,0.7338414837025997,-0.9010844037319325,-0.08621120986868154,0.37568262525821294,-0.7349245242619205,0.6451896668581996,0.023520401861499122,-0.676673921449343,0.9921306649884405,0.19227034323425934,0.6424801673173982,-0.6108844082788681,-0.466358761754206,-0.8592809479807586,0.6632922333260756,0.6584902464069807,-0.4443613440849755,-0.5706699812852025,-0.1352017044280054,0.9507730930463638,-0.22987328221991846,0.44139612532147166,0.20279603540343083,0.16652601572285183,0.26287998203497737,-0.5077261362410127,0.3696746742438538,-0.3668608049008564,0.5883603722485963,-0.9116827765884206,0.06240121627849268,-0.9470858544351659,0.9688664324350538,-0.5003631406487644,0.3373632743115009,0.30048064554627263,-0.5924205662753413,-0.3840742518947337,-0.06414390184922607,0.02899360543353486,0.5610099819919686,0.5393552111299879,0.5192934508534315,-0.2045499382097379,-0.194933212703098,0.9197538350511776,0.39839263139626446,-0.7248383622965402,0.10004304514341184,0.6492103976592928,0.5077529852640942,0.9914861686784665,-0.03648242596280161,0.20000540578726986,0.14540727674287346,-0.029097397463852485,0.15842675162055866,0.6361959969802556,-0.6947073211514123,0.7381236060150834,0.5409122993546607,0.12116780709626765,-0.6923288187834368,-0.8535130298060877,0.9226562408212151,0.6070703339119798,-0.12586280269000202,-0.31162667972730784,0.7756554835088184,-0.6851878835518651,0.7895273258516016,0.11943022642091287,0.13344742240318988,-0.39916232115593736,-0.12991052848426154,0.5260340528895713,0.15103388210235552,0.8576089193292836,0.06928847861519337,-0.7380147038285739,0.4289530116123751,-0.8009501947732829,-0.7477454852043073,-0.401525105206902,-0.5608060188092465,-0.13576786334591706,0.41834182944180115,0.37571566890060065,0.16907799692976624,0.504763342143205,-0.0338433020110457,-0.5378868245056644,-0.5558669267720623,-0.17985701005186314,0.9730430445634374,0.4135463002494816,0.30392171393175804,0.3671211016089471,-0.6043444171189802,0.35200709278627146,0.2656333947129528,-0.2069069575582335,-0.38836065132478353,0.816432529544986,0.3598295498785711,-0.766966859219016,-0.22699262004054044,-0.9279816798887126,0.39914528472861815,-0.8504952662892371,-0.9221188332989497,-0.7798627852254957,-0.8862730835567265,-0.4833808812224904,0.2539183793699258,0.33252765137110807,-0.49850186645889355,0.9174294680517693,-0.7006376159010372,0.7896023749521734,0.02462134023120436,-0.13969399189772402,0.8412901898926144,0.02483597050888476,-0.8664620190476032,-0.578053715273273,-0.6540990206453737,0.9430505265425236,-0.0036181063690802454,-0.8215585101083176,-0.1390366196486853,0.45101677241276067,0.30457907990089966,0.32583350476268785,0.9669492291940958,-0.2900535585718536,0.5315840200812236,0.8549293343535236,-0.8219195766993935,0.01203544651402182,-0.8622742152102448,-0.28600999045310044,0.1648911269659784,0.5028401957953316,0.8637606046325245,-0.005961746016801016,-0.14278133315317929,0.3653517497140351,0.4773612754695011,-0.6518278853602917,-0.26144481213642656,0.5399355868265565,-0.877577300184323,-0.9075912365419219,-0.544066375748639,0.560069747923107,-0.24028986949722514,-0.2692755312970143,0.24963116370979474,0.6880835587668748,0.10953151357089659,0.02072193617537677,0.6455525366641954,0.14788221519761294,-0.03937996385650752,-0.8995972522796223,-0.6493868586015319,0.9792691129730545,0.7554542032901607,0.7006805612510522,-0.6375911766624802,-0.2042148664729264,0.9525229862026887,-0.9920156608024798,-0.07208098561547333,0.5606176226299888,0.8249063998327572,-0.6455135352270408,-0.82387323477962,0.39042620327758376,-0.9206432216063065,-0.40932709182786264,-3.757885343387869E-4,-0.6617058187287482,0.947186671460724,-0.28255433422747916,-0.9225525179854035,0.1531511890156897,-0.7231239113221659,0.18419712222379026,-0.18936141690512998,-0.9405846468866891,0.52648409644224,-0.9193807850157956,0.3714392585890834,-0.2335431365835364,0.554429895722191,-0.5938661551807537,0.08066264390297309,0.1137988142753374,0.6273046613844478,-0.4284956024634097,0.8853203864411776,0.02666305143395553,0.16225603543328687,-0.6595283262650748,-0.16062940364708583,0.7896381576035465,-0.6189347944958411,-0.4688036656710421,-0.8260045956618699,-0.972985690264912,0.26434620815263876,0.9616489969592296,0.8028099384419567,0.2561043534546433],[0.3838597460602764,-0.07902319808425164,0.37245086421463236,-0.5716079176672347,0.4170664010306843,-0.2741993876252275,-0.9784564041484772,-0.04710963351406555,0.8787595874949747,0.23705373891581208,0.45000206779933527,-0.2297406437737546,0.32354652621211427,0.6906619570276795,-0.8662633112415034,0.4059710774617655,-0.9122139349941162,-0.9558005456846235,-0.7528959017332891,-0.9427195510550752,0.6891196277575135,-0.23674857107443767,0.8720670483361884,-0.5528476282765017,-0.9608875883042702,0.24192612979833633,-0.2685386666841402,-0.40317943315221044,0.6026450617938219,0.9681902990589218,-0.8069206235354932,-0.7864310839688099,-0.6278020080289727,0.8538210814899349,-0.6972988745080119,0.23311177429923435,0.3257160075544751,-0.9697206127466199,-0.3113540633851517,-0.5337507740557795,-0.10234989366929692,-0.15147956287201972,-0.679263140832652,0.2687685694680353,-0.08490384005547573,0.823030085033138,0.3113119455158405,0.6875247023302882,0.4410563857265142,-0.17221041899622946,-0.7823287941594688,0.6316826128177032,-0.9900108847833515,-0.028048175110478326,-0.37358731164640435,0.2735690242048489,0.8576514389670741,0.2815400781701495,0.204786970619184,0.1097675624278209,0.9181630346964821,-0.44230347855141816,0.8483324297637697,-0.10995572664716038,-0.40252560419486594,-0.3992240763949143,0.07831249346802349,0.9717912713958947,0.6328206923225329,0.3649283946225781,-0.580004096630306,0.5638919581774722,0.7067481511446924,-0.4527754923774908,-0.8649108036367464,0.795456695299211,0.9122179329013281,0.6199449662705403,0.39034382288539277,0.5779932513536921,-0.354776538765355,0.37255871458149253,-0.29614018873331943,-0.17662092982101818,-0.9429986803981603,-0.3339520998104759,0.35177968911174146,-0.25739797095140077,0.8048015340124635,-0.7164649778359757,0.30054441947425165,-0.33413910467040236,-0.4847499201190555,0.5178511460597436,-0.8088824074244354,0.11120624621703742,0.11133182614131659,-0.5507793074641458,-0.08337289831549023,-0.3267542188024852,-0.048881874384375336,0.7434590059107954,-0.5847140546304841,-0.28763600539647766,0.5914238942923907,-0.7571477684189527,0.4453934633739572,-0.20498761732788812,0.9069919268308736,-0.38260768270015977,-0.6922585614168666,0.3680916565679636,-0.710539867921975,-0.0822273387876174,-0.24191589603864236,-0.7509916848236792,-0.30602365404445925,-0.009655155678911226,0.6733499093380946,-0.8324521922502846,0.4145183469559658,0.4081029216606479,0.4331929969983467,0.8188444393275547,-0.35685992513438347,-0.17770008541200968,0.43148719817090947,-0.3311158133252982,0.10322910879602419,0.45360490492943933,-0.3495328057214068,-0.8992506795134537,0.34897222196368366,0.8212369969736718,-0.18831215881613148,-0.6035204106705975,0.6786913075363687,-0.2586568623688155,0.2555472886153106,-0.4792901218171593,-0.959519423740675,0.13719663343380414,-0.5858004043781441,0.7069146562472641,0.7898134974283036,-0.7397725991391647,-0.4971791161145782,-0.5596265426596475,-0.29052772151044187,-0.4480848508421336,0.8883495410103397,0.5916216689285645,0.3138566260857238,-0.435034565407929,0.4862240928431215,-0.8253403840297984,-0.8679241695966189,-0.8860916294393658,0.4905927401725436,-0.5123066798102662,-0.5963712877378505,-0.8581411322921585,-0.23724362008142869,-0.7613044784538179,-0.5861199450163904,0.6614861535272863,0.2779645205888849,-0.3325191487157772,-0.43550581394058835,0.5758604697289951,-0.8196132311581453,0.6465617438981824,-0.8074175133857328,-0.8203278804964413,-0.8052688757484521,0.27567823044682266,-0.8589220951399356,0.7094768952240331,0.41390760294229095,-0.41926103399771786,0.13129877632970854,0.4375184182893194,0.8115198666515618,0.5864583406488242,0.0993184523947333,-0.507003409975464,-0.7799326922465669,0.2530947555401387,-0.16614823072097895,-0.15141451202079168,0.9724745622088999,-0.45110679418814015,-0.5151768857219319,0.7190217004554207,0.9181930575189716,0.27833014525447863,0.8172860902794734,0.003620464818363228,-0.8888962852259339,0.1923333290980229,-0.5592349034142315,0.33675189324211474,-0.89636391964609,-0.6215116047735886,-0.32866517481680113,0.8162261341125122,-0.510596205271182,-0.038479893957516435,0.16888262952439406,0.5428058426847314,0.10369011529776974,0.7410365498790737,-0.9594383899157034,0.7308913100695523,-0.8791970608923888,0.5515439011190959,0.7149251626957419,0.3415245428016749,0.18129517724407782,0.8490100223737007,-0.4397506404787803,-0.06349916349002764,-0.36644779418483464,-0.6860570851041446,0.9634792020364163,-0.2268366303321189,0.9973485286226086,0.10448673140717021,-0.6208829592810813,-0.9692669805567006,0.8318449177759533,0.8025175192831979,0.7222522723404282,-0.4984178358240391,-0.6639281945095823,-0.9344495797731198,-0.5975591246921701,-0.9181485965941403,0.21400799324916878,-0.46882209276133174,0.28122428678136135,-0.03990175167370759,-0.39595189328204117,-0.3833786754050301,0.8870707366591551,-0.4686520335914377,-0.7963443962943594,-0.4874504787513692,-0.6719597571447091,0.7490264498586283,0.1095849797429109,0.8935150986481123,0.5230306448375001,0.8854188996380373,-0.6460008723493391,0.6485042208998252,-0.3975508761471407,-0.5197376581296609,0.6296608004050306,0.2818908283008383,0.6320837179389915,-0.36291449013257815,0.2803228365124312,0.5427481744374965,-0.8264539348456807,-0.23484899319689997,-0.7263636529595084,0.31116285110741954,0.6183639490957759,-0.6325008508623802,-0.4193943449803389,0.8052442910723674,0.7213424478001715,0.5397134620210724,-0.8497161499946659,0.7631481588885823,0.3027197306348625,0.4701504062391403,-0.4981377843036709,-0.5796723935094688,0.7070051505208431,-0.5759800282143283,-0.15330120350187956,-0.1845740067555916,0.27325850904065063,-0.5568804165411569,-0.39167113200728965,-0.7536673744570692,0.8127312936470246,-0.6906935739313528,-0.7733602299020697,0.5413780439932719,0.8862468995993144,-0.8043722955726318,-0.7883736848990762,-0.780375306020035,-0.4641964955034973,-0.13038344610276761,-0.4440735719675862,-0.4149347285570416,0.048731456232036,0.31346508861165695,-0.18113362398338956,-0.6684057357485768,0.3186103952930184,0.19261844886326618,0.4634676199927695,-0.6668709879092576,0.4166459641727222,-0.27118085589680563,0.35786318891609387,0.9497563956013935,-0.9021552624467786,-0.7750777521751453,-0.25553380595966574,-0.597351092334314,-0.8592585902289401,-0.2600310852536348,0.4360700855650554,0.5529723152932202,0.6553981620968413,-0.772804738013148,-0.4850981421401493,-0.23385106187618707,-0.2067024471840082,0.8257952368904306,-0.6081723634204456,-0.5489811310964772,-0.3458487150135727,-0.06534302595935064,-0.2759162757193837,0.3336259558820949,0.6085149290098647,0.20093066194814546,-0.6040895985918384,0.5593502482906051,0.741165209608938,-0.38200328576407167,-0.4658516860449301,0.31220098446500916,-0.33062531382157617,0.5564408448973645,-0.6398083006419245,-0.20143724402586635,0.6012430028528839,-0.2598527815789938,-0.42699952924739837,-0.8366668555727603,0.17343909654037482,-0.06866090821403384,0.9123280792987114,0.18956818746783538,-0.656429287013501,0.40415554107857293,0.5696363563893349,-0.5216512564789199,-0.5887955832947483,0.16076742841297603,0.1934753363257573,-0.7857027643757252,-0.8958015934354068,0.28745030330370974,0.37916868786680524,0.5920424055989449,-0.4115424855003066,-0.15477410311082887,-0.2623999844712423,0.5127557871748355,0.24765287585249138,-0.741819161932768,-0.0945652335520413,0.255492356108273,-0.8726263233518179,0.28741183333505405,-0.8106823788191833,-0.5138691845703091,0.0495838965853005,0.3681487488999917,0.928919952687194,0.18745938198456782,-0.4227950340176397,-0.659309943977654,0.11881311189160726,0.8769008084845208,-0.755615024593952,0.4184323277434068,-0.6522715870930387,-0.1748079331728851,-0.2314142982136775,0.6153991355821417,0.6913109420783514,0.8955102191912147,0.31925347954825195,0.7927910768239816,-0.15962988118586133,-0.9047180942245492,-0.6558784905160343,-0.011878571971135014,0.4490126156801879,0.9649169911585189,-0.06089143147595092,0.753761319333789,0.4561469935265382,-0.4761426123589012,0.29744552016579173,-0.14125492501567555,-0.03676433664472398,0.6523830567687057,0.3838800610314264,-0.10244160721065738,0.1433558268317218,-0.4922352651696412,-0.3453590110000646,0.10130096498226908,0.6142396270774568,-0.1410589780095368,-0.6191048387989201,0.9617048556655614,0.7208422989043529,0.06535564830039163,0.9291457417507313,-0.8464641537168606,0.25800417575087825,0.8380718915609686,0.21715257849947905,0.6830919219025806,-0.6968987721671189,-0.11054366739002694,0.48535640791212487,-0.8094266811881573,-0.9647539883595967,-0.8882232910197312,0.5112292996406528,0.8987672522038569,-0.3156805627994228,-0.9794755824865442,-0.5585219907955248,-0.17191559328795597,0.08309501668554428,0.8563768704462351,0.5304422343053559,0.5871058300812837,-0.3094073029173965,0.9615236289025142,0.24518487000983477,-0.7002576039714548,0.4051944878312302,0.826918137096381,0.434129766900008,0.04398661386817187,0.008780567359122617,-0.4446855739631558,-0.4438374600453966,0.5556630604543574,-0.34018005669509266,-0.6083730384824494,0.327182472933591,0.8886246104783627,0.49729811805995366,-0.5567990744974306,-0.4340394347004065,0.22516995445564456,-0.8778633374968744,-0.25421174738706526,-0.4941640435765604,0.09540991369654127,0.48961275899602674,-0.5733007783454472,0.3901520778413892,0.8906755416017486,-0.42077044510931844,0.8755257642726134,-0.22165792058503597,0.7460380576943489,0.09588124021664507,0.5516118135668926,0.6642258766781336,-0.38212353443066766,-0.5832271191607116,0.3429576533254462,0.2449127394536761,0.698653965359566,0.01251678318539996,-0.7643857938329612,-0.023162857710476402,0.18658422315490777,0.6523789783640057,-0.5390570786221208,-0.5826857116850087,0.867445975321901,-0.15426952085287757,0.2589986727184578,-0.7271970727433796,0.968712842690628,-0.8234574782892794,-0.07035447826093251,-0.9368805876104729,-0.6905375215130218,-0.5424060974325211,0.9387674742697836,-0.14170674986189039,0.8976264081220009,-0.043428720504700036,-0.49583287058999237,0.6560171649764247,-0.18615792973670395,0.3437740888085948,0.3078421973094035,0.14262303998414017,0.47560432274474695,0.46326897267587924,0.7640271883360398,-0.18416335585814902,0.18771893306591644,0.5475790316133509,-0.3826767725341087,-0.25298708593203656,-0.737143660406029,0.07646442220801242,-0.4453678592440665,0.6207369928635248,-0.0644766341004229,-0.878355245870941,0.9842968642428548,-0.8845469200887254,-0.20520021653464204,-0.272166289112254,0.17049773986858005,0.17369078948547545,-0.4745669314887253,0.6422183699213195,-0.49586962234945975,-0.7412006541002543,0.372972795852483,0.5403993410383461,0.8523608290784975,0.30827840147574115,-0.059543983169391634,0.7863090877044117,0.6483978117587055,0.7660885188633185,-0.32645980259252577,0.7189681935639267,-0.3342173417060698,-0.1865269011021272,-0.2932173716760599,0.4772973863153622,-0.7317486052050293,-0.2846920288582837,0.6204195844564627,0.4531592798532632,-0.6660987352643445,-0.9370042467641666,-0.9032647442725968,0.6078498107876964,-0.9767401284862972,0.6157886955450503,-0.5333220234644005,-0.9119646965860667,0.09349018081315218,-0.5696382698586546,-0.2987098607979786,-0.15083120571593275,-0.44249131220176713,-0.9828308330909863,0.531430874026677,-0.6779161951297614,0.14488776691510882,0.3732378533377568,0.0664140250318086,0.5512518555103653,-0.7588948643824281,0.9149495201532967,-0.46454258941059456,-0.311150113168951,-0.2337452426722916,-0.4301477845545923,0.5900084695260389,0.2454215327198659,-0.20083967731007404,0.5876446138209477,0.9821275474835803,-0.9195393468818073,-0.338278549772085,-0.010845603260641318,-0.6267075669167173,0.7543121791158697,-0.3522176165086682,0.9972130137071524,-0.4706718466628801,-0.42746099372115887,0.6155158924108316,0.28005546694925065,-0.7762632298626534,-0.5808762929230294,-0.7424954937831278,-0.6140371319932008,-0.2039669282380543,0.30480325167963934,0.019974569980760377,-0.6404439234165457,0.5028620417210925,-0.5496113534827521,0.3647275554798228,-0.79691787925956,-0.4491836971212972,-0.3211271606125898,-0.6502939106580035,0.5847141870240542,-0.9846739804402194,0.9102673267095669,-0.6495478847378572,-0.008054143146101212,-0.2743866852893546,-0.371633962256384,-0.8486308870149293,-0.609532569038469,0.6353190495587299,0.33641569047597486,-0.3912116442767037,-0.6258615440112791,-0.7975913883132761,0.22102916579764761,0.6193273288880733,0.7758801512689845,0.8633518922667001,-0.4889833744040374,0.2228165397260568,-0.24044815044761406,0.8157076652794767,-0.6506542474461651,-0.6718820257961458,-0.4771308505457696,0.011529331725528643,0.3872095284296839,0.770233687012638,0.9177277044064942,-0.4825118361087436,0.7675093299722102,-0.8092470082244486,0.5276516695196309,-0.7902228969396078,-0.3226574126816508,0.5782339483548826,0.04233083769783216,0.15040051115214326,0.23458668948115294,-0.7847886270364793,-0.8686415761069202,0.9312291655536239,-0.8866788361526623,-0.7522083334536144,-0.5584933511778595,0.7726976387108433,0.018032479012268385,0.12713188642612103,-0.1707846520227371,0.22960864574901738,-0.11478374733338642,-0.23153373869446653,0.4879337372331278,-0.01744769269734043,0.5192650695628597,0.4308151944385388,0.24308216552985099,-0.6150196863117843,0.2660160633993797,0.042445937571278354,0.9590256360627333,-0.8155680796760736,0.2757859585485351,-0.02222310939624187,-0.2604204956627609,-0.8460335246264058,-0.06755221074520476,-0.8594314374132621,-0.5964276591938166,-0.7542400174929886,0.10044938848304193,-0.38625900721603074,0.5764902597364179,0.3177484871499286,0.9860520021953215,-0.8919837166274395,0.6643545555703747,-0.5132150557696172,-0.3861534212853803,-0.025453812538311076,-0.038811849240103224,-0.274330825058218,0.1862627857425489,-0.35781102029122486,-0.8082866368435363,-0.5501209592598475,0.9275394066527587,0.9997487134193771,-0.09855674424608053,-0.47325932427978096,-0.6005998306071071,-0.5390342685849391,-0.7208798270653809,0.3939020128855173,0.7380932459550865,0.2369439635661288,0.23503240993238336,0.787655393859613,-0.22478259122484906,0.6840687316098331,-0.1442755567330284,-0.04163277251129052,0.5866214596591135,0.5043959984298361,0.7178590519331517,-0.8098276686596693,-0.34392602680293427,-0.9539900974523786,-0.032901466017256915,-0.05655720722146935,-0.45531183600780245,-0.015710026684149694,0.5551462513310638,-0.9958943749077457,0.7271370478257327,-0.738971165469567,-0.42345889033392936,-0.35040306876182,0.08151940132265036,0.3152211071405978,0.25714856171015155,0.031093492843824618,-0.5833499524060114,-0.6382865695473767,0.8218657761533811,-0.2756699897274252,0.37302637630252566,0.7560407339301461,-0.7960150804235554,0.7145825360259319,-0.9479320013400151,0.3299553440501551,-0.6416107220709921,-0.040456716965695014,0.8085622656627629,0.9900684581781066,0.8012125017206603,-0.8881491504880423,0.7824481724121829,-0.15772645852131145,-0.07726003249954334,0.9863062048339113,0.9541380513893944,-0.3598409298972547,-0.3916794811694047,-0.0786330483287144,-0.2286283902897222,-0.5528094385381419,0.7472267245822124,0.30959748992676683,-0.27120980397360284,0.06512376593710248,-0.6754844583733997,0.2633907036636107,-0.3279992351076221,0.9982224929186188,-0.037786788195809794,-0.36718529127583843,0.0540653284871153,-0.491649393750837,-0.9859968699396885,-0.5921438382212513,0.8898369951377693,0.660800221905854,-0.3844496088576332,0.9134905095232733,-0.2673928366428821,0.16844817376849774,-0.5463223124967708,0.14517860096438115,0.6416277173410379,-0.6862587928215443,-0.5569484469510453,-0.9033493046629997,0.81336930145563,-0.7391564324697537],[-0.006885716691808756,-0.6831949324126303,0.6647137050971302,-0.9775147220039975,-0.02840556863460723,0.20301043245744319,-0.35620662724910684,0.7498770375925738,0.9400465012053456,0.15283599055447364,0.9030349141354891,-0.5541860383677724,0.09788651104999918,0.7804517067044248,-0.9234056843904377,-0.2878127420980786,0.9148676153993972,-0.2715574424361523,0.20638788705623895,0.1394048352421763,0.24394601204702665,0.7712661219006313,0.6803284953043908,0.3100749177394743,0.6806893353653364,-0.7158879331680705,0.9238662649365728,0.9672175424756774,0.28556503785819215,-0.3581123163172979,-0.3263898782499815,0.16284538261244694,0.34931799500589905,-0.6212897480448439,-0.24431190554818005,0.2493354383907321,0.008687196207094476,-0.7303048137317089,-0.04899034744649192,-0.31128058147326476,0.20881740285928907,0.8879413526115625,-0.25109878727916324,-0.17191838619607638,0.7615037440924624,-0.3528805110187489,0.5759172349886352,0.026191661606741547,-0.9383841274678743,-0.1460286598917314,0.42989876558819673,0.814994895994816,-0.5977534310636419,0.8789753493513116,0.7586842281785157,0.14034148827807394,-0.23210057980965051,0.1936653254093884,0.894854023394991,0.15186360427740295,0.4869100580213951,-0.27160390257525774,0.3882951879114998,-0.5038993892266694,0.1893313987608023,0.773031971878095,-0.8233341733339256,0.6174616389926497,-0.8573485473254938,-0.528630985044224,-0.3097614489454837,-0.8178623644880918,0.2283248282190353,-0.14458774171889394,-0.289994341098141,-0.5860873248216955,-0.42768921020556944,0.3165040433795503,0.07912778362720323,0.8678338456054061,0.15919714529761644,0.43269522274901223,-0.7849599221024385,0.9651897936929935,0.6352357852917577,0.14825610155195673,0.7776464924856363,-0.5236253106391413,-0.054944051445454126,0.44508955275359047,-0.1814209524317948,0.06024029042894999,0.44970052850481224,-0.14856703540307958,0.27108731425310184,-0.04378851587819948,-0.2632710257807603,0.3991920538735859,0.7346511654512603,-0.026321742212108874,0.46185604675471403,-0.025912796183160343,0.1681852799136916,-0.9657176661877178,0.2488012272647267,-0.6087335829699979,0.32376765144032726,0.697287715573849,-0.07213423428914595,-0.011561703246728457,-0.46065657381831177,-0.6662506341783032,0.2079872802410107,-0.9563189060152512,0.8517462085511947,0.9146427885708835,0.2523291710208866,-0.09504976545801992,0.30111477185736607,-0.2611169721182567,0.5692844884806332,-0.6373689069518829,0.7680730789242959,-0.14829497979061168,-0.8693872133492695,0.49984057794624626,0.718165280725718,0.3895525750007438,-0.3051965750280193,-0.9759130594541627,-0.1759749663275266,-0.36348288475594936,0.9388545750016304,0.9126273811745506,0.5932258245218085,-0.8107821350358289,0.19179384228303728,-0.9026076489463949,0.8516361885449607,-0.6995691282231525,0.31734893414016113,0.8712673114539814,0.21444835445624957,-0.7920478654522876,0.6028017831098957,-0.2879497061938786,0.5226404865681552,0.054293255619061266,0.3932898080647195,-0.6959664571210502,-0.36843630735691396,0.8643045243223544,-0.35351636157281957,-0.3221696226762255,-0.09140325678015537,-0.028745296006767833,-0.4131740986515378,-0.40599069677738997,-0.670063607225645,-0.7318618257263914,-0.798515019572078,-0.43535951472527684,0.1623626761314574,0.7105288894643957,-0.5525378940054158,0.23606074494622442,-0.1257608129091029,-0.39232062304559645,0.7303204558555685,-0.7501392580659154,-0.8592766968217648,-0.5865460479196151,0.4639770562781804,0.15236182265924744,0.59066931676833,-0.03648522782216015,0.3381808867194922,-0.557779306397523,-0.7106325083277582,-0.5940837612141732,-0.7042395411397122,0.4254082025400855,-0.1409930679503836,-0.5679990096699062,0.1617643793694949,-0.8117492731796527,-0.3906064614429441,-0.16107134396597964,-0.6314875784349403,0.7060886589414775,0.08452767003004234,-0.058313478858464454,0.28406280184161703,-0.12898526480507747,-0.9730634555588201,0.900819349880153,-0.7189848911803647,-0.9460309440689098,0.919583469317359,0.6442621685480152,-0.13106379059406018,0.7070979337703938,0.9850412118401719,-0.26634618286994705,-0.03225447084214061,0.468755928677948,0.806427630488453,0.2646016050690528,0.7132438868646814,-0.748812002194436,-0.42105640844538916,0.6865723806921536,0.06287158909259791,-0.13047234875781996,-0.5901739978681727,-0.7090270450797908,0.9093463090960724,0.9152915007858219,0.054651109574338746,0.03927625794232915,-0.5889049180093633,-0.21921624227220804,0.011586670942441962,0.38932857746834354,0.8147555806581043,0.010230150511540092,0.9911141085563258,-0.17245498783897253,-0.8305168750916305,-0.5182485324628856,-0.5642061840280808,-0.07586841848686567,0.023855435507714646,-0.6820558614988019,-0.013184722356905123,-0.09490559764648293,-0.5520856478077555,0.87813492288677,-0.4237717681702761,-0.03147696099235636,0.5369793815724871,-0.29834808351543285,-0.8298810304890849,-0.12696788186452068,-0.06900287778410241,0.853211496586942,-0.90451473112476,0.6869186793064389,-0.17759954607020215,-0.23757365655972307,-0.645085829630186,-0.9893383307790551,-0.5717907548414438,0.35624165374359024,0.3664234797614644,-0.5280313283277398,-0.03441485077751943,0.04907362225499398,0.16058464804903913,0.8401637457242696,0.7972098226003517,0.9863510319662426,-0.7735370742171594,-0.2798444084487655,-0.39706197830784107,0.8301325322079005,-0.0822116404231116,-0.5419789867960522,0.1856518448359026,0.3292572036483445,-0.3855004292828401,0.6275973663108398,-0.16671854091857852,0.935297109043225,-0.3203261861696168,-0.7337570480684044,0.03689517085195626,-0.19488338935652824,-0.3386277756542012,-0.11092298358457196,-0.1965555630542041,-0.3264467918205937,0.1585572570571875,0.2350800033735569,-0.1958052783142633,-0.7153600065504958,0.30353770851000694,-0.3162155240561114,0.1634295237899243,0.33723619430808544,0.9096821997965832,-0.6679243864309959,0.8204409122943653,-0.7678396774441655,-0.008958036266454672,0.8298841396220372,-0.9140519044404566,0.29834104651047477,-0.4192358768790029,-0.7516322167190099,0.266594591955982,-0.36715595949637037,-0.4406372501484945,0.4910407300460651,0.04579923193061613,-0.7942000034202982,-0.4513929140798431,0.055631878771493386,-0.31442007241184095,-0.5383658557976706,-0.1642647451187305,-0.6825850439982771,-0.9456189054877762,-0.7088432325076269,0.7629583501276859,-0.07282175827773235,-0.013410181364345282,0.9527734467244162,-0.9494345558628616,0.4045247080954562,-0.45483714282308124,0.2908342384712133,-0.8821463160727848,-0.4448457560694967,-0.6149777837570414,-0.5733790738992863,-0.37623310190088405,0.9523182287879125,-0.39561366539556103,-0.007663922685278011,0.17058073784254227,-0.6029692217540337,-0.7766682641518436,-0.06787467965138508,0.3964197033056065,0.006996230257156656,0.7432563622234372,-0.08776905908762093,-0.471275097719005,-0.6161010112924108,-0.8819775359965418,0.46264181891355644,0.8784347241056104,0.16929967819327157,-0.09353755308014064,0.11435141412062794,0.7258616412667507,-0.7759935256412072,-0.6212743273613112,0.0030538020601843323,0.5821588941838477,-0.34863053131754274,0.9126989941592528,-0.32467979122440244,-0.09418221482853407,-0.06608280263968683,-0.8561802698760952,0.1658442534076011,-0.9876315962935195,-0.43495018420885206,0.021783281661089043,-0.1947241104161905,-0.8643070947971931,-0.2705088622246959,-0.8219355009538584,-0.32636951033597145,0.38271920594446524,-0.17545518266017693,0.8245277292894538,-0.8677092301743528,0.6687995845375723,-0.08888096971862644,0.7784520476027096,-0.5530525876096226,-0.3702401672065326,-0.4533183187265562,0.15044867282382696,-0.8425727446932575,0.9767922713721704,0.8744564887200152,0.7324408093306389,0.5539214850720349,0.7936924655169251,0.3307166639566892,-0.8119550919681693,0.38871304855383637,-0.12808495365695055,0.880147701345775,0.7743293757787211,-0.21963382199607528,-0.6631412985247912,-0.6990101370487362,0.5135511277135558,0.16183830470177674,0.5394304432269913,0.7152359681264515,0.4852280849254224,0.07794238803201085,0.4704417541260617,-0.7044885789372832,0.22354287185934413,-0.34480726914317034,0.8008588593998536,-0.12060091207835821,-0.9179077786335404,-0.35164790275095176,0.05938552067993888,0.08299944687695929,0.8667127190655599,0.10765312362342977,0.4283059589817402,0.42852634100571,0.04043948775423609,-0.0793077989707102,-0.8248430150214604,0.9903751637150651,-0.6315366155750833,0.7450061198986768,-0.17142092950692023,-0.8926326515556073,0.9963418391049681,-0.8190777971497798,-0.13142888847250536,-0.17434896473349545,0.6473658274643823,-0.5734393168919211,-0.07867666124113776,0.9071786881029199,-0.12600611345193083,-0.8897314335138115,0.23088458244959448,-0.5233608427640615,0.11475546265091607,-0.48445985970155353,-0.473059070233076,-0.32251531048462634,0.6827798980903557,-0.009052364470646853,-0.6851186589307869,0.06981299130578209,0.7549850228618948,0.9836114010360392,-0.9129069392415544,-0.07321367704113987,0.9289054507219158,0.8361645514910915,0.9849652181776474,-0.9287156798060886,0.981390917226934,0.25709458438307636,0.03847856596068342,0.4452653638137945,-0.9105434954027704,-0.7958816116165301,0.2688090585787249,0.2137977156004562,-0.03703555195274533,-0.1881609464123966,-0.34153854588643723,0.8811903363549919,-0.9089548996540295,-0.048608045743867075,0.2782298206561648,0.6313223368999702,-0.38247061279186956,-0.9745076558154329,-0.29550013688029036,0.9045335163277974,-0.7597689712707143,0.6851230653780397,0.2708825767361761,0.08436038814559678,0.965091410188778,0.2937232236956123,-0.33406643530259517,0.09012206995305976,-0.44965580896916685,0.1714965697608561,-0.07614700537868054,0.6597769865754483,-0.9602465130277367,0.9202690193948367,-0.048984795690408735,-0.8458927694656819,-0.0893399124210123,0.4580266418159887,-0.6122663689952471,-0.1733742752055259,-0.9474396385686056,-0.21354683060688703,0.8269181019660105,-0.3244945950325215,0.04271592106774695,-0.03204402688846604,-0.8068787040638351,0.231554664415264,-0.9981279323759812,0.3089240592546523,-0.566322787707369,-0.06456087371057118,0.6880508209507641,-0.6767667363266162,0.5778682481673134,0.11596971742028506,0.42639286938032567,-0.30606542559728966,-0.3056712690042483,-0.991053709396794,-0.024168478725123094,0.1567521571048933,-0.6913774733568326,0.7391864416567467,-0.5031760850533968,0.9951445252759745,0.4385529580942237,-0.2606899829827994,-0.5879232669026088,-0.33183420492562266,0.5632961355613842,-0.3114314432004437,-0.8595823910609768,0.9832811033215971,-0.43742104425622846,-0.27008303217374396,0.4378930376841919,0.18345549440559597,0.9468315745612581,-0.539922715451478,-0.606828018332396,-0.6658301252485678,0.5432020399117911,-0.01532640634686951,-0.9989766639435183,-0.5248828846280755,0.21076270534440653,-0.8066647448630969,-0.3217701920971396,-0.8536943732356408,0.13027623227362187,-0.6673651572858167,0.0877819514609109,0.10164396325576676,-0.2539499278793664,-0.05786733211414926,-0.798408342697498,-0.7088165278356413,0.5328537888597551,-0.7342378702569731,0.6581714931022904,0.522811632402059,-0.5802968010818721,0.36410380591160857,0.16319220785852873,-0.3921955517375903,-0.07692506895661674,0.32567471880584975,-0.06943254923232225,-0.7510032642553317,0.8250273789347193,0.21213928656843206,0.9774462423803278,0.4473620415655113,-0.4232034572002975,-0.3288666432726855,0.46283885679186415,-0.21597158879491826,-0.48201579478120055,-0.48872971500917456,-0.8001727776426548,0.5769893735827569,0.47141733097486554,-0.04086463357086942,-0.027412932365166304,0.6163384281506996,-0.6933368695587439,-0.19783195216621935,0.35336929660906014,-0.05050433548094184,0.6611211217298276,0.17225424251781163,0.3435711793133741,-0.9811068371541675,0.16661106839157222,0.3351480588910548,-0.6497597477445373,0.34651695744293853,-0.7509970839051275,-0.47522822659429864,0.7625367643147755,-0.08604224641257889,-0.14841911509662167,0.5977354738344801,-0.293662729512505,-0.5944488890646494,-0.7205867788183699,0.08223007040073399,0.43353460040591446,-0.4378534665382327,-0.22979902096860133,-0.9421448794326217,0.24063526021989776,0.03468149161973559,0.36651359856275406,0.22436045704564586,0.8129594077563791,0.33202224724531154,0.19850830422832308,0.5058969035022245,-0.5427896754342163,-0.2737914921910152,0.38250527096454157,-0.414045327599666,-0.18941387492689926,-0.6922215485938156,0.3978679272035818,0.8775828866513641,0.3034319252562549,0.7747703259244916,0.025014443316429887,0.6093554522295086,0.9056458977237822,-0.0035568660299084534,-0.2878019166676121,0.9430904006419952,0.5021092297529895,0.9099160436148935,0.5837006603505192,0.3386988234307639,0.6173751512882314,0.8865553694750338,0.20926343219280744,0.7412761101282859,0.14998600428822967,0.3485070753187393,-0.27360733899315054,0.5912891451610347,0.280367224959946,-0.8787025230707837,-0.0591768640776797,-0.8552599720976581,0.7788455841967827,-0.22419161777695634,0.6246355849218891,-0.8629093379757478,0.567070299483474,0.0410299987762396,0.3904224419056427,-0.5614148849459212,0.5772211375275893,0.2650584968882547,0.24120075662018797,-0.9789759010755233,-0.2954345158409364,-0.14572674574154712,0.17853699444122956,0.2931016061294216,0.9630616057111964,0.6391710844379827,-0.9036529481901887,-0.3411645143081653,0.8299600742126776,-0.8054170220161588,-0.4033265182320433,0.01653797985104541,0.2072842164008598,0.28622620022314305,-0.6643429319797374,-0.15989201888183385,0.42834592939361604,-0.1801581056113649,-0.9614228457132089,0.4674350742317985,0.30018918132489747,-0.0655467590296228,0.419812839472519,-0.7267877309761674,0.3035022757038164,-0.7841798503465128,0.9028403457288983,-0.4868836305269711,-0.2412422530295524,-0.6047071453657009,0.2545819045781958,-0.19933859965055925,0.019616789035903522,0.35574412310267367,-0.9679394173732123,-0.5868674261937493,-0.43186093824851,-0.2175868786703772,0.0840038311815333,-0.0773489718820389,-0.7341937350110308,0.37938244561273343,0.2626432066422664,-0.9871463821264168,-0.04755185726792367,0.2129511546247402,-0.03592556174387421,0.7572190164662406,0.0844535450978942,0.44619395307324583,-0.8444730223295953,0.13134424834353114,0.1736934684028497,-0.49734481940363634,0.141054210138221,0.07340494774330143,-0.5892043154011894,-0.47924885685237595,-0.5255671531745332,-0.9786685499580233,0.04821551768809703,-0.14291291363664874,0.15043394622745568,-0.4723894345686025,0.868672346109766,-0.6501723473478568,0.4870452016840993,0.29024922531287,0.38194900081903105,0.0722781662128212,-0.039838882461421934,0.7372120098503024,-0.7331662746580174,0.38670959836495444,0.6554314071985926,-0.8393814811102495,0.015807011335370918,0.2488601531367574,-0.02238716307766301,0.3247342557008607,-0.25707441421331834,0.9227866436352312,-0.21166791370448973,0.45466249090915595,-0.32207801705208816,0.5289365731117539,-0.7611905017878325,0.5633093006151817,-0.0018181011868431398,0.1817957324525746,-0.7760111665713587,-0.8148377379388071,-0.6618254418797243,0.8635420778664119,-0.3970937059026666,0.7587861127059933,0.5702405127761394,0.637361363750523,0.11585749356764728,0.13678982913039525,0.2608239599195005,-0.6809468158309976,0.27141800986326314,-0.9997365135861588,0.588817381833833,-0.6907850141616314,0.38920402736277643,0.31782103285144125,-0.5521510266529778,0.9274531725319999,-0.550116971602115,0.409936874536703,0.9573901711252233,0.2966499621083055,-0.5596025050947341,0.6684402790688343,0.6725374256296518,-0.40717834486955673,0.4769655101281243,0.5288670873730774,-0.5900838350455041,-0.6924612079391846,0.14848396527160806,-0.09436387688437549,0.7948090787378731,0.05829776311698435,0.23805403230556763,0.969423015417371,0.38641959347539456,-0.5580290476002236,0.27175222738810195,-0.10918610434426472],[-0.5573684028551336,0.18335836542655845,0.9649594471433918,-0.8305065074705731,-0.017019578092721973,-0.20649430747059744,0.3974352105365346,-0.45034821472703496,0.3537907954086703,0.7733353740866052,0.9546194041832925,0.23312279164971106,0.45980271387337857,-0.7046430222363838,-0.33180933332237533,-0.44686786776250337,0.08822936728732164,0.6697314653229361,0.8317889161844376,0.24428684007297055,0.7356318390633496,0.9224104928961099,-0.3603906505562385,0.9368459697063882,0.922653869807928,0.49309279050522736,-0.009247578467870535,0.6643706563058792,0.37988454519991205,0.012733923895708812,-0.7813832988662534,-0.6771967455787041,-0.9935348551430679,-0.5327178565071453,0.8043614319141782,-0.6038916576462426,-0.9169769612795861,-0.03807939808482917,-0.5057052445304816,0.20290732374834874,-0.13708893920271595,-0.2289685529117156,-0.3349074676881961,-0.5795085134607596,0.37098035190102413,-0.6079879412558644,-0.7332283354972247,-0.29306386383728955,-0.9934811340751686,-0.08288170278102067,0.2226578878079919,0.8695061462300752,-0.6226061567877346,-0.8043483981497567,-0.22350683217349637,0.21620251156718706,0.6845521822469305,0.9791171328277466,-0.049250181221681476,-0.5201216452173751,-0.0685450123907795,-0.4742052555603264,0.01676225286499862,0.018617194991439243,0.2505816184606124,-0.013609727370449258,-0.3241608513312035,0.8729458212018117,0.7190001390870258,-0.6990717231801811,0.5120248284201722,0.6999689471059086,0.17776417514222506,-0.6925462404293589,0.2008721699457847,0.6063852191628047,0.7749484392805406,-0.7033659023138654,-0.054931091790077484,0.4670896594826642,0.2196611715284187,-0.6580206247141399,0.656535905771377,0.4425838847114259,-0.9354620673245122,0.39326887022323676,-0.4842753565535212,0.09811575197315046,0.7265484958406169,0.341995430091809,-0.2868708328016328,-0.2204801733395947,-0.5884776136918702,-0.9495183402288035,0.41390777649445215,0.714982083245716,0.6248065840417565,-0.31782657458123664,-0.7144344037845611,-0.3110589462925757,0.5309090692354824,0.5786923880175884,0.28995097590102903,-0.926154823583316,0.06749635595356092,-0.5999348957285318,0.864591067496989,-0.49245470490087506,-0.5759015289649525,-0.7221687573836957,-0.8951622989863885,0.5682778288813064,0.26359222562014173,-0.6739566297246639,-0.8931154376515158,0.4263360725805855,0.8943532332574972,-0.9861677904996657,-0.756637290752969,0.6410161064742173,-0.5060062144364653,-0.37631465160232186,-0.18316710631166483,-0.9766855009873358,0.4401838818454145,0.302826173617289,-0.7272019224746672,-0.2008439888156334,0.8219413278385228,-0.9393100455110395,-0.04708258070812476,0.18518681838033055,0.2847826499756847,0.4738781617661553,-0.7699044803899736,-0.07159690483086716,-0.4943182084511694,-0.1693328818316031,-0.20862906959722036,-0.6370625627372807,0.7989261021809124,-0.019970645954809112,-0.17967138619119466,0.10160212715878321,0.6212900581763104,0.24627018694023367,-0.11988626201538774,0.607058894867783,0.07554107544983568,0.4283446848417593,0.4091535941238478,0.5767108303085852,-0.09674316389109788,-0.8763743839212965,-0.08451100914243864,-0.6727026530553271,0.9134723199604374,0.3991231101999291,-0.8077918133879141,0.17986284414115292,-0.6890205000014923,0.17887753030098938,-0.8250586305711839,-0.7774164128083225,0.9683946707981063,-0.3754416791875652,-0.5758487370655354,0.7684054151563844,-0.67145426768571,-0.7433328867628682,0.6382350992216373,-0.6736898268307505,0.3286790019557842,0.5973307777729859,0.09030439966157913,0.9696845137069884,0.506050402144722,-0.2888029196290396,-0.5699437805278149,-0.38785036453040356,-0.726099802187763,-0.8208897626566912,-0.0965627264921929,-0.10958125834571564,-0.7500728525946047,-0.2399728069238653,0.7168849837228768,0.10607333911523413,-0.525932977204852,0.27974037176468597,0.00886819876769808,-0.007601087398853355,-0.6297046333907542,0.13095760738618828,0.6908557173125301,0.9494102582215181,0.3870102197734043,-0.823029603348078,-0.7196077084332402,0.8295633138828116,-0.6069170139511343,0.8223987217244696,0.7735686814523342,-0.6412293547346651,-0.8878607016905284,-0.4526342523592054,0.5900001456940431,-0.15822024179592062,0.14465859117464394,0.2972734812506736,-0.3276157748919502,-0.07235167719459228,0.4580465717542433,-0.22147031411786955,0.9341670167483109,0.9008567125757702,-0.38299746856867767,0.9311835546389051,0.4223718995624286,-0.7845770858802152,0.48199481744921674,-0.36697473986244006,0.7994929549569343,-0.19626471700925419,0.6209026796905295,-0.965295220842256,0.04644203384667082,0.06886925599108452,-0.7410025492638412,-0.16563916219379463,0.6506309513335806,0.4086070598864241,-0.7646522563476518,0.2704799350921732,-0.03340142976932797,-0.37857746509038237,-0.8617240953453381,-0.3548910125026983,0.9230451989757308,-0.3911689654245704,0.5606195700146369,-0.21480234230967324,-0.20088365333588817,-0.5841955586380326,-0.7549236078687712,0.007891472518477625,0.40376315472581936,-0.15967864709719218,0.7831053484511568,0.8768705733017248,-0.33359402523340653,0.5948974011199153,-0.514624072679436,0.31906468081112266,0.38265809688679714,0.31755847925209296,-0.9404316030186374,0.5177818661867052,0.6585213517783046,-0.39334274441017775,-0.1883775921260757,-0.5941783389939824,0.45720973950951477,0.6934347100140718,-0.7713966164503098,0.5531368515275782,-0.42316790630446766,0.3679236881277517,-0.9929729242734268,-0.22323203085581728,0.3734928186141279,-0.6614589522102546,-0.14268103212300198,-0.10381843543737147,0.5929938599504286,-0.6673068473869045,-0.25369367300820517,0.7163013903960231,0.7861942421233361,0.9347943692767418,-0.3692801790105309,-0.4603916325503667,0.9559128042707067,0.4103630333101765,-0.8089552217694647,0.29353139337241824,0.32078554475875415,0.5793304086219845,-0.4079032948176588,0.7040684292912947,0.3794082064603751,-0.8214014057594596,0.8766734192324324,0.8551056751637348,0.8198941048262625,0.09311868814875432,0.2415790148879865,0.9435447590562616,0.24348371990342313,0.33693625973189456,0.14978780368319103,-0.9266173831161598,-0.8424268773626999,0.7303964096990763,0.0012110154172254326,-0.47166742216315577,-0.7579996269981458,0.8457572637136705,-0.08703159587800588,0.11940285289619969,0.5038129163108268,0.9839760334229742,0.05431602239081849,-0.07398898834182005,0.6097848846102418,-0.3034425336509345,-0.0646698947188021,0.03150947286277365,0.4220856339135226,0.6814282988547442,-0.933531634146169,-0.29999488381659145,0.5613806109862703,-0.241796150853462,-0.5137236325672438,0.8495223765081596,-0.3171143199515155,-0.9320187960458305,-0.20345684340717457,0.6470459849585237,0.07495634213976367,-0.3550487320134606,-0.4495453329040805,-0.41497689433532226,0.17596158919583343,-0.9290877415823485,0.10514591970740611,0.49303420391801583,0.6538202318564045,0.05143849766507525,-0.6180855260740239,0.5982845412793961,0.8043894334147369,0.4413754915299348,-0.6313581353811347,-0.0318753181614896,-0.8016578649934422,-0.5002280688533862,0.6547214245333774,-0.5486475946649768,0.7425600633348167,0.9682273277968957,-0.1938491382845789,-0.4190461124247812,-0.3789016130314635,0.9441805318472026,0.9683964065834461,0.8085787634258098,-0.05828506725120081,-0.5402486190346542,0.727723359653086,0.9127056510500796,-0.6616667313597198,-0.8213424508211908,0.9658329489132705,-0.5456700378706495,-0.7345225893478137,0.68855334025342,0.21142975667700437,-0.2488546650522089,-0.7297761024932496,-0.507331526760663,-0.1787004981059781,-0.0017602088837641527,-0.8620076952849047,0.9943976135649422,-0.7831813350295762,0.8846919972554792,0.48268927594737576,0.520246729625073,0.356535940784618,-0.6615624203163337,0.08781568094264353,-0.25901230629527117,-0.35693702870116584,0.8773483185835352,-0.8959700505212306,0.7280814645770464,-0.4572078678576023,0.45308066171751177,-0.9297243027951848,0.32155651169366084,0.3393012100507131,-0.3555887260667942,-0.35124672737429047,0.4876247996599821,0.6464879774104736,0.5904278373118045,-0.04887704592461094,0.908850355064153,-0.42489955180145283,0.14943409238666763,-0.6184294198161977,0.17652564490938885,-0.2236949791150127,-0.5723494782238717,-0.9659941044552869,-0.35556329588505725,0.9786801302096849,0.04262907369979832,0.8543736836907374,-0.7450236734955573,0.08973505685639102,-0.7309007346119193,-0.984785026858084,-0.5367272656326464,0.45112650050844094,-0.4386627969755313,0.2490686214839232,-0.23806961274947094,-0.5834476236834335,-0.1462457686998142,-0.7522821614286881,0.24807043453840852,0.06374288451418957,0.5123264318607388,-0.34109646385366615,0.17681498037334534,-0.442625658159551,0.8427422038039496,0.6980061736099843,0.5094756853960961,-0.5529241133100876,-0.3431774410282884,-0.0587484538770523,0.0917971390754473,0.014858642054736294,-0.44317732366981405,0.478096382619163,-0.7130548611472429,-0.32110920248518343,0.31821017038429394,-0.7253669877522317,0.6401148154830163,-0.5844835729587355,0.034383215503487774,-0.6642902604142328,-0.5342436075550506,-0.8208125507850133,0.5328272096479922,-0.9472267894931583,0.12567420359005652,0.3798321482072286,-0.01986806737862786,-0.014608042789750966,0.20551817962102079,-0.38005860439765154,0.5641705117729201,-0.7515326827092141,0.7992278581339902,0.09861595299500182,0.6748917391664404,0.6633912603540565,0.6754062942351848,0.35746147633187164,-0.8991705833229853,-0.11984051271213542,-0.7734781705080774,-0.6267064418380309,-0.583249721783053,0.7890711427463809,-0.20853029096942444,0.39512261917981917,-0.0415672461228791,-0.2860464504203785,-0.8063753110085793,-0.6219393901891472,0.5638840308889077,0.1157857331851827,-0.8486152359059126,-0.61567678498101,-0.39406233384727873,-0.16606242624586334,0.594837704212958,-0.09842616740973986,-0.25061106769162333,-0.7461674572607248,0.8618101383346461,-0.3285570404801349,0.33657829869693534,0.21359613841348693,0.2484408456101611,-0.6738677608048212,0.3384257958512404,-0.05149942269607647,0.453849160344707,-0.10136296513223154,0.40378410873871473,-0.07888214187051205,-0.9143913997007074,-0.8979226949242238,-0.30200918399976495,-0.004086552051919706,-0.41821254091040583,-0.8336707750092147,0.9423732175498463,0.09148984474342335,0.6578320500556909,-0.024773332768707284,-0.6504165623772099,0.1794528453161408,-0.299542222275472,-0.7349575239280041,-0.004695827477722774,-0.7019812299906936,0.4080906354515376,-0.27479570156792277,-0.4248203969733003,-0.8902823136083986,0.4166113584574383,0.9846375087818999,0.4663931776472543,-0.543698877668426,-0.3488373336169411,0.6723954441954053,-0.45328885229878435,0.35061822455623404,0.7094644267107093,-0.9914600661129406,-0.680784618191851,0.8933375480171263,0.7083833434195991,-0.28848498376231085,0.5494862420487048,0.7147118040104848,-0.2840451279190562,0.4009084525399213,-0.15750328009707454,-0.28547243089854524,0.14201413604861526,0.1292622279406584,0.3696756985878191,-0.8898091769921589,0.2757112435165486,0.19449077608050605,-0.6975753033121466,-0.898391955674401,-0.46516837204251715,0.964322774383723,-0.5835627242050536,-0.1772385995382477,0.9313729065545097,0.08698429431952423,0.8020357857821967,0.6740163344598273,-0.2400967660053392,0.16712271447504712,-0.3512585963256293,0.6149279963757429,0.579341644863374,0.7538116050282084,0.6681511715171982,0.5468716589555692,-0.8138062119172561,0.3174482204540043,-0.12261187769438461,0.5256092962890914,0.4663887832598316,0.7849165796805743,-0.8140133334398238,-0.7820618128458036,0.7649853686629098,0.15751256910606976,-0.4875916850911827,0.7529122518975896,0.7273935705812189,-0.2463802620313631,-0.9980503799775297,0.9168214358735008,-0.5572723531460401,-0.3015690192570139,-0.6737707593257127,0.5027745806885788,-0.8405017058623642,-0.5748088318130321,0.014791011692704545,0.5489283704636759,-0.154572669081182,-0.8420604375430668,0.3029518124370596,0.18652100629724291,0.4281325589378478,-0.3869567801939425,0.07547203508604754,0.8670778551690784,0.6799654539973828,0.4869581224288947,0.14388280644019785,0.8497605058484932,0.399952383565533,-0.30972353512368517,-0.6839190990743207,-0.9963647034077938,0.797663708942418,0.7430788103627116,-0.5001290821489813,-0.7841388247066676,0.7983129702464808,-0.7355429635906136,0.4280707892472337,-0.0041264868929541225,0.3653711538397257,-0.9313651055474119,0.5005848540265229,0.22651997370697288,-0.1236550798610867,0.023432461759301842,-0.28983676195902747,-0.562489965136041,-0.910569248273093,-0.4688591944340731,0.6510764166197417,-0.5376545939440964,-0.6968907645732877,-0.7400411495887033,0.20622147717092001,-0.11093811589069266,-0.06220223706918655,0.5840790518613124,-0.3339660465754343,0.32629508235996507,-0.04196803005977368,0.08294933137287229,0.7533778815992935,0.18000083024028324,-0.6943484757393102,0.4056225410034612,-0.688097082225687,-0.6273202109300533,-0.171021051499552,-0.17676580142996992,-0.7392284041709052,-0.7646027162805478,-0.9302326725110531,-0.12669649823238457,0.8272931663649734,-0.3352984950695349,-0.29067081992245264,0.6415451990728418,-0.9608024458371783,0.5599489937549976,0.47707401778753095,-0.5676437321247688,0.9919565582900641,0.5431508194267594,0.8892521782758509,0.8466317704971339,-0.49804830381382714,0.012142550918803804,0.312531872993161,0.6154629334893142,0.4145732480965144,0.6892270600249955,-0.463406493444403,-0.0687951620804442,-0.9427974800517308,0.001389257521741408,0.29181071025055955,-0.5280728209341218,0.10980316802782927,-0.1357719223070618,0.9626139416347456,0.8336379213498577,0.5122270362836967,-0.2590218339614126,-0.876024983061291,-0.3361661846314432,0.9347622107764094,-0.7910795453558371,-0.5319968982696509,-0.5667768909242689,-0.19020004938768845,-0.31040365357068156,-0.8104295378202487,-0.5127327186496112,0.9553701475166172,0.4854397182866539,-0.03568821363281148,-0.21335464311755978,-0.5829887825363665,0.8142748324364155,0.27932934179915914,-0.42383267325124735,0.31280108099633874,-0.8555105531012647,0.06629406733212043,0.11372922726400028,0.18688163659309168,-0.19247282672554916,-0.6611490689420634,0.5467270156021022,-0.33972033535061197,0.6006314557167102,-0.14972318642197172,-0.9599900176123729,0.01309099756171302,-0.1084137524956462,-0.33534068417911095,0.3403028864504976,0.7408341357185318,-0.40136825674362386,0.974144612326265,0.1042568729009231,0.09809244734854176,-0.6575547763658723,-0.5032247228639717,-0.47768638556792314,0.17588934829458386,-0.9465485872681172,-0.6460643234186687,-0.9615931792570462,0.15495360369007455,0.36655695433231317,0.4532505244318581,-0.7047683818187402,0.035303090913239354,-0.7532051723065916,0.09254228096511773,0.8279211910102624,0.3631330156373183,-0.5369970032983983,0.7519032678579519,-0.5166524588787653,-0.7408066505376634,0.7631877086225654,-0.14408859001282942,0.06050858040390292,0.3988170124582645,0.9040132158880542,0.6646625001584884,0.24719895960917268,0.5016088528404216,-0.9519179955974347,0.3918150987365578,0.5706867929803966,0.3597130714413094,-0.5334507945841244,0.1497493564998564,-0.21460338696417705,-0.5333579886763228,0.9710343300667105,-0.6133650589259512,0.888158803965345,0.9047373315367638,-0.9523894794870204,-0.893166200829949,0.7815028001349347,0.30690330656107123,0.2766581971296095,-0.6444234476770015,0.4980434675928567,0.4293414719046444,0.2966943489561449,-0.7989162706230194,0.854406898664812,-0.8445785353744043,-0.6936602521789376,-0.23854960997139182,0.4203912203005023,-0.40394459141324035,0.8973973595345767,0.7006567207069051,0.7691644885699562,0.3603374584453594,0.8732952608752022,0.05745174741148049,0.11704028572633852,0.04112243034887017,0.6314606028262775,0.2732977448166956,0.6665224351123038,0.49317446710401286,0.6736929255278784,-0.15099766460218228],[0.5772080707256018,-0.1418866312738859,0.18768327587926062,-0.9307217781238526,-0.2985923033540238,-0.8826777284352069,0.8705551729905403,-0.8165505745160041,0.7129348937112804,0.5412804745128051,-0.1358622154327569,-0.07739705732348401,0.4747367396161547,-0.04031676094737588,-0.028078736467600948,0.08516136796917445,-0.19110598620945973,-0.5424557044245164,-0.7794456479519891,-0.5734378539785777,0.39608146161809127,-0.3810434907235653,0.8099358848060959,-0.9454844124315223,0.6909910870508189,-0.2822254839896563,-0.24133633874823335,0.9186361403984511,-0.052645530535659936,-0.4394930256336819,0.44070352087480946,0.3659148647790763,-0.9586960130596855,-0.7648096717632838,-0.1639713961879565,0.5640099762553512,0.9404489339416182,0.6316981140502682,-0.49239843177049897,0.48673152990082,0.38664675565539797,-0.7274419778590231,-0.9311460668442387,-0.8888035633632274,-0.35656603528162517,0.7296972976167593,-0.779658116408581,-0.5063103189769057,-0.9948253412079388,0.7014673968080913,-0.6887618336535063,-0.5287050614948846,-0.8272980587863956,-0.3145825959108611,0.8206538147454547,0.8791899792588638,-0.42850945766807225,0.10647205774962094,0.15597815291744868,0.37820228974211473,0.22106982315639526,-0.2539414842779768,-0.2704281582399927,0.2551036423448256,0.8604394261009239,0.3668966413835288,-0.5976847176017218,0.8880119265684867,-0.30765263033570195,0.5393490955505761,-0.9280760799591957,-0.03799463509918907,-0.6700973499085698,0.8490640243591192,-0.5641440324249477,0.9750282600493292,-0.6875377757067386,-0.09795624861415472,-0.22688387937240803,-0.908368247895545,0.9029577077124785,0.8418878635121265,0.9661419449460125,-0.017446617254982828,0.787686633196993,0.45569450575559406,0.9236510147406127,0.9302588427238144,-0.23035106259542762,0.3684534127362317,0.06692229822897215,-0.8140306688327441,0.5801334380627189,0.31241396551063694,0.6066920941267576,0.3310840880620002,-0.47116903496623425,-0.9933404798713564,0.9647730139070488,-0.7738398683649387,-0.12912824310098356,0.7934078791618856,-0.11613721130007976,0.02307829977991384,0.49014714879925364,-0.1485665335531519,-0.4789499582245967,-0.3290374991034951,-0.21900550109010422,0.5432236716991868,-0.8651740525413977,-0.6355619151379099,-0.5432895718887685,0.25157824724818745,0.8527168816872048,0.46237518553581647,0.42087474129646363,-0.07767308544600401,0.44562195329804916,-0.45181577838442494,0.8086307277646496,-0.5460561591987882,-0.9627349914828603,-0.49235453388080586,0.8381072203345225,0.06106733072743912,0.2414784544557574,-0.2320474187855245,0.20779351332781124,-0.21225968833181458,-0.6529927512623913,-0.8283536362178179,-0.5658283329379484,-0.5424160487057765,0.8590095043163257,-0.6483750280922008,0.7441187574383418,0.5218436002382079,-0.04179373847262649,0.9287137346157875,0.9203948917761116,-0.49731247280400287,0.2534601097192566,-0.6293579437508162,-0.15629871867860784,0.02788996051901945,0.5801021130428422,-0.06854506604068022,0.3833463455309627,0.8143775162269157,-0.46397660622039416,-0.26708450675621864,-0.2408858751016219,0.3819627815464725,-0.050552161341597665,-0.24539434867861828,-0.4699144712263227,0.7648902046074048,0.5367391710717156,0.2669890829993001,0.9621244778925906,-0.9623219250641835,0.6355794047184935,0.07158320190827365,0.6834802365247206,-0.9169585376187505,0.08821334733858173,0.8054211147081817,0.25923672109201185,0.7035147184829844,0.10158195282561519,0.5215192961839564,0.5979986452293414,0.9147362632544831,0.22544794233282206,-0.22494728241488612,-0.049694517339050955,-0.9428277614197653,-0.5333364606525594,0.524798922297416,0.6662622287322046,-0.775610309000569,-0.002840370952858511,-0.6978995528718202,0.850574279592516,0.429784647270819,-0.08482215126092037,-0.6953556232204866,0.5866039938949534,0.9200983261383143,-0.916205355782517,-0.6601763234891246,0.4963688451673617,0.0927525809584837,-0.802444200698176,0.8727845884915026,-0.9379519597738804,-0.41458006339825243,-0.08226965133403066,-0.1734563949199254,0.35489843116672193,0.280135641996412,-0.8315206862707091,-0.7631485187557067,-0.39905688334563333,0.20047857666919205,-0.4992614710820158,0.3819404149646669,0.3583554817299385,-0.4207553219232775,-0.1924171001341677,-0.41256039820378465,-0.010359208666330872,-0.26467875979396643,0.6142351508565846,-0.4506964459744985,-0.41733624353068294,-0.1776278846456336,-0.33200679681448164,-0.2774169198929142,0.5073748739064662,-0.0018073911360589883,0.6175033185320051,0.09167046565086924,0.39119954860566836,-0.8875692446295145,-0.8018801860845315,0.46744587601787674,0.4539118066044843,-0.37824924719893177,0.5292673697752057,-0.6504268988887129,-0.13618745635128957,0.11532132325309198,-0.11818187987987737,0.34710724128376724,-0.9399783924300241,0.5697978251808596,-0.4121153226785508,0.16825076795252963,0.8314276016839635,-0.7481666912971155,0.6424185867176575,0.2701644253182225,-0.6487548432258863,-0.9524870423757271,0.9854777238302582,0.4021649687390468,-0.6635163416967703,0.9218526196690637,-0.5441564958801824,0.48105714542764666,0.03518798254263275,-0.8020867157102212,0.9713720082787902,-0.49548019088004763,-0.1602887301284114,-0.6061812587871287,0.6181325590909718,0.538849483669999,0.982745436857841,0.46742512310516426,0.020068206011340833,-0.7902122584296123,-0.006653078134781495,-0.5079321406754784,0.6127119623682856,-0.4196959279041231,0.3734446372355949,0.02326811673332772,-0.7409035230947126,-0.1831747750850235,-0.6987838415174481,-0.284959738868972,0.02273771708732549,0.6251711545214779,0.07536526254477777,0.10563843044937142,-0.14783075740964258,0.08064509058791922,0.4859666908025195,-0.08303990490312047,-0.5663313935001061,-0.8188191538480343,0.3296978937449374,0.6971941214999058,-0.467375405081673,-0.7796535566442029,0.8837682831413038,0.18612443954833852,-0.2282798504003114,0.9070590171616398,-0.6893122031192074,0.3931336917727073,0.9829729808237992,0.05135444999971726,-0.3131990388378459,0.052208747480029724,0.023081779062404398,-0.40914099133459786,-0.36920048711222686,0.8542057499397065,-0.7445846962249447,0.7495844127864286,-0.6461592485125232,-0.3442238900560072,-0.2203863311078123,-0.7981876803807356,0.36168306339774386,0.7256596974105214,-0.07124691000006864,-0.7447892462750527,0.009162994951059579,-0.9875194095337979,0.5559740767893875,0.27326083485749264,-0.35872995704900634,-0.5948740900676865,0.1972893550073243,0.8243064513351129,0.15032387921668464,0.005086108464519946,0.32381851592874633,-0.6253933177492339,-0.5628557546820874,-0.4581564937874679,-0.41344604816722486,-0.2643845600020718,-0.5151747946358278,0.23586640741254844,0.20818189380683622,0.9301424284247006,0.5366816921416169,-0.3495612113891609,-0.5083921910484144,0.6607047352207411,0.2161665275055358,0.37224837272494504,0.7912776112759833,-0.8577227566615501,0.3340681645513245,0.7217669990332866,-0.7671049372735865,-0.2949632028695443,-0.4004095665336102,-0.881280925459198,-0.03058734027838593,0.2774891433012429,0.4847941238201513,-0.786129859803324,0.8252350555348095,-0.3720834001827234,-0.9122620194542691,0.44747285668259307,0.807840660281668,0.07229544570325921,-0.00232063813679881,-0.6942704688116029,-0.8448837954337632,0.2491417796409693,-0.11336277405015832,0.22086837074605933,0.3391837176016897,-0.48267649506267074,-0.16528337588999265,-0.2035329206206814,0.7614397121783941,-0.4501140715368273,-0.7578507809376824,-0.16162591026156828,0.7506453535888015,0.7772958736389575,-0.4105746253973347,-0.46665270919959334,0.9155781611262344,-0.5237849232254941,0.27755014619217744,-0.9590564636396944,0.905364750327051,-0.4953350357609605,-0.6864431788056874,-0.24928935909181982,-0.8046328315359348,0.952367796907897,0.7021631489649011,0.5054992528925809,0.6431378386576269,0.3047368879199576,0.06274723547031535,0.20310251586446587,0.24880014150451674,-0.8879443003504229,0.21144133195751574,-0.6377178343389962,0.8058120238597292,0.6100110847370399,-0.7687209575615135,0.47528139402781644,0.9426301893794206,0.2554975014248644,0.8991442673424703,-0.7317509749356647,0.4329223473903093,0.7218529850449373,-0.7534875029846766,0.3519257907580116,-0.40884172528644225,0.539950215024498,-0.4985099119632558,-0.831141968382577,-0.9274735290125814,0.2768981248793541,0.6930014281029466,-0.37013237113576725,-0.539475396054959,0.9115417382807706,0.793758704736775,-0.6187535646912052,0.6526327712670672,-0.10383268342949788,-0.5633987216106492,0.25544641269010154,-0.7562858198572974,-0.7137836974269169,-0.04027190443882547,0.13179898644958532,-0.1411361867673857,-0.7250376602114105,-0.18064721928349398,0.17036885231602197,-0.2980038760855273,-0.5121650747343803,0.25427791242621584,0.18064251656615177,0.4631975965695386,-0.529098633330194,0.49481647306091425,0.7481610633749524,0.1674995878965958,0.9507953375783182,0.7792677877871149,-0.333986524808997,-0.45056114501935407,-0.3517425786434226,-0.025420869355033644,0.20452953368010846,-0.8973102622613585,-0.30464425163454706,-0.3068813657687389,-0.19878824952126478,0.080433894792796,-0.9638448056210278,-0.5438932394229371,-0.13571254193898588,-0.5880538718021928,-0.41661536916300185,0.6745840250847291,0.5572080738701747,0.7528062338200517,-0.6412151761793098,-0.9976532002886727,0.6676440235018833,-0.29953318239170995,-0.6377533811616003,0.9607149367736719,-0.03664200341989023,0.5839762211784999,-0.5049780601799025,-0.35674174101235634,-0.20130642583747885,-0.8240624045748015,-0.49522481989507117,-0.22047889780630467,-0.8407174053744255,0.17711864052282805,0.6255445538252673,0.46960680421499323,-0.1811641262895147,0.3880598500303006,-0.6470481847758157,0.49758813418844416,-0.16931732421417173,0.10935765594160504,0.6252519624482732,0.28953809214643994,-0.8118184614157002,0.5016661372792867,-0.426551850154809,0.3030387430020538,-0.8381442770202673,-0.6116460922317928,0.9586455399545278,-0.08204797109496326,-0.44257307908029087,0.2982465488460701,-0.5675711491490817,-0.255991221816421,-0.062237562404527734,-0.5772391027231737,-0.16384956707220186,-0.33084133389971904,-0.28679568111380827,0.6014681953905313,0.8976689322069239,0.9429916753652784,-0.07165600127043849,-0.5483648219851416,-0.11101859746172667,-0.8769116784324172,0.5597714575670552,0.32207239248750724,0.07584890800692434,-0.19245273897051277,-0.8117870036437467,-0.12147079139219095,-0.8792801068489962,0.7354356309330375,0.019673034458997058,0.8172133715751716,0.9926364921740329,0.057408898166695296,0.40410926269526515,0.4550728123814607,0.3929868704735858,-0.6380811444673373,-0.7636421878385253,-0.24021343579241453,-0.7764602100429322,-0.6115437482525077,-0.07679594575869833,0.7596738142071576,-0.7967081479041462,0.26698601304074676,-0.03865823381369672,0.21279701537182746,-0.6167988965566602,0.5938728997360446,-0.40490364208835294,0.9166593877695641,0.012885592672800815,0.6875126660655068,-0.49085919380616383,-0.8954862536535897,0.981177955069499,0.9627705435488024,0.060079997077876604,-0.9990412890781136,-0.11775783786790028,0.5214369483971255,0.1622461762961437,-0.2008303474469554,-0.3483031342450196,-0.2234410940254645,0.616747078601041,0.0738770759365355,0.6721773714487488,0.2119211696149491,0.4093723905032962,-0.04105684942649555,-0.7345426728065585,0.22339117316456356,-0.6984955252717069,0.29502434834285834,-0.4317659632599606,0.3972285616797974,-0.10034937461281629,0.39239160522720584,0.9312099629697368,0.5510973238756296,-0.6868809339345903,0.056055912016453935,0.186390921870601,0.3967006622084254,0.4955192652975471,-0.9154131239837984,-0.6051255049257565,-0.22124497209485464,0.4147417423136307,0.5811310511269591,-0.9823853761358792,-0.8969379143012662,0.3072368184988044,-0.8955970541460587,-0.15588983583865865,-0.2126891289616367,0.4464950534517805,0.9396997176429901,0.46927373756434976,0.3513919356317121,0.09169121454702107,-0.4159362081156513,0.6259986323539501,0.10954577950752434,0.5813681623897224,0.9168559385712293,0.26121227050947665,-0.6648114410303783,-0.10145920001626128,-0.5334224651518277,-0.11412487004660914,0.2396863942619821,0.4571316223726376,-0.31353949939076764,-0.5658421501178903,-0.8603518055939453,0.3462273653325056,0.216020508720987,0.6349075283727398,0.783032930430086,-0.18273963018441367,0.7325407793684239,-0.271565724411978,0.9625808243453043,-0.589158112908024,0.18619300729552474,-0.7457059022304795,-0.7342630807516987,-0.2065475606043721,-0.03595333647019905,-0.409279319757136,0.09332897519483356,0.11070262083872157,-0.15700211269203038,0.944055085514387,0.9253383881839883,-0.5371514378681769,0.46853846998153503,0.5666319068754438,0.2198167454868643,0.9692292460034816,-0.46439154143898337,0.12391497367053164,-0.6979222308939803,-0.18754595389799103,-0.1501326708273707,0.33704888419120027,-0.865693950387345,-0.36078090985976213,0.012062876337537299,0.29440807970631766,-0.048511760249012874,-0.25621698033667384,0.5953208888786474,-0.8441606098550952,-0.5921392311053486,0.5710703911804119,0.37431404814368513,0.3658320723906597,-0.901528733684466,-0.7494900162349591,0.41753702583445657,0.946997623745912,0.10412764380974668,0.10796495331829761,0.6682235353147747,0.9628589041490766,-0.44676176537656154,-0.598189003991597,0.016363779414389202,0.818783767213405,0.10256210730338551,0.8907224104766084,0.8037631615133786,0.712786284584259,0.7094614596906151,-0.7355757732260313,0.2061708303520517,-0.7471358200283196,0.10146624160565525,-0.044870779430267224,6.807146485802536E-4,-0.9750114935779169,-0.055241936796264095,0.3960228619676529,0.8538205683980693,-0.2737958341670237,0.8711345799499592,-0.5953501747000752,-0.5449343539416031,0.36961861982075994,-0.7559232818155989,0.04285194296333638,0.5725198048695084,-0.976600006634743,-0.17256999599147707,-0.9588479363520707,-0.5780678491246405,-0.43683815509673873,-0.6339216772466887,0.6743798195974708,0.617081207384441,-0.0024943449414141354,0.49617460909771216,0.8367148563864191,0.40938625615587587,0.06889763825175717,0.3730739499423222,-0.01209290180371469,0.9258087687143354,-0.9629622855932353,-0.06143271563781104,-0.3708384775224851,0.6795503910297838,-0.18014653055925198,-0.15554203973655903,0.015634201795185917,0.7541289156716082,0.9967908616619133,-0.29213631631972325,0.9239986172793735,0.7513626469215604,-0.42789784077281257,0.5943122660762019,0.4673465726375377,0.8456174341051519,0.8506464304694393,0.407887992124238,-0.8140515786180912,0.10101770870911145,-0.7035991652731816,0.21337188016815226,-0.05861013639610862,0.5855543138901004,-0.17603332991821702,0.4235493773191872,0.5026185146117607,-0.24497534056235304,0.6158106038837354,-0.7444188099320462,-0.8632907208916939,0.08228301991598713,0.263329534923342,-0.10649252249139898,0.003055224208941813,0.9711596752053617,-0.20296671250155598,-0.6104056673229261,0.6987454538393939,-0.37828293770770566,0.0015401941578681683,-0.5044168722447078,0.914219076288731,0.7028654170810649,0.30349509588331774,-0.6644567014126156,0.8320790781943026,-0.5596564119786099,-0.5243071307044326,0.11510410000212268,0.6381448194003286,-0.9576577934317092,0.4180131417877571,0.9076710147523455,0.3128487145926829,-0.7377524407307577,-0.643725961286147,-0.03345712761728923,-0.2675581814205348,0.33744229876784204,-0.05756954986937049,-0.017642454470464457,-0.9669667975483208,-0.455244670599907,0.9445208219408407,0.23848161979168667,0.17703125060110367,0.177875465492004,0.4825664745513365,-0.28720205375452823,0.7103145788061047,0.8789308687166729,0.09665808111728291,0.8326702608876695,-0.1900205966883848,0.945980690551178,0.32596106538240355,-0.189976057917385,0.8957789842007268,0.4896945935407926,-0.06761815099363962,0.2673730023861158,0.31543538657731923,-0.8723900375128311,-0.5794981139555592],[-0.0876307517933686,-0.7191446530027323,0.08523382716604151,0.3148092622241413,0.645782831586808,0.07775084172833117,0.4612312730118336,-0.047138708927487276,0.8569886486903544,-0.6293067463309002,0.7532105548710113,0.44388225290694266,0.2618049535833351,0.4371061938266023,0.5938467219031233,0.5768898018552193,-0.7011576892389334,0.5628241783765783,0.30655923769093274,-0.36267217239918104,-0.927421403694109,0.8940615536506524,0.7418377440406511,-0.12279257209324143,-0.19279861619793381,0.6986314522089891,-0.28790659937729535,-0.34450368987022306,-0.540555625245827,0.4885536574147305,0.06672980620844401,0.32051030560673105,0.9416597601811549,-0.6640932560959865,-0.46993458411980515,0.31466834409084954,0.26482418515548967,0.15144015624947488,-0.4335978683933135,0.9518303695736674,0.8357824016544247,0.6981206384008196,-0.25785086847888644,-0.14819399023016072,-0.8696362809106182,-0.32386685630623047,-0.6776080093206741,0.11068778286517093,0.010231700319135251,0.3421365326396582,-0.8308958026125493,-0.05391739947406877,0.06672688899668766,0.8172296961559712,0.40175966862415957,0.7751039470402259,0.544719794376465,0.48678222191296366,-0.2654455699455433,-0.5333001276953075,-0.3623005822418245,-0.28796528122595927,0.9230947671253636,0.8562108713951228,-0.7550543643486173,-0.5497771887838923,-0.6659865239895779,-0.48224625532452753,-0.3589558103587447,0.3184433506439124,0.2921363306251714,-0.7391032681110952,0.9337977217520461,-0.8610818781484949,-0.43429831239259997,0.8505034794726907,0.6701782386567176,-0.9325024129170653,0.11769237198961137,-0.9540112971229876,0.5029835692148328,-0.9643811666329987,-0.91820438765224,-0.7870125233557531,-0.5623400464005838,-0.577182380717534,0.8129994973852723,-0.5184005212245864,0.8555941395266703,-0.36907871090100375,-0.18155968683352833,0.7083740087518561,-0.7545032262103554,-0.4550659062794137,-0.6073473466830408,-0.6542433330198286,0.37328329545146643,0.7425983366065237,-0.1398236224935098,-0.26985352863377743,-0.5173119900112834,0.7534056706725362,0.4708512640008484,0.2695954397104863,0.04119787167622119,0.6704679764374657,-0.8003457935076118,0.5475741877792474,0.5349706374577152,0.9839499474211065,0.969880983840506,-0.5465245510281296,0.8622752663418124,0.6292716018702044,-0.8526137398057823,0.10834268618688633,0.9880333671313709,-0.06478743053841374,-0.45241094138423515,-0.4241834678451547,0.6955976319933388,-0.5924709306113739,0.6520718958677756,0.1318449433081198,0.5079010728678338,-0.9004836506482131,0.2485580866426187,0.21184535073067057,0.14950988834531914,-0.3044745893133937,-0.7127940393032829,-0.9389710278800005,0.28113072085794893,0.37539276640184716,0.3911120173620841,-0.41319072800367473,-0.335933999113137,0.029017274141182544,-0.8374663833519109,0.9441131418507656,-0.6032518258767015,-0.5464759037063939,-0.8066682399233266,-0.02075428149505779,0.4143041378393926,0.7937739845583924,0.5192406289082634,0.8172933698217992,0.05479927904060043,0.6757309534087447,0.1503127504598143,0.599190703626522,0.16830998500901745,-0.764474002999688,0.2643219720561751,0.6564812641816752,0.9818766039609298,0.558444685043728,0.6670567662956106,0.25801723273097676,-0.26797529440725004,0.9223602183868473,-0.7952481311739336,0.47130862847382987,0.9381140203352972,-0.3216858992947308,0.9562572379547083,0.6521640526957878,0.11355076102104356,-0.398175346457567,0.23618169368446115,-0.3913823385416863,0.6976884223421165,-0.8853596486229236,0.7094576276493162,-0.4190937399094053,-0.9590385059938591,-0.09791284239442287,0.24731832325405403,-0.16111731348732303,0.3863343500668803,0.14330671676640075,0.5475083987333303,-0.0826242788751885,-0.035147532350465395,-0.18115401757916685,0.9951715209296464,0.29330557456738116,-0.4420627473518915,0.3795615884438299,-0.23937714065872945,0.6550918491420767,-0.8203195823679896,0.4353097255455898,0.7095790906724775,0.822854670955575,-0.10718072157428728,0.06088517896913727,0.34243331645384545,0.8474405744212284,-0.8046443540464858,0.8199813724337823,0.6862630675841861,0.8505011070957901,0.9021478576194837,0.6708249902481574,-0.1699107484415815,-0.23595828403104424,0.9941163473547968,0.547476099671878,-0.3759698097369362,-0.7150218383015416,-0.480713964227746,0.594129252303069,-0.04524553265448318,-0.9188957326536705,0.30304033584911166,0.7886842106179781,0.9661712359628445,-0.43134112831467014,0.962169920801616,-0.9987217011300841,0.6113948820937305,-0.5724392753353654,-0.4839171220499758,-0.5872444858080808,-0.9989852825025666,0.42716280864435807,0.7485603243787334,-0.3432424142463331,-0.8433916880536695,0.1075718296246907,-0.6007568791364164,0.050464459200343495,-0.016948285574614474,-0.6058855474985596,0.24858227232543223,0.8466829903697034,-0.45900915882394405,-0.6812882067697311,-0.7896724256967578,-0.43940241820793824,-0.970349550209747,0.6788791804967717,0.6555132732330416,0.12161964950766876,0.2850053410585431,0.6874195851913025,0.36681575056463456,0.8464103556720018,0.05158750105136452,-0.5516019188989685,0.758401808177942,-0.9524219028386719,0.8042803208435688,0.43998398567455677,-0.7058603565364231,0.4671542831542515,0.4766492462092269,-0.9059685768430541,0.3999532717945353,-0.3358690885906847,0.09491469442718226,0.032167829640218755,-0.41158423746041495,0.9897093305105529,-0.9775627128606238,0.5526888988788912,0.0015518200208298491,0.8419919441052,0.28456252238663515,-0.44446600773954,0.12500565917767958,0.5272307933284978,-0.7220231914457181,-0.7459013710781056,-0.961042265904929,-0.7632419185975285,0.05717005214313627,-0.25860378692577113,0.24601107025755353,0.40608969557515495,0.3488585050634245,-0.23849943107685345,0.8498955453153075,0.03321377587818864,-0.5398962351128934,0.8831427810327467,-0.33954615830884205,0.4118246189949429,0.32798081274586194,0.6804400639644956,-0.34032189882702746,-0.8231355060722254,0.10115927140895806,-0.5028847220802246,-0.8108743278021561,-0.44476115730716054,0.8462035778433986,0.9020599512557627,0.20375494272672737,-0.7125308746934548,-0.7566415699676653,0.0420507557663795,0.9869355140392557,0.8057963834312968,-0.5377406925621743,0.7534176871504353,0.8328037918356468,-0.0518915120399649,0.8041278539232409,-0.4827901318102628,-0.6244994993701362,0.7370992047282175,-0.8506582971936861,0.12394177816669438,-0.5184750642953834,-0.4318583345475391,0.7687122145931332,-0.7396201257228164,-0.08028742067436277,-0.4701796866648214,0.6365173747472229,0.13966534889741045,0.3855620655972951,0.5134239786084808,-0.9756479343013827,0.7653006302517923,0.8798627662640423,-0.7213878539225809,-0.13713636332950702,-0.5457313336017806,-0.07242225529745695,-0.3007210348917787,0.12301557073786296,0.8390814002861461,-0.32712991839357214,-0.9548801740030347,-0.6990970497768645,0.7275883567375497,0.49628033205292144,-0.6579524094496794,-0.019039084278708006,-0.08038785235649054,-0.5251205047958981,-0.39383680904942253,0.4088665496774927,-0.6375524738032468,-0.2584771733650286,-0.9361448630654549,0.022643809411668197,-0.12586409245259986,-0.4007842601807715,-0.6597674576093767,0.9689068239196853,-0.9302670943194448,-0.8924197824862953,-0.9522876730297231,0.7775706069468084,0.09852557717971157,-0.2189371910373607,-0.8019668496638694,-0.4315691750250195,-0.6682866209700711,0.027536524879511682,0.4346163990638034,-0.5641395148302369,-0.7629164363302132,-0.9982142150792679,-0.7980236969276422,-0.01704643120140627,0.33421085924342747,0.6617171176206982,-0.3378601491144106,0.37297566274958555,0.34505991036852857,-0.012242377350089205,-0.5788199820694067,0.7189249022246211,-0.5614350549067616,0.5635563657333041,-0.06288738474957559,0.14971559573600302,-0.18789304001351675,-0.9864862078207141,0.8667131009505439,-0.5268060237661599,-0.23749800084101697,-0.8453818503304623,-0.46126530388475906,0.9956924470700506,0.8684059845256276,-0.8556568851418772,0.2508472287377324,0.7671360962619143,-0.05919597957105733,0.3919147485174595,-0.8533374687678089,-0.7162478877337236,0.9925787700447206,-0.45036554832972664,-0.9418298377871508,-0.48599523583495885,0.6365105974298939,0.5114050628376392,0.8905548117510613,0.004402885860574941,-0.956682360343947,0.021229423404748145,-0.12768616390593127,-0.2233453319511992,-0.12787826557375626,0.22869298521016632,0.3160485970562368,0.7467885266459061,0.43361078861314395,0.3283840332394566,-0.5957405676252212,0.4739239935405765,-0.24773554296157388,-0.7184674104193706,0.9609210974935456,-0.8060730383000434,-0.8320592780946984,0.5421250160920182,0.16632952958690386,0.2920478517838243,-0.354037962480075,-0.30498618603249406,-0.2608368026797192,0.6414205853484165,0.06415286034643505,0.9633735690033491,-0.7608754114588466,0.5618173944855637,-0.597866404692964,0.6545140329652981,-0.1733695555830436,0.5459216239230292,0.9784976491276804,0.7854331805483832,-0.9242670582296654,-0.6436770578595161,0.6655261877406268,0.3672741049913119,0.24437178095239392,-0.3877485033710256,-0.6442948816955291,-0.874375339165772,-0.21268285825459546,0.5683387785616095,0.8647350034741692,0.7961090683773743,-0.16576999367080456,-0.5741845418004831,-0.07713245984757822,0.5571375765806207,0.8576418449185793,0.22582809317574304,0.943213353818524,-0.3512644554707284,-0.17746688225369997,-0.8601953939263529,0.8492199629529567,-0.22417801498773646,0.7304605973903265,0.8020396759486406,0.40214822434034664,0.5042528879206037,-0.33187878287741146,0.2235748807707101,0.19073528730093434,0.5329542741050278,-0.7845802738961352,0.7791396340900781,-0.27309504392697054,0.4608406460892471,-0.6127654588184244,0.7801038406637535,0.9399964009401356,0.4675366611418599,0.1574617085174468,-0.7780190455613775,0.7659613268242041,-0.8138556424287543,0.05369403480265319,-0.5584892784702311,-0.4972135710450214,-0.028384374645164915,0.31548308360982974,-0.37852104084200666,0.1342011862811601,-0.24517005074092638,0.6678706978651274,-0.6510391994053752,0.9199739231222894,-0.2801318168314495,0.8961937585150923,-0.23595590289485913,-0.7901945598581825,0.1546693196536477,0.09055434048626984,-0.7738259862314172,0.6569350849682954,-0.0019178838575844535,0.6861774998693945,0.8848430252536034,0.7947251197684607,0.8442160611488398,-0.7640520260805638,-0.9474425483661648,-0.7214127837316112,-0.538642493540987,0.23024886572232248,-0.1357943319420326,-0.9890858792931118,0.24609268474316695,-0.779476469610598,0.34601002583075063,0.8326340263772106,-0.5430746369605304,0.9995409848093809,0.7228767501505897,-0.5000921349629561,0.5567453324481293,-0.33716184271008603,-0.43828707803727013,0.26012143246938463,0.5430895781261434,-0.004093536288549684,0.17606212163987864,-0.5010934219465628,0.7574162241726625,-0.17237597398951918,-0.3857182632263369,-0.34714868876183363,0.33659840093253696,0.7362100010065381,0.5018649435346293,-0.13891737584184266,0.2074654034777925,-0.18730995963333055,-0.9666993672704477,-0.3196169439738828,0.32338718632162816,0.0637843553414316,-0.5159634073866662,-0.4075858049344931,0.7041988784900943,-0.5289256743790751,0.7572240866345041,-0.9959925394160661,-0.23683862204342931,0.7319480164733994,-0.31419684858899394,-0.02536252463276924,-0.6084845294454583,-0.7340691496762081,-0.9240357109470368,-0.9995905382443326,-0.6781198290562508,0.20260849451379714,-0.18819974073911752,-0.156429651816272,-0.6008883425420917,-0.2486143120810709,-0.2720366754550723,-0.386133926643328,-0.43488821607919803,0.6091745962238696,-0.581861073531646,0.09568004075432418,-0.4023855733789852,0.8765603341836115,0.6610074291884263,0.6577298755802262,-0.056048876725017335,-0.6744579763585252,0.7259118999326912,-0.00980210079197973,-0.6502084971727354,0.807925435285791,-0.535438879449407,-0.6134515433152644,0.40813133749254005,0.08906260027434908,-0.2019785663385857,0.3193949478388432,0.6417711869663986,0.46245592953984416,-0.02078931887227755,-0.3438478752691056,0.27635351987986434,-0.8796178365626157,-0.164543135201188,-0.983714190678092,0.47810345303315294,0.45170579778606706,-0.9050718365740155,0.4963345822929503,-0.49979599107813577,-0.8123439573697689,-0.1481143836835524,-0.7302932362443824,0.9208988677299291,-0.3722876830846873,-0.7576986475022098,0.4126163338960938,-0.048271345660675466,-0.9395128632958257,0.48540749110691433,0.719338171107015,0.6592605355002533,0.9288134116631127,0.5862621876877965,0.23884649336896063,0.8673184810904883,0.2948172586377548,-0.7991371608936287,0.7965022824861715,0.4877599417227707,0.7190222771186376,-0.5693986937632278,-0.1374884607583319,-0.9154542506381161,-0.1986970808887933,-0.3526357360446337,-0.2132435995760464,-0.4188627737526196,0.3173937134789685,-0.1607654042910396,0.6394341689999633,-0.8014434233145773,-0.8649008491753282,0.4224872146844557,-0.3201995528618762,-0.05527300710834305,0.9129784810138197,-0.015119873967166863,-0.17746667583842343,-0.7225964613020771,-0.04233300608203523,-0.9956652628991433,-0.6208386824451331,0.9241650876575642,-0.44207017470839033,-0.7711646160177773,-0.1793967579863404,0.2631376944341428,-0.3871222401450607,-0.890816144527657,-0.6573012792954298,0.1592698438057159,0.43857962810376094,0.44458681966557956,-0.3887637610225793,-0.3033153836311134,-0.735842883050567,0.2304646019266669,-0.77859533344696,-0.1390367537291805,0.11541222538434795,0.5890937288986287,0.12598344152295646,0.8958494293752512,-0.4615226840098941,0.6205620159535933,0.5712875506176192,-0.20101512542998975,-0.06955872948862998,-0.969170892069743,-0.07236083200417821,-0.7804359066674086,-0.8807067330217545,-0.5323438780828413,-0.7974412170795101,0.8775358915988414,-0.7247200556940343,-0.3557302426470045,0.0031356093544121742,-0.44567752004672057,0.23909236592293556,0.5322885596024397,0.24313065230487613,-0.3127576656509315,-0.08406759572915481,-0.8256174358620589,0.9872601967013213,-0.34962763147627784,-0.48875677331597006,-0.004501555199921084,-0.5182296570506116,0.9128478996599465,0.07115361377278753,0.8847077693325314,0.6435504446710566,0.44592132769987214,-0.9492702900631902,-0.22071786887354383,-0.9372467551595394,0.9789918471835574,-0.5648304707380015,0.9900204569416668,-0.0834751196085358,-0.9919405996627728,-0.6728717390658929,0.09802484503699462,0.10402962840781389,0.8207676753630461,0.8466480438358457,-0.11155904105147685,0.3809306277429574,0.225188457099884,-0.30566308997775254,-0.5051042425422642,-0.6943680352195918,0.1566618753824738,0.7928064826160215,0.6948735852366869,0.40451271777362224,-0.11612304294462956,-0.9545067068268159,-0.8741583475146466,-0.8774088156571097,0.15105462560929125,-0.5514297064357065,0.08739484756970975,-0.15338106074706503,0.2612963101114885,-0.4660663455957321,0.5449906309933443,-0.4304912622891295,-0.1531999188393388,-0.5561590421387251,0.9729894439796093,-0.38737885767166547,-0.13127912668893385,0.8104353782073574,0.752105707994626,0.22917436303230695,0.2509923847789946,-0.9456894314299039,0.9799533605537321,0.8836706539134788,-0.5238858278589609,0.7176416861726896,0.7577201415761343,-0.46592373229839384,0.4572099896146511,0.011960471842209374,-0.7146216192655542,-0.6575866269708047,-0.9483591502071733,0.889368791724249,0.42512554700659416,0.8921836057433213,0.6870085886929354,0.63048679066533,0.7871694226760525,0.21728571450066908,0.7517078959991403,0.20127896947851623,0.8476537270292845,-0.2726452314081633,-0.36680405559523654,-0.5601580094480926,-0.8757288162399574,0.4606563300691469,-0.4118848841965496,-0.486172542255278,0.01627862366492642,0.0033207454931770543,-0.012257106281033192,-0.9734605933367309,0.5571573393120764,0.8860119795535901,-0.08910534194027193,-0.34321545312176127,0.037444804173407994,-0.6979957332393885,0.5361606677255925,0.2735801080193167,-0.7861488734016484,-0.4175234187640827],[-0.8985871404923134,0.6614178890956698,0.03009022773718205,-0.2947747059212356,-0.30169315399392616,0.7110026204119427,0.4266800058582383,0.263853437505941,0.2598585620509848,0.37170392684014364,0.8165977956618603,-0.06001161998124413,-0.9214049634507795,-0.3444182258210449,-0.987319222825536,-0.42284351489811994,-0.13614369212257127,0.8013795260138908,0.6795960986736462,0.7995548801745795,-0.9322760180692421,-0.9624122510921109,0.8207906035900487,-0.2711695203228936,-0.6363338545400323,0.7289295910234083,-0.9726326798112113,-0.8497761874501705,0.9896750284948539,0.019370705924653175,0.944346477718843,0.7730052382687028,-0.205872093692306,0.4134231157617924,-0.9337126124613454,-0.6593458626828874,-0.4877132682664118,-0.8688391608060211,-0.8035793897328694,-0.4790893532028748,0.0533707882584991,-0.4731361479963012,0.6857693395573119,0.7415457751457388,-0.6075404162736883,0.37923288334203753,0.9150983810929418,0.4371000486318528,0.038557075910030464,0.4406273526442831,-0.6102694734619707,0.5322087100068482,-0.01083493893261686,0.2755436972736262,0.28903506002755214,-0.587798003156751,0.5846860429052559,-0.8754757122185022,0.34538288834642467,0.11710705100408236,-0.2608498304969269,0.2954930408668922,-0.4778106093704164,-0.9558206024477708,0.651597055292312,0.4162284259977165,-0.8799648719611787,0.055609520584038515,-0.708429541970822,-0.2267203325762094,-0.340231505250761,0.5618037438712759,0.7043795028816527,0.9185081211769693,-0.8246151384522226,0.8869694188942746,0.49574394627779533,0.7409774468618042,-0.6058705246295519,0.02232575487883337,-0.2672039464166814,-0.7172392135455857,0.6905392039657823,-0.2659837723985457,0.9380450234758895,0.7201405515162247,0.6716413919217892,0.9164409467217608,-0.14573917541277848,0.1354241905486298,-0.217134625156876,-0.9322083576856441,0.22307361796915207,-0.026441842651697415,0.4210856101072954,-0.18623962123525875,0.9469818974883581,0.406860854462158,-0.3014085369890708,0.5166610093836862,0.6942810054192032,0.22470807473098076,0.2232199390038921,0.18092040545787733,0.257283838245307,-0.6811778386303527,0.04201339840137614,-0.897920729450967,-0.2100853822865385,0.3533673505357672,0.24258907460262005,0.0057362648630437715,0.4271788427144307,-0.21070219733325923,0.614221684863212,-0.21614821161265785,-0.271716115294546,-0.9261448148993006,0.2408266766918718,-0.6404046005388678,-0.11273699512690337,-0.48773129613927135,0.9319468154267593,0.6983525631428903,0.7195432148712362,-0.894294743988705,0.9932263309307505,0.5316896113439071,0.06018128091947816,0.47014831579069405,0.9962239200262635,-0.02831536777395413,0.3976369535527844,-0.1573259068336308,-0.07238689898454778,-0.13266035006357463,0.3205640948335116,0.1370741269941974,-0.61820267103277,-0.5087675841878474,0.6686206868863599,0.02905122323361445,-0.6937712839786676,0.9429983565323803,0.15530776601064436,0.12980167325396733,-0.7832404329865418,-0.4821864480342571,-0.3296179301925803,0.45063175740539735,-0.2286310015249358,-0.7883556516810168,0.4714518041826177,0.5657582418273778,-0.8761498683200342,0.521956107044347,-0.960951630970453,-0.8516758584736978,0.5744752692885297,0.7504958076481414,0.49540261475416875,0.8844041812747615,0.6928726725038856,-0.8732912577835479,-0.8220991819847935,0.16232322530624743,0.30945413836729513,0.24434836543261154,-0.7904736716624742,0.39060296218833174,0.5545323219200506,-0.4606080923170446,-0.2771589509044828,-0.6861049369890531,0.46999126891521203,-0.16298006066260284,0.7713370770376675,0.2776168551773386,-0.3732663381659403,0.3560903958605481,0.9014039545506751,-0.966012499901727,0.651912442964173,0.9840534858837736,-0.13966882241681072,-0.612512599867137,0.602875819993555,-0.8791253160759755,-0.02065925639678871,0.7451348232794761,0.7204510441961509,-0.060464454324327496,-0.6013959721060314,0.4668906516521121,-0.7470306188651495,-0.47709597087439337,-0.5094320639464776,-0.19487684508876427,-0.23762292643104013,0.00893838368094569,-0.4111018660259796,0.17542308779262203,-0.3926054122818907,0.6140486502221607,0.44587055613196874,0.5201751068573259,0.14428703190641515,0.20229203572063817,-0.2825294547082817,0.6055344583016654,-0.4057913083900581,-0.06992845940549944,0.21530876689346382,-0.7646376450466345,-0.5035667500658838,0.4192862701174814,0.665550120709704,0.5706448618988326,0.20004427651581053,0.8982761725858183,-0.7195068244117355,0.010247305028899329,-0.057048069530874136,-0.2003836109241181,0.5752416995389166,-0.5801609238983917,-0.2755986203323992,-0.5864346921448111,-0.4495338431352223,-0.11299157862308913,0.39841871357196734,-0.6287558489017082,0.615320886218923,0.6369271559761953,-0.8012718884428888,0.9670990031790319,-0.5616402499816282,-0.740212193964374,0.2514061343867478,0.6294881421715331,0.2917837729675365,0.9815721723603037,-0.460383518523256,0.20928224032292342,-0.6071489018107008,-0.6477234407446395,-0.744650387851959,0.17998464994105426,0.24935475005777918,-0.5695162708576241,-0.49300514898627346,-0.669677149402547,0.08010971305430147,-0.6883869642476664,0.9463308021022879,-0.9226266634945677,-0.9922078455476968,0.6759878656328759,0.037254632790823444,0.14105633514890048,-0.08824555707266436,-0.07344845954701115,-0.5907188815425947,-0.0060677159907500475,0.5798956798656759,0.4405700752208615,-0.9780775910198156,-0.7631074672689232,-0.8864025261380446,-0.5225282899899398,-0.28812930760721517,-0.15008694279696863,0.41559675243926575,0.3646649171656154,-0.8976017233693316,0.12812722638727359,0.03156700725060185,-0.2736137654922316,0.8269867839961127,0.038708114123143206,-0.3825687838798929,0.7253247142885239,-0.4501317379488587,0.7180658854128147,-0.131652911099553,0.5540927016445847,0.36376902938767913,0.8797472978190584,-0.12670219788791764,-0.2556920254959935,-0.19738403475357566,-0.9862973498098075,0.5479541627457889,0.253168069873333,0.9277397885897518,-0.5682293201935086,0.0510063896776469,0.7426876106086797,0.729402928782169,0.45028899906152314,0.9024527954851537,0.9840617795960732,0.4306169289596794,0.2997517376225236,-0.09896197655776985,0.9002489533015274,0.1900053096414278,0.7131136413463065,0.8761000715894702,-0.5980770040637945,-0.8310672743437147,-0.4327242402882026,0.8113465693600503,-0.12289946677679683,-0.03693544957572972,0.4394064982328987,-0.05704383750713392,0.9626672873659465,0.9935860452150661,0.4883978460880415,0.06089040181191693,-0.9442948661029615,-0.3885440707424045,0.6828570920034495,0.43228415671786263,0.9154023040545857,0.3890596538051674,0.07102216887191926,-0.4834133858200324,0.6610072447750911,-0.6439851499538577,0.5242158875527818,0.9583075420162979,-0.5105012692569891,-0.21656860066862652,0.18474774598751847,0.2187627311545999,0.5161235902755564,0.5266719952099637,0.7096659608559692,-0.3518910709739104,-0.71627070682024,-0.09073523727537534,-0.6738106545640099,0.8011196453554311,0.6920817075268331,0.6630814483218191,-0.2989799939842187,-0.6356701247643086,-0.6343377891475723,0.5356146410989099,-0.32575625213652243,